{"learner":{"attributes":{"scikit_learn":"{\"_estimator_type\": \"classifier\"}"},"feature_names":["distance","angle","is_behind_net","is_rush","is_rebound","shot_type_encoded","prior_event_encoded","seconds_since_prior","score_state","period_cat","is_home","game_strength_encoded"],"feature_types":["float","float","float","float","float","float","float","float","float","float","float","float"],"gradient_booster":{"model":{"cats":{"enc":[],"feature_segments":[],"sorted_idx":[]},"gbtree_model_param":{"num_parallel_tree":"1","num_trees":"300"},"iteration_indptr":[0,1,2,3,4,5,6,7,8,9,10,11,12,13,14,15,16,17,18,19,20,21,22,23,24,25,26,27,28,29,30,31,32,33,34,35,36,37,38,39,40,41,42,43,44,45,46,47,48,49,50,51,52,53,54,55,56,57,58,59,60,61,62,63,64,65,66,67,68,69,70,71,72,73,74,75,76,77,78,79,80,81,82,83,84,85,86,87,88,89,90,91,92,93,94,95,96,97,98,99,100,101,102,103,104,105,106,107,108,109,110,111,112,113,114,115,116,117,118,119,120,121,122,123,124,125,126,127,128,129,130,131,132,133,134,135,136,137,138,139,140,141,142,143,144,145,146,147,148,149,150,151,152,153,154,155,156,157,158,159,160,161,162,163,164,165,166,167,168,169,170,171,172,173,174,175,176,177,178,179,180,181,182,183,184,185,186,187,188,189,190,191,192,193,194,195,196,197,198,199,200,201,202,203,204,205,206,207,208,209,210,211,212,213,214,215,216,217,218,219,220,221,222,223,224,225,226,227,228,229,230,231,232,233,234,235,236,237,238,239,240,241,242,243,244,245,246,247,248,249,250,251,252,253,254,255,256,257,258,259,260,261,262,263,264,265,266,267,268,269,270,271,272,273,274,275,276,277,278,279,280,281,282,283,284,285,286,287,288,289,290,291,292,293,294,295,296,297,298,299,300],"tree_info":[0,0,0,0,0,0,0,0,0,0,0,0,0,0,0,0,0,0,0,0,0,0,0,0,0,0,0,0,0,0,0,0,0,0,0,0,0,0,0,0,0,0,0,0,0,0,0,0,0,0,0,0,0,0,0,0,0,0,0,0,0,0,0,0,0,0,0,0,0,0,0,0,0,0,0,0,0,0,0,0,0,0,0,0,0,0,0,0,0,0,0,0,0,0,0,0,0,0,0,0,0,0,0,0,0,0,0,0,0,0,0,0,0,0,0,0,0,0,0,0,0,0,0,0,0,0,0,0,0,0,0,0,0,0,0,0,0,0,0,0,0,0,0,0,0,0,0,0,0,0,0,0,0,0,0,0,0,0,0,0,0,0,0,0,0,0,0,0,0,0,0,0,0,0,0,0,0,0,0,0,0,0,0,0,0,0,0,0,0,0,0,0,0,0,0,0,0,0,0,0,0,0,0,0,0,0,0,0,0,0,0,0,0,0,0,0,0,0,0,0,0,0,0,0,0,0,0,0,0,0,0,0,0,0,0,0,0,0,0,0,0,0,0,0,0,0,0,0,0,0,0,0,0,0,0,0,0,0,0,0,0,0,0,0,0,0,0,0,0,0,0,0,0,0,0,0,0,0,0,0,0,0,0,0,0,0,0,0,0,0,0,0,0,0,0,0,0,0,0,0],"trees":[{"base_weights":[-5.717427E-3,-7.412688E-1,7.687119E-1,-2.3615879E-1,-1.451535E0,1.1024529E0,-4.099577E-1,1.2067632E-2,-7.8434485E-1,-1.1189215E0,-1.5960252E0,1.1963137E0,5.3590643E-1,1.2641917E-1,-7.417197E-1,-2.6318168E-2,1.2925826E-2,-2.804288E-2,-6.3726544E-2,-3.230278E-2,-6.754799E-2,-6.788729E-2,-8.564624E-2,6.49154E-2,3.6548417E-2,4.2982697E-2,-1.1282995E-2,2.1000745E-2,-3.7530664E-2,-1.3887237E-2,-4.6715077E-2],"categories":[],"categories_nodes":[],"categories_segments":[],"categories_sizes":[],"default_left":[0,0,0,0,0,0,0,0,0,0,0,0,0,0,0,0,0,0,0,0,0,0,0,0,0,0,0,0,0,0,0],"id":0,"left_children":[1,3,5,7,9,11,13,15,17,19,21,23,25,27,29,-1,-1,-1,-1,-1,-1,-1,-1,-1,-1,-1,-1,-1,-1,-1,-1],"loss_changes":[3.7131023E4,1.1993531E4,1.2491111E4,2.6586848E3,6.6594336E2,1.3152812E3,1.2470911E3,1.7848474E3,6.6642065E2,4.6117822E2,2.674121E2,1.0066094E3,8.6779736E2,6.900945E2,3.866184E2,0E0,0E0,0E0,0E0,0E0,0E0,0E0,0E0,0E0,0E0,0E0,0E0,0E0,0E0,0E0,0E0],"parents":[2147483647,0,0,1,1,2,2,3,3,4,4,5,5,6,6,7,7,8,8,9,9,10,10,11,11,12,12,13,13,14,14],"right_children":[2,4,6,8,10,12,14,16,18,20,22,24,26,28,30,-1,-1,-1,-1,-1,-1,-1,-1,-1,-1,-1,-1,-1,-1,-1,-1],"split_conditions":[1E0,3.330165E1,3.7161808E1,4.574406E1,4.1617306E1,5.668937E1,4.5276924E1,2E0,2.236068E1,2.4863697E1,2.0449547E1,2.879236E1,1.9723083E1,4.0601295E1,2E0,-2.6318168E-2,1.2925826E-2,-2.804288E-2,-6.3726544E-2,-3.230278E-2,-6.754799E-2,-6.788729E-2,-8.564624E-2,6.49154E-2,3.6548417E-2,4.2982697E-2,-1.1282995E-2,2.1000745E-2,-3.7530664E-2,-1.3887237E-2,-4.6715077E-2],"split_indices":[8,0,0,1,0,1,0,9,0,1,1,0,0,1,9,0,0,0,0,0,0,0,0,0,0,0,0,0,0,0,0],"split_type":[0,0,0,0,0,0,0,0,0,0,0,0,0,0,0,0,0,0,0,0,0,0,0,0,0,0,0,0,0,0,0],"sum_hessian":[6.518216E4,3.3430234E4,3.1751926E4,1.9537416E4,1.3892818E4,2.4745334E4,7.006592E3,1.3448652E4,6.088763E3,4.210071E3,9.682747E3,2.1227434E4,3.517901E3,2.6778276E3,4.328764E3,4.222462E3,9.22619E3,4.1835356E3,1.9052273E3,1.3871039E3,2.822967E3,3.1910225E3,6.491725E3,1.7409773E4,3.8176597E3,2.4684258E3,1.049475E3,2.0066139E3,6.7121375E2,1.2704331E3,3.0583313E3],"tree_param":{"num_deleted":"0","num_feature":"12","num_nodes":"31","size_leaf_vector":"1"}},{"base_weights":[-2.074274E-4,-6.9790596E-1,7.340833E-1,-2.2298254E-1,-1.3635876E0,1.0559604E0,-4.0964165E-1,2.8539639E-2,-7.8488064E-1,-9.872962E-1,-1.4889181E0,1.2229222E0,7.9875976E-1,8.893649E-2,-7.1649796E-1,-5.3704448E-2,6.1828443E-3,2.039534E-2,-4.320869E-2,-4.1322675E-2,-7.759159E-2,-6.763993E-2,-8.477681E-2,1.7650254E-2,6.436192E-2,4.8206896E-2,-7.363362E-3,1.8866092E-2,-3.7711795E-2,-2.348363E-2,-5.4894615E-2],"categories":[],"categories_nodes":[],"categories_segments":[],"categories_sizes":[],"default_left":[0,0,0,0,0,0,0,0,0,0,0,0,0,0,0,0,0,0,0,0,0,0,0,0,0,0,0,0,0,0,0],"id":1,"left_children":[1,3,5,7,9,11,13,15,17,19,21,23,25,27,29,-1,-1,-1,-1,-1,-1,-1,-1,-1,-1,-1,-1,-1,-1,-1,-1],"loss_changes":[3.3590516E4,1.0628863E4,1.1760787E4,2.7733467E3,6.587246E2,1.0695781E3,1.0735481E3,1.421901E3,5.742429E2,3.1657544E2,2.929961E2,8.4521875E2,1.5358677E3,6.505135E2,4.083733E2,0E0,0E0,0E0,0E0,0E0,0E0,0E0,0E0,0E0,0E0,0E0,0E0,0E0,0E0,0E0,0E0],"parents":[2147483647,0,0,1,1,2,2,3,3,4,4,5,5,6,6,7,7,8,8,9,9,10,10,11,11,12,12,13,13,14,14],"right_children":[2,4,6,8,10,12,14,16,18,20,22,24,26,28,30,-1,-1,-1,-1,-1,-1,-1,-1,-1,-1,-1,-1,-1,-1,-1,-1],"split_conditions":[1E0,3.330165E1,3.7161808E1,4.574406E1,3.992493E1,1.9723083E1,4.5276924E1,2E0,5.0990195E0,5.0389313E1,3.1865978E1,2E0,5.134019E1,4.0601295E1,2.974488E1,-5.3704448E-2,6.1828443E-3,2.039534E-2,-4.320869E-2,-4.1322675E-2,-7.759159E-2,-6.763993E-2,-8.477681E-2,1.7650254E-2,6.436192E-2,4.8206896E-2,-7.363362E-3,1.8866092E-2,-3.7711795E-2,-2.348363E-2,-5.4894615E-2],"split_indices":[8,0,0,1,0,0,0,7,0,1,1,7,1,1,1,0,0,0,0,0,0,0,0,0,0,0,0,0,0,0,0],"split_type":[0,0,0,0,0,0,0,0,0,0,0,0,0,0,0,0,0,0,0,0,0,0,0,0,0,0,0,0,0,0,0],"sum_hessian":[6.556432E4,3.361988E4,3.1944438E4,1.9622062E4,1.3997816E4,2.4928826E4,7.015611E3,1.3555272E4,6.0667905E3,3.4995813E3,1.0498235E4,1.511389E4,9.8149375E3,2.6730942E3,4.3425166E3,1.0756549E3,1.2479617E4,3.7790524E2,5.6888857E3,2.7255144E3,7.7406683E2,6.3333735E3,4.164862E3,1.0409464E3,1.4072943E4,8.354448E3,1.4604885E3,1.9922494E3,6.80845E2,2.6377114E3,1.7048049E3],"tree_param":{"num_deleted":"0","num_feature":"12","num_nodes":"31","size_leaf_vector":"1"}},{"base_weights":[5.5329935E-3,-6.6229343E-1,7.064342E-1,-2.0879722E-1,-1.302466E0,1.0064585E0,-3.550481E-1,-1.1438596E0,-1.2171151E-1,-9.4888717E-1,-1.4193413E0,1.1181082E0,6.509926E-1,6.3333136E-4,-6.8694645E-1,1.9894859E-2,-6.1677128E-2,7.330525E-3,-2.0331709E-2,-8.046369E-2,-4.577258E-2,-6.438469E-2,-7.662631E-2,1.5056932E-2,5.864202E-2,-4.6038534E-2,3.4365125E-2,-6.65855E-2,1.9896226E-3,-2.8494274E-2,-6.609384E-2],"categories":[],"categories_nodes":[],"categories_segments":[],"categories_sizes":[],"default_left":[0,0,0,0,0,0,0,0,0,0,0,0,0,0,0,0,0,0,0,0,0,0,0,0,0,0,0,0,0,0,0],"id":2,"left_children":[1,3,5,7,9,11,13,15,17,19,21,23,25,27,29,-1,-1,-1,-1,-1,-1,-1,-1,-1,-1,-1,-1,-1,-1,-1,-1],"loss_changes":[3.0676303E4,9.742739E3,1.0183888E4,1.5995935E3,5.7371484E2,9.8869336E2,8.31913E2,2.3190405E2,1.3740922E3,7.4927734E1,1.5383398E2,8.478828E2,3.408423E2,1.7758228E2,2.7019568E2,0E0,0E0,0E0,0E0,0E0,0E0,0E0,0E0,0E0,0E0,0E0,0E0,0E0,0E0,0E0,0E0],"parents":[2147483647,0,0,1,1,2,2,3,3,4,4,5,5,6,6,7,7,8,8,9,9,10,10,11,11,12,12,13,13,14,14],"right_children":[2,4,6,8,10,12,14,16,18,20,22,24,26,28,30,-1,-1,-1,-1,-1,-1,-1,-1,-1,-1,-1,-1,-1,-1,-1,-1],"split_conditions":[1E0,3.330165E1,3.7161808E1,2E0,3.992493E1,2.6019224E1,4.90306E1,4.472136E0,1.7088007E1,2E0,5.2773098E1,2E0,2E0,2E0,6.664833E1,1.9894859E-2,-6.1677128E-2,7.330525E-3,-2.0331709E-2,-8.046369E-2,-4.577258E-2,-6.438469E-2,-7.662631E-2,1.5056932E-2,5.864202E-2,-4.6038534E-2,3.4365125E-2,-6.65855E-2,1.9896226E-3,-2.8494274E-2,-6.609384E-2],"split_indices":[8,0,0,7,0,0,0,0,0,7,0,7,7,7,0,0,0,0,0,0,0,0,0,0,0,0,0,0,0,0,0],"split_type":[0,0,0,0,0,0,0,0,0,0,0,0,0,0,0,0,0,0,0,0,0,0,0,0,0,0,0,0,0,0,0],"sum_hessian":[6.5534402E4,3.3559035E4,3.1975367E4,1.964436E4,1.3914676E4,2.4929252E4,7.046115E3,1.6726405E3,1.7971719E4,3.4590984E3,1.0455577E4,1.8969047E4,5.960205E3,3.4016785E3,3.644437E3,9.17589E1,1.5808816E3,9.255739E3,8.71598E3,1.6442438E2,3.2946738E3,4.8392817E3,5.616296E3,1.1914312E3,1.7777615E4,1.3403001E2,5.8261753E3,9.618225E1,3.305496E3,3.078717E3,5.657199E2],"tree_param":{"num_deleted":"0","num_feature":"12","num_nodes":"31","size_leaf_vector":"1"}},{"base_weights":[-3.2468839E-3,-6.3391095E-1,6.6107017E-1,-1.8228894E-1,-1.2336719E0,9.804213E-1,-2.2274691E-1,8.341819E-3,-8.170579E-1,-9.2903256E-1,-1.3579311E0,1.290258E0,8.139035E-1,1.782058E-1,-5.886444E-1,-2.5863037E-2,1.2279279E-2,2.6819209E-2,-4.5496013E-2,-6.936126E-2,-3.513147E-2,-6.0611334E-2,-7.752553E-2,6.6942915E-2,3.7333827E-2,4.557196E-2,1.3797131E-2,2.3526702E-2,-3.4051474E-2,-5.206376E-3,-4.0041246E-2],"categories":[],"categories_nodes":[],"categories_segments":[],"categories_sizes":[],"default_left":[0,0,0,0,0,0,0,0,0,0,0,0,0,0,0,0,0,0,0,0,0,0,0,0,0,0,0,0,0,0,0],"id":3,"left_children":[1,3,5,7,9,11,13,15,17,19,21,23,25,27,29,-1,-1,-1,-1,-1,-1,-1,-1,-1,-1,-1,-1,-1,-1,-1,-1],"loss_changes":[2.7203266E4,9.0219795E3,8.925314E3,2.299394E3,5.403457E2,1.1973887E3,1.2315612E3,1.8224968E3,5.5207324E2,4.293584E2,2.832129E2,2.1346875E2,7.9264453E2,1.0065136E3,4.5113464E2,0E0,0E0,0E0,0E0,0E0,0E0,0E0,0E0,0E0,0E0,0E0,0E0,0E0,0E0,0E0,0E0],"parents":[2147483647,0,0,1,1,2,2,3,3,4,4,5,5,6,6,7,7,8,8,9,9,10,10,11,11,12,12,13,13,14,14],"right_children":[2,4,6,8,10,12,14,16,18,20,22,24,26,28,30,-1,-1,-1,-1,-1,-1,-1,-1,-1,-1,-1,-1,-1,-1,-1,-1],"split_conditions":[1E0,3.2449963E1,3.420526E1,5.3392925E1,4.036087E1,2E0,4.5276924E1,2E0,5E0,2E0,3.0650667E1,6.4653824E1,5.668937E1,4.0601295E1,2E0,-2.5863037E-2,1.2279279E-2,2.6819209E-2,-4.5496013E-2,-6.936126E-2,-3.513147E-2,-6.0611334E-2,-7.752553E-2,6.6942915E-2,3.7333827E-2,4.557196E-2,1.3797131E-2,2.3526702E-2,-3.4051474E-2,-5.206376E-3,-4.0041246E-2],"split_indices":[8,0,0,1,0,9,0,9,0,9,1,1,1,1,9,0,0,0,0,0,0,0,0,0,0,0,0,0,0,0,0],"split_type":[0,0,0,0,0,0,0,0,0,0,0,0,0,0,0,0,0,0,0,0,0,0,0,0,0,0,0,0,0,0,0],"sum_hessian":[6.4928312E4,3.3307836E4,3.1620479E4,1.9001184E4,1.4306651E4,2.322753E4,8.39295E3,1.4613511E4,4.387673E3,4.1473384E3,1.0159313E4,8.1172144E3,1.5110314E4,4.0048853E3,4.388065E3,4.5444067E3,1.0069104E4,2.8141113E2,4.1062617E3,1.3698734E3,2.777465E3,5.7876807E3,4.371633E3,7.449695E3,6.675196E2,1.27906045E4,2.3197097E3,2.9885693E3,1.0163159E3,1.3368477E3,3.0512175E3],"tree_param":{"num_deleted":"0","num_feature":"12","num_nodes":"31","size_leaf_vector":"1"}},{"base_weights":[-6.351493E-3,-6.0933924E-1,6.284863E-1,-2.0802628E-1,-1.1759796E0,8.903989E-1,-3.8323545E-1,2.0691907E-2,-7.2409886E-1,-8.820068E-1,-1.3119502E0,9.905135E-1,4.4775334E-1,-2.587746E-1,-1.131351E0,-5.0800122E-2,5.489703E-3,5.774757E-2,-3.848817E-2,-2.4024265E-2,-5.3695958E-2,-5.9646975E-2,-7.5287834E-2,7.0788623E-3,5.215503E-2,3.5438504E-2,-1.0962619E-2,-2.5768317E-3,-3.9019484E-2,-4.920311E-2,-8.746847E-2],"categories":[],"categories_nodes":[],"categories_segments":[],"categories_sizes":[],"default_left":[0,0,0,0,0,0,0,0,0,0,0,0,0,0,0,0,0,0,0,0,0,0,0,0,0,0,0,0,0,0,0],"id":4,"left_children":[1,3,5,7,9,11,13,15,17,19,21,23,25,27,29,-1,-1,-1,-1,-1,-1,-1,-1,-1,-1,-1,-1,-1,-1,-1,-1],"loss_changes":[2.4771299E4,7.546705E3,8.353374E3,2.2933765E3,5.48834E2,1.109248E3,6.0335913E2,1.2437891E3,5.128613E2,3.3503027E2,2.1515332E2,9.115117E2,8.0462006E2,6.009552E2,8.2427124E1,0E0,0E0,0E0,0E0,0E0,0E0,0E0,0E0,0E0,0E0,0E0,0E0,0E0,0E0,0E0,0E0],"parents":[2147483647,0,0,1,1,2,2,3,3,4,4,5,5,6,6,7,7,8,8,9,9,10,10,11,11,12,12,13,13,14,14],"right_children":[2,4,6,8,10,12,14,16,18,20,22,24,26,28,30,-1,-1,-1,-1,-1,-1,-1,-1,-1,-1,-1,-1,-1,-1,-1,-1],"split_conditions":[1E0,3.330165E1,3.8483765E1,4.574406E1,4.1785164E1,2.9068884E1,6.3600315E1,2E0,4E0,2.4863697E1,3.1865978E1,2E0,4.023636E1,3.6528854E1,7.2718636E1,-5.0800122E-2,5.489703E-3,5.774757E-2,-3.848817E-2,-2.4024265E-2,-5.3695958E-2,-5.9646975E-2,-7.5287834E-2,7.0788623E-3,5.215503E-2,3.5438504E-2,-1.0962619E-2,-2.5768317E-3,-3.9019484E-2,-4.920311E-2,-8.746847E-2],"split_indices":[8,0,0,1,0,0,0,7,0,1,1,7,1,1,0,0,0,0,0,0,0,0,0,0,0,0,0,0,0,0,0],"split_type":[0,0,0,0,0,0,0,0,0,0,0,0,0,0,0,0,0,0,0,0,0,0,0,0,0,0,0,0,0,0,0],"sum_hessian":[6.4708914E4,3.3186977E4,3.1521938E4,1.9428473E4,1.3758504E4,2.5039799E4,6.4821377E3,1.3462838E4,5.9656343E3,4.3535244E3,9.4049795E3,2.0420084E4,4.619715E3,5.558705E3,9.2343256E2,1.0647047E3,1.2398134E4,1.4096034E2,5.8246743E3,1.4090326E3,2.944492E3,5.831306E3,3.5736729E3,1.1913472E3,1.9228738E4,3.3203232E3,1.2993915E3,3.9789607E3,1.5797446E3,7.478047E2,1.7562782E2],"tree_param":{"num_deleted":"0","num_feature":"12","num_nodes":"31","size_leaf_vector":"1"}},{"base_weights":[1.2855367E-3,-5.6886137E-1,6.0507375E-1,-1.5205377E-1,-1.1302657E0,9.021141E-1,-2.2287107E-1,7.1608764E-3,-8.056433E-1,-1.3797091E0,-9.8944646E-1,1.1967019E0,7.454811E-1,1.4200969E-1,-5.520579E-1,-2.493081E-2,1.1728533E-2,3.2781698E-2,-4.3951433E-2,-5.982833E-2,-7.249301E-2,-3.143995E-2,-5.733813E-2,6.2150773E-2,3.423506E-2,4.3992452E-2,1.7999865E-2,2.2346308E-2,-2.0891914E-2,-1.5204519E-2,-4.6572313E-2],"categories":[],"categories_nodes":[],"categories_segments":[],"categories_sizes":[],"default_left":[0,0,0,0,0,0,0,0,0,0,0,0,0,0,0,0,0,0,0,0,0,0,0,0,0,0,0,0,0,0,0],"id":5,"left_children":[1,3,5,7,9,11,13,15,17,19,21,23,25,27,29,-1,-1,-1,-1,-1,-1,-1,-1,-1,-1,-1,-1,-1,-1,-1,-1],"loss_changes":[2.222386E4,7.769453E3,7.7111445E3,1.9831119E3,4.955957E2,1.0638574E3,9.945558E2,1.7627964E3,4.0088696E2,6.381836E1,5.1252637E2,1.8905078E2,7.8014746E2,6.7065955E2,4.0921313E2,0E0,0E0,0E0,0E0,0E0,0E0,0E0,0E0,0E0,0E0,0E0,0E0,0E0,0E0,0E0,0E0],"parents":[2147483647,0,0,1,1,2,2,3,3,4,4,5,5,6,6,7,7,8,8,9,9,10,10,11,11,12,12,13,13,14,14],"right_children":[2,4,6,8,10,12,14,16,18,20,22,24,26,28,30,-1,-1,-1,-1,-1,-1,-1,-1,-1,-1,-1,-1,-1,-1,-1,-1],"split_conditions":[1E0,3.2449963E1,3.420526E1,5.668937E1,2E0,2E0,4.5276924E1,2E0,4.472136E0,1.9653824E1,4.036087E1,6.4653824E1,4.574406E1,3.6027374E1,2.974488E1,-2.493081E-2,1.1728533E-2,3.2781698E-2,-4.3951433E-2,-5.982833E-2,-7.249301E-2,-3.143995E-2,-5.733813E-2,6.2150773E-2,3.423506E-2,4.3992452E-2,1.7999865E-2,2.2346308E-2,-2.0891914E-2,-1.5204519E-2,-4.6572313E-2],"split_indices":[8,0,0,1,9,9,0,9,0,1,0,1,1,1,1,0,0,0,0,0,0,0,0,0,0,0,0,0,0,0,0],"split_type":[0,0,0,0,0,0,0,0,0,0,0,0,0,0,0,0,0,0,0,0,0,0,0,0,0,0,0,0,0,0,0],"sum_hessian":[6.4555707E4,3.3202867E4,3.1352842E4,1.9056145E4,1.4146723E4,2.3074393E4,8.27845E3,1.5324161E4,3.731982E3,5.101417E3,9.045305E3,8.0075464E3,1.5066846E4,3.9266265E3,4.351824E3,4.752667E3,1.0571495E4,1.7807841E2,3.5539036E3,1.4178667E3,3.6835505E3,2.7487617E3,6.2965435E3,7.3419927E3,6.6555396E2,1.1171512E4,3.895334E3,2.542226E3,1.3844003E3,2.6328196E3,1.7190044E3],"tree_param":{"num_deleted":"0","num_feature":"12","num_nodes":"31","size_leaf_vector":"1"}},{"base_weights":[-2.8808226E-3,-5.5301976E-1,5.768268E-1,-9.506981E-1,-3.522222E-1,9.467189E-1,3.8443577E-1,-1.0244297E0,-5.862522E-1,-5.456539E-1,-7.134295E-2,1.0687699E0,8.204514E-1,1.5250924E-1,5.5125797E-1,-6.1180156E-2,-4.775099E-2,-5.832028E-2,-1.3815209E-2,-2.0777361E-2,-3.783251E-2,-5.080071E-2,-7.3987263E-4,2.5344864E-2,5.5382516E-2,2.2049403E-2,4.2648904E-2,2.658241E-3,2.8861491E-2,-1.6432028E-2,2.9578477E-2],"categories":[],"categories_nodes":[],"categories_segments":[],"categories_sizes":[],"default_left":[0,0,0,0,0,0,0,0,0,0,0,0,0,0,0,0,0,0,0,0,0,0,0,0,0,0,0,0,0,0,0],"id":6,"left_children":[1,3,5,7,9,11,13,15,17,19,21,23,25,27,29,-1,-1,-1,-1,-1,-1,-1,-1,-1,-1,-1,-1,-1,-1,-1,-1],"loss_changes":[2.0473828E4,2.629917E3,2.224126E3,2.9634863E2,1.1892056E3,1.639414E2,7.9558105E2,1.2588086E2,3.3447113E2,3.5552173E2,4.7688037E2,1.1816748E2,6.4558105E1,3.630451E2,4.24448E2,0E0,0E0,0E0,0E0,0E0,0E0,0E0,0E0,0E0,0E0,0E0,0E0,0E0,0E0,0E0,0E0],"parents":[2147483647,0,0,1,1,2,2,3,3,4,4,5,5,6,6,7,7,8,8,9,9,10,10,11,11,12,12,13,13,14,14],"right_children":[2,4,6,8,10,12,14,16,18,20,22,24,26,28,30,-1,-1,-1,-1,-1,-1,-1,-1,-1,-1,-1,-1,-1,-1,-1,-1],"split_conditions":[1E0,2E0,2E0,1E0,0E0,5E0,2E0,0E0,2E0,6E0,2E0,2E0,3E0,1E0,2E0,-6.1180156E-2,-4.775099E-2,-5.832028E-2,-1.3815209E-2,-2.0777361E-2,-3.783251E-2,-5.080071E-2,-7.3987263E-4,2.5344864E-2,5.5382516E-2,2.2049403E-2,4.2648904E-2,2.658241E-3,2.8861491E-2,-1.6432028E-2,2.9578477E-2],"split_indices":[8,9,9,3,8,6,8,8,7,6,7,7,7,3,7,0,0,0,0,0,0,0,0,0,0,0,0,0,0,0,0],"split_type":[0,0,0,0,0,0,0,0,0,0,0,0,0,0,0,0,0,0,0,0,0,0,0,0,0,0,0,0,0,0,0],"sum_hessian":[6.4195434E4,3.2937754E4,3.125768E4,1.1049852E4,2.1887904E4,1.0693799E4,2.0563879E4,9.189E3,1.8608522E3,1.2961105E4,8.926799E3,5.4338926E3,5.2599067E3,8.603992E3,1.1959888E4,2.3704124E3,6.8185874E3,6.4701733E2,1.2138348E3,8.019197E3,4.941908E3,5.0319852E2,8.4236E3,3.5258658E2,5.081306E3,4.1641953E2,4.843487E3,6.9738877E3,1.6301047E3,5.236124E2,1.1436275E4],"tree_param":{"num_deleted":"0","num_feature":"12","num_nodes":"31","size_leaf_vector":"1"}},{"base_weights":[1.5899786E-3,-5.2314883E-1,5.549824E-1,-9.0465635E-1,-3.332127E-1,8.9038223E-1,3.8533324E-1,-7.0670754E-1,-1.0452346E0,-5.166369E-1,-6.7863435E-2,1.0364195E0,7.541458E-1,1.6421019E-1,5.4514426E-1,-4.0174317E-2,-1.0952761E-2,-5.496899E-2,-3.902574E-2,-1.3599026E-2,-3.3150773E-2,1.0133165E-2,-1.540377E-2,5.4703563E-2,3.6121458E-2,4.4304546E-2,3.1213654E-2,2.3160074E-2,-2.5661E-3,3.2875676E-2,1.6942417E-2],"categories":[],"categories_nodes":[],"categories_segments":[],"categories_sizes":[],"default_left":[0,0,0,0,0,0,0,0,0,0,0,0,0,0,0,0,0,0,0,0,0,0,0,0,0,0,0,0,0,0,0],"id":7,"left_children":[1,3,5,7,9,11,13,15,17,19,21,23,25,27,29,-1,-1,-1,-1,-1,-1,-1,-1,-1,-1,-1,-1,-1,-1,-1,-1],"loss_changes":[1.859124E4,2.3809453E3,1.7726943E3,3.0319336E2,1.0678608E3,2.074502E2,7.3123584E2,2.1402197E2,9.0651855E1,4.644148E2,5.8289606E2,9.060254E1,9.229834E1,5.596124E2,2.782461E2,0E0,0E0,0E0,0E0,0E0,0E0,0E0,0E0,0E0,0E0,0E0,0E0,0E0,0E0,0E0,0E0],"parents":[2147483647,0,0,1,1,2,2,3,3,4,4,5,5,6,6,7,7,8,8,9,9,10,10,11,11,12,12,13,13,14,14],"right_children":[2,4,6,8,10,12,14,16,18,20,22,24,26,28,30,-1,-1,-1,-1,-1,-1,-1,-1,-1,-1,-1,-1,-1,-1,-1,-1],"split_conditions":[1E0,2E0,2E0,2.707208E1,0E0,2.707208E1,2E0,1E0,1E0,2.4145542E1,2.8442928E1,7E0,5E0,2.4863697E1,6E0,-4.0174317E-2,-1.0952761E-2,-5.496899E-2,-3.902574E-2,-1.3599026E-2,-3.3150773E-2,1.0133165E-2,-1.540377E-2,5.4703563E-2,3.6121458E-2,4.4304546E-2,3.1213654E-2,2.3160074E-2,-2.5661E-3,3.2875676E-2,1.6942417E-2],"split_indices":[8,9,9,1,8,1,8,3,3,1,1,6,6,1,6,0,0,0,0,0,0,0,0,0,0,0,0,0,0,0,0],"split_type":[0,0,0,0,0,0,0,0,0,0,0,0,0,0,0,0,0,0,0,0,0,0,0,0,0,0,0,0,0,0,0],"sum_hessian":[6.4020402E4,3.286097E4,3.1159434E4,1.0921062E4,2.1939906E4,1.0465226E4,2.0694209E4,4.5376304E3,6.383431E3,1.2971994E4,8.967912E3,5.047743E3,5.417483E3,8.682569E3,1.2011639E4,3.7856816E3,7.5194867E2,5.2968677E3,1.0865636E3,4.8569585E3,8.115035E3,4.2178853E3,4.750027E3,4.2626016E3,7.851415E2,2.684412E3,2.733071E3,3.6366187E3,5.0459507E3,7.7746206E3,4.237018E3],"tree_param":{"num_deleted":"0","num_feature":"12","num_nodes":"31","size_leaf_vector":"1"}},{"base_weights":[-1.998725E-3,3.819085E-1,-7.3010075E-1,-1.2985277E-1,8.256438E-1,-1.0594175E0,-2.3079653E-1,-9.7295016E-1,-5.2579615E-2,9.7797655E-2,8.7013113E-1,-8.887146E-1,-1.2713839E0,1.4515027E-1,-5.392735E-1,-5.1292296E-2,9.63363E-2,1.3819954E-2,-1.2949635E-2,4.7864348E-2,-8.084571E-3,5.5451244E-2,3.720125E-2,-3.7580393E-2,-5.0144263E-2,-7.707601E-2,-6.192234E-2,-8.1514455E-2,9.288108E-3,-1.9535368E-2,-5.66848E-2],"categories":[],"categories_nodes":[],"categories_segments":[],"categories_sizes":[],"default_left":[0,0,0,0,0,0,0,0,0,0,0,0,0,0,0,0,0,0,0,0,0,0,0,0,0,0,0,0,0,0,0],"id":8,"left_children":[1,3,5,7,9,11,13,15,17,19,21,23,25,27,29,-1,-1,-1,-1,-1,-1,-1,-1,-1,-1,-1,-1,-1,-1,-1,-1],"loss_changes":[1.784424E4,9.492045E3,3.6236592E3,1.2646389E3,7.2481934E2,4.793838E2,1.016018E3,2.5195227E2,1.2076727E3,2.880104E2,6.347656E2,1.1444531E2,5.077832E1,2.8505173E2,4.2452307E2,0E0,0E0,0E0,0E0,0E0,0E0,0E0,0E0,0E0,0E0,0E0,0E0,0E0,0E0,0E0,0E0],"parents":[2147483647,0,0,1,1,2,2,3,3,4,4,5,5,6,6,7,7,8,8,9,9,10,10,11,11,12,12,13,13,14,14],"right_children":[2,4,6,8,10,12,14,16,18,20,22,24,26,28,30,-1,-1,-1,-1,-1,-1,-1,-1,-1,-1,-1,-1,-1,-1,-1,-1],"split_conditions":[3.330165E1,1E0,1E0,2E0,2E0,5.0606323E1,4.365776E1,8E0,1.3038404E1,6.0827627E0,1.118034E1,3.992493E1,3E0,2E0,6.3245552E1,-5.1292296E-2,9.63363E-2,1.3819954E-2,-1.2949635E-2,4.7864348E-2,-8.084571E-3,5.5451244E-2,3.720125E-2,-3.7580393E-2,-5.0144263E-2,-7.707601E-2,-6.192234E-2,-8.1514455E-2,9.288108E-3,-1.9535368E-2,-5.66848E-2],"split_indices":[0,8,8,7,7,0,0,6,0,0,0,0,7,7,0,0,0,0,0,0,0,0,0,0,0,0,0,0,0,0,0],"split_type":[0,0,0,0,0,0,0,0,0,0,0,0,0,0,0,0,0,0,0,0,0,0,0,0,0,0,0,0,0,0,0],"sum_hessian":[6.3836055E4,4.179777E4,2.2038285E4,1.941133E4,2.238644E4,1.3278987E4,8.759297E3,1.6287777E3,1.7782553E4,1.2896698E3,2.109677E4,7.3583105E3,5.920677E3,3.9481455E3,4.8111514E3,1.6002327E3,2.8545094E1,6.855693E3,1.0926859E4,2.984485E2,9.912213E2,7.28616E3,1.3810608E4,3.3467727E3,4.0115378E3,6.3846234E2,5.282215E3,8.7415985E1,3.8607295E3,3.8504517E3,9.606997E2],"tree_param":{"num_deleted":"0","num_feature":"12","num_nodes":"31","size_leaf_vector":"1"}},{"base_weights":[-2.746767E-3,1.2644579E-1,-2.2224028E-1,-5.7524467E-1,1.8217136E-1,-8.7902445E-1,-1.1892995E-1,8.81524E-1,-6.440793E-1,6.10811E-1,5.6668995E-3,-9.288498E-1,7.860855E-2,-1.11293845E-1,-9.378266E-1,2.9694567E-2,5.824967E-2,-6.409669E-2,-2.8515402E-2,4.8842903E-2,1.6413217E-2,2.8482715E-3,-6.2122303E-3,-3.0244693E-2,-5.9539594E-2,-7.0149265E-3,2.7842436E-3,-2.8384283E-2,-9.67836E-2],"categories":[],"categories_nodes":[],"categories_segments":[],"categories_sizes":[],"default_left":[0,0,0,0,0,0,0,0,0,0,0,0,0,0,0,0,0,0,0,0,0,0,0,0,0,0,0,0,0],"id":9,"left_children":[1,3,5,7,9,11,13,15,17,19,21,23,-1,25,27,-1,-1,-1,-1,-1,-1,-1,-1,-1,-1,-1,-1,-1,-1],"loss_changes":[1.79773E3,1.5605647E3,1.593698E3,2.9501398E2,2.7971772E3,3.913584E2,1.268212E2,1.0144897E1,1.3123279E2,1.1149912E3,1.7453917E2,2.6483936E2,0E0,9.741046E1,6.81127E1,0E0,0E0,0E0,0E0,0E0,0E0,0E0,0E0,0E0,0E0,0E0,0E0,0E0,0E0],"parents":[2147483647,0,0,1,1,2,2,3,3,4,4,5,5,6,6,7,7,8,8,9,9,10,10,11,11,13,13,14,14],"right_children":[2,4,6,8,10,12,14,16,18,20,22,24,-1,26,28,-1,-1,-1,-1,-1,-1,-1,-1,-1,-1,-1,-1,-1,-1],"split_conditions":[6E0,2E0,4E0,1E0,5E0,8E0,1E0,3E0,1E0,1E0,2.2E1,7E0,7.860855E-2,4E0,3E0,2.9694567E-2,5.824967E-2,-6.409669E-2,-2.8515402E-2,4.8842903E-2,1.6413217E-2,2.8482715E-3,-6.2122303E-3,-3.0244693E-2,-5.9539594E-2,-7.0149265E-3,2.7842436E-3,-2.8384283E-2,-9.67836E-2],"split_indices":[6,7,7,3,7,6,2,5,7,6,7,6,0,5,5,0,0,0,0,0,0,0,0,0,0,0,0,0,0],"split_type":[0,0,0,0,0,0,0,0,0,0,0,0,0,0,0,0,0,0,0,0,0,0,0,0,0,0,0,0,0],"sum_hessian":[6.3394508E4,3.9906316E4,2.3488191E4,2.9353523E3,3.6970965E4,3.1914414E3,2.029675E4,1.3190929E2,2.8034429E3,1.078273E4,2.6188232E4,3.1284702E3,6.2971188E1,2.011036E4,1.8639072E2,6.701009E1,6.4899185E1,2.8892358E2,2.5145193E3,4.696206E3,6.0865244E3,1.877504E4,7.413193E3,1.4001493E3,1.7283209E3,1.713425E4,2.976109E3,1.3710272E2,4.9287987E1],"tree_param":{"num_deleted":"0","num_feature":"12","num_nodes":"29","size_leaf_vector":"1"}},{"base_weights":[7.09581E-3,3.70478E-1,-6.820713E-1,-1.09657414E-1,7.907904E-1,-1.0089793E0,-1.9673714E-1,9.245181E-2,-5.694609E-1,9.013774E-1,4.5032763E-1,-7.536751E-1,-1.164094E0,1.5338774E-1,-5.0673974E-1,1.2211535E-2,-1.7151324E-2,-2.0334957E-2,-5.2837897E-2,1.0836722E-2,4.7046985E-2,3.464941E-2,-5.569955E-3,-1.9674366E-2,-4.8696034E-2,-5.4756075E-2,-6.862409E-2,1.9263273E-2,-2.054357E-2,-8.276834E-3,-3.5877224E-2],"categories":[],"categories_nodes":[],"categories_segments":[],"categories_sizes":[],"default_left":[0,0,0,0,0,0,0,0,0,0,0,0,0,0,0,0,0,0,0,0,0,0,0,0,0,0,0,0,0,0,0],"id":10,"left_children":[1,3,5,7,9,11,13,15,17,19,21,23,25,27,29,-1,-1,-1,-1,-1,-1,-1,-1,-1,-1,-1,-1,-1,-1,-1,-1],"loss_changes":[1.5907085E4,8.393146E3,3.479088E3,1.8042169E3,8.345537E2,5.180205E2,9.581824E2,8.915292E2,4.6974512E2,4.531709E2,7.414823E2,3.9269702E2,1.1562207E2,5.42634E2,3.366521E2,0E0,0E0,0E0,0E0,0E0,0E0,0E0,0E0,0E0,0E0,0E0,0E0,0E0,0E0,0E0,0E0],"parents":[2147483647,0,0,1,1,2,2,3,3,4,4,5,5,6,6,7,7,8,8,9,9,10,10,11,11,12,12,13,13,14,14],"right_children":[2,4,6,8,10,12,14,16,18,20,22,24,26,28,30,-1,-1,-1,-1,-1,-1,-1,-1,-1,-1,-1,-1,-1,-1,-1,-1],"split_conditions":[3.330165E1,1E0,1E0,4.574406E1,4.748955E1,4.365776E1,4.4181442E1,4E0,2.441311E1,2E0,1.9E1,2.7349876E1,3.6027374E1,3.9936382E1,2.0854458E1,1.2211535E-2,-1.7151324E-2,-2.0334957E-2,-5.2837897E-2,1.0836722E-2,4.7046985E-2,3.464941E-2,-5.569955E-3,-1.9674366E-2,-4.8696034E-2,-5.4756075E-2,-6.862409E-2,1.9263273E-2,-2.054357E-2,-8.276834E-3,-3.5877224E-2],"split_indices":[0,8,8,1,1,0,0,5,0,7,0,1,1,1,1,0,0,0,0,0,0,0,0,0,0,0,0,0,0,0,0],"split_type":[0,0,0,0,0,0,0,0,0,0,0,0,0,0,0,0,0,0,0,0,0,0,0,0,0,0,0,0,0,0,0],"sum_hessian":[6.35168E4,4.1588562E4,2.192824E4,1.9413115E4,2.2175445E4,1.3102005E4,8.826235E3,1.3486047E4,5.927069E3,1.6737293E4,5.4381533E3,4.9540156E3,8.1479893E3,4.1451274E3,4.6811084E3,1.0000852E4,3.4851956E3,4.444424E3,1.482645E3,9.1468854E2,1.5822604E4,3.7974553E3,1.6406979E3,1.8808597E3,3.073156E3,6.12649E3,2.0214995E3,2.938069E3,1.2070585E3,1.788337E3,2.8927712E3],"tree_param":{"num_deleted":"0","num_feature":"12","num_nodes":"31","size_leaf_vector":"1"}},{"base_weights":[-5.769117E-3,3.3775684E-1,-6.860454E-1,-1.3082588E-1,7.4852926E-1,-9.803388E-1,-2.4033499E-1,-5.3970784E-1,5.9755128E-2,1.0189626E0,6.056758E-1,-8.072016E-1,-1.1335585E0,5.3756364E-2,-5.4439926E-1,-3.2557496E-3,-3.032495E-2,-6.9183907E-3,1.6456591E-2,5.5285227E-2,4.148042E-2,3.682079E-2,1.888444E-2,-5.6045573E-2,-3.237959E-2,-5.2881796E-2,-6.4974256E-2,2.3745604E-2,-7.5110393E-3,-6.613087E-3,-3.6016975E-2],"categories":[],"categories_nodes":[],"categories_segments":[],"categories_sizes":[],"default_left":[0,0,0,0,0,0,0,0,0,0,0,0,0,0,0,0,0,0,0,0,0,0,0,0,0,0,0,0,0,0,0],"id":11,"left_children":[1,3,5,7,9,11,13,15,17,19,21,23,25,27,29,-1,-1,-1,-1,-1,-1,-1,-1,-1,-1,-1,-1,-1,-1,-1,-1],"loss_changes":[1.4642071E4,8.013454E3,2.7573838E3,1.5155482E3,8.5642676E2,3.349873E2,7.4779224E2,1.9595667E2,7.080611E2,1.25007324E2,4.324878E2,2.9710645E2,8.321875E1,3.6531677E2,2.9803174E2,0E0,0E0,0E0,0E0,0E0,0E0,0E0,0E0,0E0,0E0,0E0,0E0,0E0,0E0,0E0,0E0],"parents":[2147483647,0,0,1,1,2,2,3,3,4,4,5,5,6,6,7,7,8,8,9,9,10,10,11,11,12,12,13,13,14,14],"right_children":[2,4,6,8,10,12,14,16,18,20,22,24,26,28,30,-1,-1,-1,-1,-1,-1,-1,-1,-1,-1,-1,-1,-1,-1,-1,-1],"split_conditions":[3.383785E1,1E0,1E0,2E0,2E0,4.7423622E1,4.6141087E1,7.28011E0,0E0,2.059126E1,1.9416489E1,2E0,6.2201286E1,2E0,2E0,-3.2557496E-3,-3.032495E-2,-6.9183907E-3,1.6456591E-2,5.5285227E-2,4.148042E-2,3.682079E-2,1.888444E-2,-5.6045573E-2,-3.237959E-2,-5.2881796E-2,-6.4974256E-2,2.3745604E-2,-7.5110393E-3,-6.613087E-3,-3.6016975E-2],"split_indices":[0,8,8,9,9,0,0,0,8,0,0,9,0,9,9,0,0,0,0,0,0,0,0,0,0,0,0,0,0,0,0],"split_type":[0,0,0,0,0,0,0,0,0,0,0,0,0,0,0,0,0,0,0,0,0,0,0,0,0,0,0,0,0,0,0],"sum_hessian":[6.2653277E4,4.163097E4,2.1022307E4,1.9447357E4,2.2183613E4,1.2661187E4,8.36112E3,6.1821133E3,1.3265244E4,7.665692E3,1.4517921E4,5.9471816E3,6.714005E3,4.25068E3,4.1104404E3,7.629383E2,5.419175E3,7.6438105E3,5.621434E3,5.254022E3,2.4116702E3,9.225368E3,5.2925527E3,2.00344E3,3.9437417E3,4.6113677E3,2.1026375E3,1.3865383E3,2.8641418E3,1.2302795E3,2.880161E3],"tree_param":{"num_deleted":"0","num_feature":"12","num_nodes":"31","size_leaf_vector":"1"}},{"base_weights":[6.663813E-3,3.280947E-1,-6.339863E-1,-1.1500363E-1,7.2273874E-1,-9.403227E-1,-1.872224E-1,7.070047E-2,-5.335957E-1,8.182356E-1,2.7845794E-1,-7.555475E-1,-1.1263441E0,1.2549381E-1,-4.5015565E-1,-1.6837802E-2,1.2741034E-2,-1.6905606E-2,-4.5618225E-2,3.964519E-3,4.2944472E-2,2.5718017E-2,-1.7265603E-2,-3.1554647E-2,-6.4462624E-2,-4.754396E-2,-6.1259683E-2,1.6496114E-2,-3.262516E-2,-4.4229585E-3,-3.4213744E-2],"categories":[],"categories_nodes":[],"categories_segments":[],"categories_sizes":[],"default_left":[0,0,0,0,0,0,0,0,0,0,0,0,0,0,0,0,0,0,0,0,0,0,0,0,0,0,0,0,0,0,0],"id":12,"left_children":[1,3,5,7,9,11,13,15,17,19,21,23,25,27,29,-1,-1,-1,-1,-1,-1,-1,-1,-1,-1,-1,-1,-1,-1,-1,-1],"loss_changes":[1.2930376E4,7.311766E3,2.8709707E3,1.5312603E3,9.380908E2,4.2691016E2,7.018091E2,1.0237978E3,4.4791052E2,5.467578E2,5.7615186E2,4.1408862E2,1.0636377E2,6.20344E2,3.9256818E2,0E0,0E0,0E0,0E0,0E0,0E0,0E0,0E0,0E0,0E0,0E0,0E0,0E0,0E0,0E0,0E0],"parents":[2147483647,0,0,1,1,2,2,3,3,4,4,5,5,6,6,7,7,8,8,9,9,10,10,11,11,12,12,13,13,14,14],"right_children":[2,4,6,8,10,12,14,16,18,20,22,24,26,28,30,-1,-1,-1,-1,-1,-1,-1,-1,-1,-1,-1,-1,-1,-1,-1,-1],"split_conditions":[3.40147E1,1E0,1E0,4.574406E1,5.3392925E1,4.8754486E1,4.4418465E1,2E0,2.1931713E1,2E0,1.9723083E1,5.134019E1,2.110484E1,4.3264294E1,2.110484E1,-1.6837802E-2,1.2741034E-2,-1.6905606E-2,-4.5618225E-2,3.964519E-3,4.2944472E-2,2.5718017E-2,-1.7265603E-2,-3.1554647E-2,-6.4462624E-2,-4.754396E-2,-6.1259683E-2,1.6496114E-2,-3.262516E-2,-4.4229585E-3,-3.4213744E-2],"split_indices":[0,8,8,1,1,0,0,9,0,7,0,1,1,1,1,0,0,0,0,0,0,0,0,0,0,0,0,0,0,0,0],"split_type":[0,0,0,0,0,0,0,0,0,0,0,0,0,0,0,0,0,0,0,0,0,0,0,0,0,0,0,0,0,0,0],"sum_hessian":[6.2789746E4,4.181204E4,2.0977705E4,1.9697168E4,2.2114873E4,1.2444009E4,8.533696E3,1.3644677E4,6.0524907E3,1.8201643E4,3.9132305E3,6.245454E3,6.198555E3,3.8980835E3,4.6356123E3,4.2464624E3,9.398214E3,3.9933867E3,2.0591042E3,9.493174E2,1.7252324E4,2.8395298E3,1.0737007E3,5.0662407E3,1.1792133E3,2.2374854E3,3.9610696E3,3.087405E3,8.106785E2,1.8220543E3,2.813558E3],"tree_param":{"num_deleted":"0","num_feature":"12","num_nodes":"31","size_leaf_vector":"1"}},{"base_weights":[-8.55516E-4,3.4749705E-1,-5.623088E-1,-6.534225E-2,7.141442E-1,-8.5394657E-1,-1.4923236E-1,-4.4886935E-1,1.1126629E-1,9.624958E-1,5.882776E-1,-6.0251486E-1,-1.0140849E0,1.03225864E-1,-5.596955E-1,-5.145788E-2,-1.9230876E-2,-4.1535076E-2,9.5919E-3,5.4489333E-2,4.3532114E-2,-1.0056373E-2,3.1951018E-2,-5.0740004E-2,-2.0226441E-2,-5.926242E-2,-4.5776885E-2,2.5833655E-2,-4.710583E-3,-8.877954E-3,-3.6356274E-2],"categories":[],"categories_nodes":[],"categories_segments":[],"categories_sizes":[],"default_left":[0,0,0,0,0,0,0,0,0,0,0,0,0,0,0,0,0,0,0,0,0,0,0,0,0,0,0,0,0,0,0],"id":13,"left_children":[1,3,5,7,9,11,13,15,17,19,21,23,25,27,29,-1,-1,-1,-1,-1,-1,-1,-1,-1,-1,-1,-1,-1,-1,-1,-1],"loss_changes":[1.211738E4,5.7872705E3,2.8575986E3,1.2182277E3,6.3241895E2,5.5924023E2,1.0174641E3,2.1103406E2,9.3481726E2,7.8666016E1,5.3853906E2,4.4140295E2,1.421709E2,4.963586E2,2.3910779E2,0E0,0E0,0E0,0E0,0E0,0E0,0E0,0E0,0E0,0E0,0E0,0E0,0E0,0E0,0E0,0E0],"parents":[2147483647,0,0,1,1,2,2,3,3,4,4,5,5,6,6,7,7,8,8,9,9,10,10,11,11,12,12,13,13,14,14],"right_children":[2,4,6,8,10,12,14,16,18,20,22,24,26,28,30,-1,-1,-1,-1,-1,-1,-1,-1,-1,-1,-1,-1,-1,-1,-1,-1],"split_conditions":[3.106445E1,1E0,1E0,2E0,2E0,4.1785164E1,4.808326E1,2E0,2E0,1.20415945E1,2E0,2E0,2E0,2E0,2E0,-5.145788E-2,-1.9230876E-2,-4.1535076E-2,9.5919E-3,5.4489333E-2,4.3532114E-2,-1.0056373E-2,3.1951018E-2,-5.0740004E-2,-2.0226441E-2,-5.926242E-2,-4.5776885E-2,2.5833655E-2,-4.710583E-3,-8.877954E-3,-3.6356274E-2],"split_indices":[0,8,8,9,9,0,0,7,7,0,7,9,9,9,9,0,0,0,0,0,0,0,0,0,0,0,0,0,0,0,0],"split_type":[0,0,0,0,0,0,0,0,0,0,0,0,0,0,0,0,0,0,0,0,0,0,0,0,0,0,0,0,0,0,0],"sum_hessian":[6.1952965E4,3.8232234E4,2.3720732E4,1.7983688E4,2.0248547E4,1.3903557E4,9.817175E3,5.669699E3,1.2313988E4,6.8082695E3,1.3440276E4,5.4116074E3,8.491949E3,6.078995E3,3.7381797E3,5.636946E2,5.1060044E3,9.6955566E2,1.1344433E4,2.8491077E3,3.9591619E3,8.115783E2,1.2628698E4,1.7543114E3,3.657296E3,3.0987705E3,5.3931787E3,1.9642045E3,4.1147905E3,1.1394952E3,2.5986843E3],"tree_param":{"num_deleted":"0","num_feature":"12","num_nodes":"31","size_leaf_vector":"1"}},{"base_weights":[1.6441502E-3,3.3473888E-1,-5.3626585E-1,-3.9510652E-1,3.938411E-1,-2.1961975E-1,-7.683126E-1,6.5674376E-1,-5.729087E-1,5.918806E-1,1.8661366E-1,-1.2346163E0,-1.8204495E-1,-7.0812535E-1,-1.2748824E0,5.798288E-2,1.9951027E-2,-3.1275433E-2,8.467898E-2,2.3267208E-2,4.7216564E-2,1.3975744E-2,1.4964115E-3,2.4145893E-4,-6.8413965E-2,-7.56788E-3,-2.5932148E-2,-5.3518858E-2,-3.1946596E-2,-5.6970518E-2,-7.692199E-2],"categories":[],"categories_nodes":[],"categories_segments":[],"categories_sizes":[],"default_left":[0,0,0,0,0,0,0,0,0,0,0,0,0,0,0,0,0,0,0,0,0,0,0,0,0,0,0,0,0,0,0],"id":14,"left_children":[1,3,5,7,9,11,13,15,17,19,21,23,25,27,29,-1,-1,-1,-1,-1,-1,-1,-1,-1,-1,-1,-1,-1,-1,-1,-1],"loss_changes":[1.1060567E4,1.6446167E3,1.7344214E3,5.345857E2,1.447251E3,3.8059164E2,4.1445557E2,5.3130753E1,2.9241614E2,8.0380273E2,2.5087708E2,5.903058E1,9.93913E1,3.0458154E2,4.9857178E1,0E0,0E0,0E0,0E0,0E0,0E0,0E0,0E0,0E0,0E0,0E0,0E0,0E0,0E0,0E0,0E0],"parents":[2147483647,0,0,1,1,2,2,3,3,4,4,5,5,6,6,7,7,8,8,9,9,10,10,11,11,12,12,13,13,14,14],"right_children":[2,4,6,8,10,12,14,16,18,20,22,24,26,28,30,-1,-1,-1,-1,-1,-1,-1,-1,-1,-1,-1,-1,-1,-1,-1,-1],"split_conditions":[3.106445E1,2E0,4.1785164E1,5.3851647E0,1.5132746E1,2E0,6.711929E1,4E0,8E0,1E0,6E0,3E0,3.7E1,4E0,7.2718636E1,5.798288E-2,1.9951027E-2,-3.1275433E-2,8.467898E-2,2.3267208E-2,4.7216564E-2,1.3975744E-2,1.4964115E-3,2.4145893E-4,-6.8413965E-2,-7.56788E-3,-2.5932148E-2,-5.3518858E-2,-3.1946596E-2,-5.6970518E-2,-7.692199E-2],"split_indices":[0,7,0,0,0,7,0,0,6,3,6,6,7,7,0,0,0,0,0,0,0,0,0,0,0,0,0,0,0,0,0],"split_type":[0,0,0,0,0,0,0,0,0,0,0,0,0,0,0,0,0,0,0,0,0,0,0,0,0,0,0,0,0,0,0],"sum_hessian":[6.1728535E4,3.812218E4,2.3606355E4,2.85541E3,3.526677E4,9.984145E3,1.362221E4,4.1248987E2,2.44292E3,1.8032207E4,1.7234564E4,3.552778E2,9.628867E3,1.2177732E4,1.4444772E3,1.3857631E2,2.7391357E2,2.388219E3,5.4700947E1,1.3270255E4,4.761951E3,1.0819019E4,6.4155454E3,3.4677788E1,3.206E2,8.825687E3,8.0318024E2,1.9506952E3,1.0227037E4,9.575874E2,4.8688983E2],"tree_param":{"num_deleted":"0","num_feature":"12","num_nodes":"31","size_leaf_vector":"1"}},{"base_weights":[-2.579327E-3,-3.9743418E-1,4.1675338E-1,-9.756674E-2,-8.3852935E-1,5.853802E-1,-3.783092E-1,4.171938E-2,-6.791416E-1,-5.716973E-1,-9.5639086E-1,8.6518055E-1,4.420219E-1,-1.9609852E-2,-5.3540945E-1,-1.7886264E-2,1.0899744E-2,2.6711032E-2,-3.8384672E-2,-1.1224392E-2,-3.929096E-2,-4.090072E-2,-5.874132E-2,4.5747917E-2,1.2648373E-2,2.8382663E-2,4.1465624E-3,3.5799642E-3,-5.055345E-2,-1.2027592E-2,-3.57684E-2],"categories":[],"categories_nodes":[],"categories_segments":[],"categories_sizes":[],"default_left":[0,0,0,0,0,0,0,0,0,0,0,0,0,0,0,0,0,0,0,0,0,0,0,0,0,0,0,0,0,0,0],"id":15,"left_children":[1,3,5,7,9,11,13,15,17,19,21,23,25,27,29,-1,-1,-1,-1,-1,-1,-1,-1,-1,-1,-1,-1,-1,-1,-1,-1],"loss_changes":[1.0144157E4,4.173564E3,3.9836846E3,1.5217302E3,4.0105176E2,9.828916E2,2.929981E2,1.067278E3,3.9041284E2,2.9087415E2,2.667207E2,2.5281836E2,7.312705E2,1.4337912E2,1.9169617E2,0E0,0E0,0E0,0E0,0E0,0E0,0E0,0E0,0E0,0E0,0E0,0E0,0E0,0E0,0E0,0E0],"parents":[2147483647,0,0,1,1,2,2,3,3,4,4,5,5,6,6,7,7,8,8,9,9,10,10,11,11,12,12,13,13,14,14],"right_children":[2,4,6,8,10,12,14,16,18,20,22,24,26,28,30,-1,-1,-1,-1,-1,-1,-1,-1,-1,-1,-1,-1,-1,-1,-1,-1],"split_conditions":[1E0,3.2449963E1,4.1785164E1,5.668937E1,4.036087E1,2E0,2E0,2E0,5E0,2.8072487E1,3.1865978E1,6.4653824E1,4.574406E1,6.711929E1,2.110484E1,-1.7886264E-2,1.0899744E-2,2.6711032E-2,-3.8384672E-2,-1.1224392E-2,-3.929096E-2,-4.090072E-2,-5.874132E-2,4.5747917E-2,1.2648373E-2,2.8382663E-2,4.1465624E-3,3.5799642E-3,-5.055345E-2,-1.2027592E-2,-3.57684E-2],"split_indices":[8,0,0,1,0,9,9,9,0,1,1,1,1,0,1,0,0,0,0,0,0,0,0,0,0,0,0,0,0,0,0],"split_type":[0,0,0,0,0,0,0,0,0,0,0,0,0,0,0,0,0,0,0,0,0,0,0,0,0,0,0,0,0,0,0],"sum_hessian":[6.1264027E4,3.1552967E4,2.971106E4,1.8784215E4,1.2768753E4,2.4512424E4,5.198637E3,1.5155441E4,3.6287727E3,3.9138538E3,8.854899E3,8.302647E3,1.6209776E4,1.5837234E3,3.614914E3,4.6400176E3,1.0515424E4,2.4647469E2,3.3822979E3,1.4937354E3,2.4201184E3,5.4237554E3,3.4311438E3,7.6778813E3,6.2476666E2,1.2008061E4,4.201716E3,1.4511526E3,1.3257079E2,1.3709626E3,2.2439514E3],"tree_param":{"num_deleted":"0","num_feature":"12","num_nodes":"31","size_leaf_vector":"1"}},{"base_weights":[-5.851887E-3,-3.87557E-1,3.9780375E-1,-7.2428024E-1,-2.237178E-1,6.986179E-1,2.4833395E-1,-5.130542E-1,-8.801044E-1,-4.017688E-1,2.9784355E-2,8.6621165E-1,5.3804135E-1,-5.0363106E-1,2.867123E-1,-3.9917897E-2,-2.0927286E-2,-4.2638373E-2,-6.572487E-2,-6.446134E-3,-2.7378542E-2,1.2948617E-2,-8.667567E-3,4.0666755E-2,5.0307024E-2,2.3337847E-2,3.6646105E-2,-3.430432E-2,-3.857834E-3,2.4972958E-2,7.275779E-3],"categories":[],"categories_nodes":[],"categories_segments":[],"categories_sizes":[],"default_left":[0,0,0,0,0,0,0,0,0,0,0,0,0,0,0,0,0,0,0,0,0,0,0,0,0,0,0,0,0,0,0],"id":16,"left_children":[1,3,5,7,9,11,13,15,17,19,21,23,25,27,29,-1,-1,-1,-1,-1,-1,-1,-1,-1,-1,-1,-1,-1,-1,-1,-1],"loss_changes":[9.360035E3,1.7223853E3,1.3273711E3,3.359077E2,9.481052E2,2.6327588E2,5.694259E2,1.1670972E2,6.8697754E1,4.9078772E2,4.0356003E2,3.465039E1,6.922302E1,7.45108E1,5.637307E2,0E0,0E0,0E0,0E0,0E0,0E0,0E0,0E0,0E0,0E0,0E0,0E0,0E0,0E0,0E0,0E0],"parents":[2147483647,0,0,1,1,2,2,3,3,4,4,5,5,6,6,7,7,8,8,9,9,10,10,11,11,12,12,13,13,14,14],"right_children":[2,4,6,8,10,12,14,16,18,20,22,24,26,28,30,-1,-1,-1,-1,-1,-1,-1,-1,-1,-1,-1,-1,-1,-1,-1,-1],"split_conditions":[1E0,2E0,2E0,2.707208E1,0E0,2.707208E1,2E0,0E0,7.869007E1,2.2051064E1,2.8442928E1,2E0,2E0,3E0,2.3749495E1,-3.9917897E-2,-2.0927286E-2,-4.2638373E-2,-6.572487E-2,-6.446134E-3,-2.7378542E-2,1.2948617E-2,-8.667567E-3,4.0666755E-2,5.0307024E-2,2.3337847E-2,3.6646105E-2,-3.430432E-2,-3.857834E-3,2.4972958E-2,7.275779E-3],"split_indices":[8,9,9,1,8,1,7,8,1,1,1,8,8,8,1,0,0,0,0,0,0,0,0,0,0,0,0,0,0,0,0],"split_type":[0,0,0,0,0,0,0,0,0,0,0,0,0,0,0,0,0,0,0,0,0,0,0,0,0,0,0,0,0,0,0],"sum_hessian":[6.0746906E4,3.12224E4,2.9524508E4,1.0218291E4,2.100411E4,9.7993125E3,1.9725193E4,4.3398027E3,5.8784883E3,1.2337851E4,8.666258E3,4.7927373E3,5.0065757E3,9.572482E2,1.8767945E4,1.0780181E3,3.2617847E3,5.533238E3,3.4525073E2,4.297543E3,8.0403076E3,4.0718809E3,4.5943774E3,3.483281E3,1.3094564E3,3.6681992E3,1.3383762E3,6.699989E2,2.872493E2,7.485977E3,1.1281969E4],"tree_param":{"num_deleted":"0","num_feature":"12","num_nodes":"31","size_leaf_vector":"1"}},{"base_weights":[2.913471E-3,-3.519563E-1,3.8166097E-1,-6.6921467E-1,-1.9900838E-1,6.723777E-1,2.3759654E-1,-7.5012445E-1,-2.9217044E-1,-3.6708504E-1,3.874675E-2,7.838623E-1,5.5877274E-1,4.9790666E-2,3.7513548E-1,-4.670571E-2,-3.4310732E-2,-4.547471E-2,-1.383504E-4,-9.3845315E-3,-2.5212204E-2,2.1059126E-2,-3.5364039E-3,1.3013238E-2,4.119096E-2,1.37097705E-2,3.0227816E-2,-3.259241E-2,4.471047E-3,-1.4726917E-2,2.041999E-2],"categories":[],"categories_nodes":[],"categories_segments":[],"categories_sizes":[],"default_left":[0,0,0,0,0,0,0,0,0,0,0,0,0,0,0,0,0,0,0,0,0,0,0,0,0,0,0,0,0,0,0],"id":17,"left_children":[1,3,5,7,9,11,13,15,17,19,21,23,25,27,29,-1,-1,-1,-1,-1,-1,-1,-1,-1,-1,-1,-1,-1,-1,-1,-1],"loss_changes":[8.1561304E3,1.5200718E3,1.2292358E3,3.106494E2,8.44781E2,1.2274121E2,5.0701074E2,9.800537E1,3.2193658E2,3.0463892E2,3.6661807E2,1.02430664E2,6.264148E1,2.3082922E2,2.5252661E2,0E0,0E0,0E0,0E0,0E0,0E0,0E0,0E0,0E0,0E0,0E0,0E0,0E0,0E0,0E0,0E0],"parents":[2147483647,0,0,1,1,2,2,3,3,4,4,5,5,6,6,7,7,8,8,9,9,10,10,11,11,12,12,13,13,14,14],"right_children":[2,4,6,8,10,12,14,16,18,20,22,24,26,28,30,-1,-1,-1,-1,-1,-1,-1,-1,-1,-1,-1,-1,-1,-1,-1,-1],"split_conditions":[1E0,2E0,2E0,1E0,0E0,5E0,2E0,0E0,2E0,4E0,1E0,2E0,4E0,2E0,2E0,-4.670571E-2,-3.4310732E-2,-4.547471E-2,-1.383504E-4,-9.3845315E-3,-2.5212204E-2,2.1059126E-2,-3.5364039E-3,1.3013238E-2,4.119096E-2,1.37097705E-2,3.0227816E-2,-3.259241E-2,4.471047E-3,-1.4726917E-2,2.041999E-2],"split_indices":[8,9,9,3,8,6,8,8,7,6,6,7,7,7,7,0,0,0,0,0,0,0,0,0,0,0,0,0,0,0,0],"split_type":[0,0,0,0,0,0,0,0,0,0,0,0,0,0,0,0,0,0,0,0,0,0,0,0,0,0,0,0,0,0,0],"sum_hessian":[6.068077E4,3.1327938E4,2.9352832E4,1.0189202E4,2.1138736E4,9.724823E3,1.9628008E4,8.388192E3,1.8010095E3,1.2383736E4,8.755E3,4.90524E3,4.8195835E3,8.298281E3,1.1329728E4,2.1590095E3,6.2291826E3,5.7415094E2,1.2268586E3,5.36676E3,7.0169766E3,1.947794E3,6.807206E3,3.4832172E2,4.5569185E3,6.688978E2,4.1506855E3,4.4282288E2,7.8554585E3,5.357718E2,1.0793955E4],"tree_param":{"num_deleted":"0","num_feature":"12","num_nodes":"31","size_leaf_vector":"1"}},{"base_weights":[2.059189E-3,2.610959E-1,-5.659259E-1,3.7062415E-1,-2.697865E-1,-3.8684392E-1,-7.863263E-1,-3.6870947E-1,4.222791E-1,6.0074896E-2,-6.2815815E-1,-1.2772556E-1,-7.8986025E-1,-7.120002E-1,-1.1660818E0,3.511927E-2,-2.6044762E-2,3.1014845E-2,1.1694687E-2,1.1958643E-2,-2.3704324E-2,-2.3666989E-2,-4.4315424E-2,8.134428E-3,-1.3142968E-2,-3.0047147E-2,-5.3614505E-2,-2.8674638E-2,-4.8694424E-2,-5.1075008E-2,-6.7670554E-2],"categories":[],"categories_nodes":[],"categories_segments":[],"categories_sizes":[],"default_left":[0,0,0,0,0,0,0,0,0,0,0,0,0,0,0,0,0,0,0,0,0,0,0,0,0,0,0,0,0,0,0],"id":18,"left_children":[1,3,5,7,9,11,13,15,17,19,21,23,25,27,29,-1,-1,-1,-1,-1,-1,-1,-1,-1,-1,-1,-1,-1,-1,-1,-1],"loss_changes":[8.887494E3,2.4123674E3,7.4646924E2,1.31356E3,8.388582E2,1.0901912E3,2.3854346E2,3.665444E2,1.1990063E3,3.5368103E2,1.3550781E2,2.4948009E2,2.1734497E2,2.568047E2,3.617224E1,0E0,0E0,0E0,0E0,0E0,0E0,0E0,0E0,0E0,0E0,0E0,0E0,0E0,0E0,0E0,0E0],"parents":[2147483647,0,0,1,1,2,2,3,3,4,4,5,5,6,6,7,7,8,8,9,9,10,10,11,11,12,12,13,13,14,14],"right_children":[2,4,6,8,10,12,14,16,18,20,22,24,26,28,30,-1,-1,-1,-1,-1,-1,-1,-1,-1,-1,-1,-1,-1,-1,-1,-1],"split_conditions":[3.51141E1,5.668937E1,5.0606323E1,2E0,1.4866069E1,3.6528854E1,6.711929E1,5.3851647E0,1.640122E1,7.747119E1,2.624881E1,1.2680384E1,5.0389313E1,3.0465546E1,7.134424E1,3.511927E-2,-2.6044762E-2,3.1014845E-2,1.1694687E-2,1.1958643E-2,-2.3704324E-2,-2.3666989E-2,-4.4315424E-2,8.134428E-3,-1.3142968E-2,-3.0047147E-2,-5.3614505E-2,-2.8674638E-2,-4.8694424E-2,-5.1075008E-2,-6.7670554E-2],"split_indices":[0,1,0,7,0,1,0,0,0,1,0,1,1,1,0,0,0,0,0,0,0,0,0,0,0,0,0,0,0,0,0],"split_type":[0,0,0,0,0,0,0,0,0,0,0,0,0,0,0,0,0,0,0,0,0,0,0,0,0,0,0,0,0,0,0],"sum_hessian":[6.0404125E4,4.148494E4,1.8919186E4,3.4390098E4,7.0948423E3,1.0439517E4,8.47967E3,2.24542E3,3.2144678E4,3.6948076E3,3.400035E3,6.3549404E3,4.0845762E3,7.0940845E3,1.3855852E3,2.788982E2,1.9665219E3,1.5670561E4,1.6474117E4,2.7674624E3,9.273451E2,2.1271626E3,1.2728722E3,2.017962E3,4.336978E3,2.4493403E3,1.6352358E3,4.6421396E3,2.4519446E3,7.85661E2,5.999242E2],"tree_param":{"num_deleted":"0","num_feature":"12","num_nodes":"31","size_leaf_vector":"1"}},{"base_weights":[-2.959617E-3,2.637494E-1,-5.245477E-1,-8.761214E-2,5.8751595E-1,-7.650214E-1,-1.9070503E-1,-4.064731E-1,5.7340655E-2,8.286521E-1,4.655423E-1,-1.0304699E0,-6.271846E-1,1.7456473E-1,-3.5873795E-1,3.970869E-2,-2.1854298E-2,-1.5067232E-2,9.7975265E-3,4.5122936E-2,2.9619575E-2,3.513975E-2,1.7658325E-2,-5.0118383E-2,-6.335776E-2,-1.5772162E-2,-3.944417E-2,1.1736775E-2,-4.8809763E-2,-2.919488E-3,-2.7437318E-2],"categories":[],"categories_nodes":[],"categories_segments":[],"categories_sizes":[],"default_left":[0,0,0,0,0,0,0,0,0,0,0,0,0,0,0,0,0,0,0,0,0,0,0,0,0,0,0,0,0,0,0],"id":19,"left_children":[1,3,5,7,9,11,13,15,17,19,21,23,25,27,29,-1,-1,-1,-1,-1,-1,-1,-1,-1,-1,-1,-1,-1,-1,-1,-1],"loss_changes":[8.336813E3,4.510906E3,1.6276201E3,8.7897754E2,6.065913E2,4.3058105E2,5.2122754E2,2.1879565E2,6.500882E2,1.2032422E2,3.651985E2,2.5513184E1,3.9092773E2,1.8552559E2,3.3188483E2,0E0,0E0,0E0,0E0,0E0,0E0,0E0,0E0,0E0,0E0,0E0,0E0,0E0,0E0,0E0,0E0],"parents":[2147483647,0,0,1,1,2,2,3,3,4,4,5,5,6,6,7,7,8,8,9,9,10,10,11,11,12,12,13,13,14,14],"right_children":[2,4,6,8,10,12,14,16,18,20,22,24,26,28,30,-1,-1,-1,-1,-1,-1,-1,-1,-1,-1,-1,-1,-1,-1,-1,-1],"split_conditions":[3.330165E1,1E0,1E0,2E0,2E0,2E0,2E0,4.472136E0,-1E0,2.3194826E1,1.0440307E1,6.574192E1,4.1617306E1,6.711929E1,4.1785164E1,3.970869E-2,-2.1854298E-2,-1.5067232E-2,9.7975265E-3,4.5122936E-2,2.9619575E-2,3.513975E-2,1.7658325E-2,-5.0118383E-2,-6.335776E-2,-1.5772162E-2,-3.944417E-2,1.1736775E-2,-4.8809763E-2,-2.919488E-3,-2.7437318E-2],"split_indices":[0,8,8,9,9,9,9,0,8,0,0,0,0,0,0,0,0,0,0,0,0,0,0,0,0,0,0,0,0,0,0],"split_type":[0,0,0,0,0,0,0,0,0,0,0,0,0,0,0,0,0,0,0,0,0,0,0,0,0,0,0,0,0,0,0],"sum_hessian":[5.9926695E4,3.9651684E4,2.0275012E4,1.9015838E4,2.0635848E4,1.1784851E4,8.490161E3,5.942336E3,1.3073501E4,6.929925E3,1.3705923E4,4.0256677E3,7.7591826E3,2.6750664E3,5.815094E3,1.4712434E2,5.795212E3,3.6436177E3,9.429883E3,5.278216E3,1.6517089E3,4.4035977E3,9.302325E3,3.6030962E3,4.225714E2,2.651079E3,5.108104E3,2.5428997E3,1.321667E2,2.2537988E3,3.5612957E3],"tree_param":{"num_deleted":"0","num_feature":"12","num_nodes":"31","size_leaf_vector":"1"}},{"base_weights":[2.789357E-3,2.50875E-1,-5.1947016E-1,3.3476266E-1,-4.3993288E-1,-3.2416743E-1,-7.402586E-1,4.2606637E-1,-1.8046858E-2,-1.3561602E-1,-7.933428E-1,-1.1438767E-1,-7.7625996E-1,-5.285201E-1,-8.6878884E-1,2.9841026E-2,7.669923E-3,7.7319853E-3,-2.8578151E-2,3.0302612E-2,-1.1818851E-2,-2.7712492E-2,-4.9612407E-2,9.185774E-3,-1.1876403E-2,-2.8867295E-2,-4.9072362E-2,-2.2552412E-2,-6.533178E-2,-3.9442763E-2,-4.9279872E-2],"categories":[],"categories_nodes":[],"categories_segments":[],"categories_sizes":[],"default_left":[0,0,0,0,0,0,0,0,0,0,0,0,0,0,0,0,0,0,0,0,0,0,0,0,0,0,0,0,0,0,0],"id":20,"left_children":[1,3,5,7,9,11,13,15,17,19,21,23,25,27,29,-1,-1,-1,-1,-1,-1,-1,-1,-1,-1,-1,-1,-1,-1,-1,-1],"loss_changes":[7.7569316E3,2.3522605E3,8.311465E2,1.165917E3,4.7262708E2,9.7036E2,2.4580762E2,1.338625E3,7.1142566E2,1.7673474E2,9.615808E1,2.5665436E2,1.3179565E2,2.056145E2,5.1783203E1,0E0,0E0,0E0,0E0,0E0,0E0,0E0,0E0,0E0,0E0,0E0,0E0,0E0,0E0,0E0,0E0],"parents":[2147483647,0,0,1,1,2,2,3,3,4,4,5,5,6,6,7,7,8,8,9,9,10,10,11,11,12,12,13,13,14,14],"right_children":[2,4,6,8,10,12,14,16,18,20,22,24,26,28,30,-1,-1,-1,-1,-1,-1,-1,-1,-1,-1,-1,-1,-1,-1,-1,-1],"split_conditions":[3.420526E1,6.4653824E1,4.8754486E1,4E0,1.4866069E1,4.023636E1,2.110484E1,2.2090721E1,1.640122E1,4.472136E0,2.2090721E1,1.3298571E1,5.134019E1,6.711929E1,6.1846584E1,2.9841026E-2,7.669923E-3,7.7319853E-3,-2.8578151E-2,3.0302612E-2,-1.1818851E-2,-2.7712492E-2,-4.9612407E-2,9.185774E-3,-1.1876403E-2,-2.8867295E-2,-4.9072362E-2,-2.2552412E-2,-6.533178E-2,-3.9442763E-2,-4.9279872E-2],"split_indices":[0,1,0,5,0,1,1,0,0,0,0,1,1,0,0,0,0,0,0,0,0,0,0,0,0,0,0,0,0,0,0],"split_type":[0,0,0,0,0,0,0,0,0,0,0,0,0,0,0,0,0,0,0,0,0,0,0,0,0,0,0,0,0,0,0],"sum_hessian":[5.9866992E4,4.0587492E4,1.92795E4,3.619295E4,4.3945444E3,1.0231499E4,9.048002E3,2.8751998E4,7.4409497E3,2.362021E3,2.0325232E3,6.989491E3,3.2420078E3,3.4196472E3,5.6283545E3,1.7679371E4,1.1072627E4,5.6720864E3,1.768863E3,2.8191608E2,2.080105E3,9.24736E2,1.1077871E3,2.0430654E3,4.946426E3,1.6481046E3,1.5939031E3,3.111441E3,3.0820633E2,3.346237E3,2.2821174E3],"tree_param":{"num_deleted":"0","num_feature":"12","num_nodes":"31","size_leaf_vector":"1"}},{"base_weights":[4.845373E-3,-3.1976688E-1,3.4988123E-1,-5.8586544E-1,-1.9172634E-1,6.2411994E-1,2.1586387E-1,-3.6801895E-1,-7.485525E-1,-4.9098992E-1,-7.004136E-2,7.6469415E-1,4.962621E-1,4.000082E-1,9.906644E-2,-1.0944764E-2,-3.0033901E-2,-3.237304E-2,-4.5437858E-2,-1.5611823E-2,-3.2866877E-2,6.538223E-3,-1.1516411E-2,4.030667E-2,2.784929E-2,3.4700524E-2,1.9835154E-2,-1.39051825E-2,2.1693904E-2,-5.407936E-4,1.8767728E-2],"categories":[],"categories_nodes":[],"categories_segments":[],"categories_sizes":[],"default_left":[0,0,0,0,0,0,0,0,0,0,0,0,0,0,0,0,0,0,0,0,0,0,0,0,0,0,0,0,0,0,0],"id":21,"left_children":[1,3,5,7,9,11,13,15,17,19,21,23,25,27,29,-1,-1,-1,-1,-1,-1,-1,-1,-1,-1,-1,-1,-1,-1,-1,-1],"loss_changes":[6.6645103E3,1.0444797E3,1.0599658E3,3.5269385E2,7.5379266E2,1.6979541E2,4.167138E2,1.4766388E2,9.1734375E1,1.7772424E2,4.737422E2,3.8351807E1,9.739795E1,1.7283728E2,3.6000378E2,0E0,0E0,0E0,0E0,0E0,0E0,0E0,0E0,0E0,0E0,0E0,0E0,0E0,0E0,0E0,0E0],"parents":[2147483647,0,0,1,1,2,2,3,3,4,4,5,5,6,6,7,7,8,8,9,9,10,10,11,11,12,12,13,13,14,14],"right_children":[2,4,6,8,10,12,14,16,18,20,22,24,26,28,30,-1,-1,-1,-1,-1,-1,-1,-1,-1,-1,-1,-1,-1,-1,-1,-1],"split_conditions":[1E0,2E0,2E0,2.707208E1,-1E0,2.707208E1,2.3498566E1,6E0,6E0,2.9845932E1,2.707208E1,7E0,3E0,2E0,3E0,-1.0944764E-2,-3.0033901E-2,-3.237304E-2,-4.5437858E-2,-1.5611823E-2,-3.2866877E-2,6.538223E-3,-1.1516411E-2,4.030667E-2,2.784929E-2,3.4700524E-2,1.9835154E-2,-1.39051825E-2,2.1693904E-2,-5.407936E-4,1.8767728E-2],"split_indices":[8,9,9,1,8,1,1,6,6,1,1,6,6,7,8,0,0,0,0,0,0,0,0,0,0,0,0,0,0,0,0],"split_type":[0,0,0,0,0,0,0,0,0,0,0,0,0,0,0,0,0,0,0,0,0,0,0,0,0,0,0,0,0,0,0],"sum_hessian":[5.950103E4,3.0657916E4,2.8843117E4,9.958409E3,2.0699506E4,9.46707E3,1.9376047E4,4.2588486E3,5.6995605E3,5.9827974E3,1.4716709E4,4.506923E3,4.960147E3,7.519027E3,1.18570205E4,2.5965327E3,1.662316E3,3.497576E3,2.2019844E3,2.8852493E3,3.097548E3,6.53274E3,8.183969E3,3.7549119E3,7.5201086E2,1.6590002E3,3.301147E3,3.573466E2,7.16168E3,8.483869E3,3.3731516E3],"tree_param":{"num_deleted":"0","num_feature":"12","num_nodes":"31","size_leaf_vector":"1"}},{"base_weights":[-4.063675E-3,-3.24981E-1,3.3386722E-1,-1.0682487E-1,-4.9741507E-1,5.919931E-1,2.0980655E-1,-3.819992E-1,2.0853734E-2,-7.5724196E-1,-3.7103277E-1,7.454563E-1,4.6914336E-1,2.0212827E-2,3.4762564E-1,-1.1034253E-2,-3.182205E-2,1.0145994E-2,-7.824727E-3,-3.3336982E-2,-4.497264E-2,-2.6294718E-2,-7.4575744E-3,3.3961177E-2,4.5869377E-2,3.214638E-2,1.613333E-2,9.915772E-3,-8.979089E-3,2.4071125E-2,1.0528305E-2],"categories":[],"categories_nodes":[],"categories_segments":[],"categories_sizes":[],"default_left":[0,0,0,0,0,0,0,0,0,0,0,0,0,0,0,0,0,0,0,0,0,0,0,0,0,0,0,0,0,0,0],"id":22,"left_children":[1,3,5,7,9,11,13,15,17,19,21,23,25,27,29,-1,-1,-1,-1,-1,-1,-1,-1,-1,-1,-1,-1,-1,-1,-1,-1],"loss_changes":[6.4032173E3,1.1391733E3,9.208567E2,4.6978162E2,5.5514844E2,1.756438E2,5.0757855E2,1.7379993E2,2.94966E2,7.062671E1,3.9099622E2,4.6620117E1,1.3183887E2,2.9104034E2,2.0617847E2,0E0,0E0,0E0,0E0,0E0,0E0,0E0,0E0,0E0,0E0,0E0,0E0,0E0,0E0,0E0,0E0],"parents":[2147483647,0,0,1,1,2,2,3,3,4,4,5,5,6,6,7,7,8,8,9,9,10,10,11,11,12,12,13,13,14,14],"right_children":[2,4,6,8,10,12,14,16,18,20,22,24,26,28,30,-1,-1,-1,-1,-1,-1,-1,-1,-1,-1,-1,-1,-1,-1,-1,-1],"split_conditions":[1E0,2.707208E1,2E0,2E0,2E0,2.5346176E1,2E0,6E0,5E0,6E0,0E0,2E0,4E0,3.1108809E1,3E0,-1.1034253E-2,-3.182205E-2,1.0145994E-2,-7.824727E-3,-3.3336982E-2,-4.497264E-2,-2.6294718E-2,-7.4575744E-3,3.3961177E-2,4.5869377E-2,3.214638E-2,1.613333E-2,9.915772E-3,-8.979089E-3,2.4071125E-2,1.0528305E-2],"split_indices":[8,1,9,9,9,1,8,6,6,6,8,8,6,1,9,0,0,0,0,0,0,0,0,0,0,0,0,0,0,0,0],"split_type":[0,0,0,0,0,0,0,0,0,0,0,0,0,0,0,0,0,0,0,0,0,0,0,0,0,0,0,0,0,0,0],"sum_hessian":[5.904219E4,3.0283443E4,2.8758748E4,1.3369961E4,1.6913482E4,9.334085E3,1.9424662E4,4.236791E3,9.13317E3,5.533099E3,1.1380383E4,4.147714E3,5.1863706E3,8.176979E3,1.1247684E4,2.5940505E3,1.6427406E3,4.506571E3,4.6265996E3,3.3847498E3,2.148349E3,6.701626E3,4.6787563E3,2.9978198E3,1.149894E3,2.3705237E3,2.8158472E3,4.32318E3,3.8537988E3,5.6903145E3,5.5573696E3],"tree_param":{"num_deleted":"0","num_feature":"12","num_nodes":"31","size_leaf_vector":"1"}},{"base_weights":[-2.6736972E-3,2.3891097E-1,-4.7969684E-1,-5.9009876E-2,5.2285045E-1,-7.164861E-1,-1.6650075E-1,5.8261707E-2,-5.7107323E-1,5.690085E-1,-1.0577155E-1,-5.7664156E-1,-9.031418E-1,6.1293732E-2,-3.9972264E-1,8.909806E-3,-1.6303264E-2,2.9138017E-2,-3.2594576E-2,5.0032783E-2,2.590772E-2,1.0889429E-2,-2.6692782E-2,-1.3939721E-2,-3.7204053E-2,-4.069245E-2,-5.6474965E-2,8.919651E-3,-3.6012333E-2,-4.9538262E-2,-1.4966497E-2],"categories":[],"categories_nodes":[],"categories_segments":[],"categories_sizes":[],"default_left":[0,0,0,0,0,0,0,0,0,0,0,0,0,0,0,0,0,0,0,0,0,0,0,0,0,0,0,0,0,0,0],"id":23,"left_children":[1,3,5,7,9,11,13,15,17,19,21,23,25,27,29,-1,-1,-1,-1,-1,-1,-1,-1,-1,-1,-1,-1,-1,-1,-1,-1],"loss_changes":[6.770426E3,3.2990242E3,1.4646274E3,1.1429084E3,5.794575E2,2.930581E2,4.5185376E2,7.1388715E2,3.3109766E2,4.078247E2,1.8942758E2,3.205923E2,9.641211E1,3.9395773E2,2.4906152E2,0E0,0E0,0E0,0E0,0E0,0E0,0E0,0E0,0E0,0E0,0E0,0E0,0E0,0E0,0E0,0E0],"parents":[2147483647,0,0,1,1,2,2,3,3,4,4,5,5,6,6,7,7,8,8,9,9,10,10,11,11,12,12,13,13,14,14],"right_children":[2,4,6,8,10,12,14,16,18,20,22,24,26,28,30,-1,-1,-1,-1,-1,-1,-1,-1,-1,-1,-1,-1,-1,-1,-1,-1],"split_conditions":[3.330165E1,1E0,1E0,5.668937E1,6.9623566E1,5.0606323E1,4.5276924E1,4E0,5E0,6.708204E0,1.3453624E1,2.4623566E1,3.2347443E1,5.134019E1,4E0,8.909806E-3,-1.6303264E-2,2.9138017E-2,-3.2594576E-2,5.0032783E-2,2.590772E-2,1.0889429E-2,-2.6692782E-2,-1.3939721E-2,-3.7204053E-2,-4.069245E-2,-5.6474965E-2,8.919651E-3,-3.6012333E-2,-4.9538262E-2,-1.4966497E-2],"split_indices":[0,8,8,1,1,0,0,5,0,0,0,1,1,1,7,0,0,0,0,0,0,0,0,0,0,0,0,0,0,0,0],"split_type":[0,0,0,0,0,0,0,0,0,0,0,0,0,0,0,0,0,0,0,0,0,0,0,0,0,0,0,0,0,0,0],"sum_hessian":[5.8747906E4,3.8998113E4,1.9749791E4,1.9030906E4,1.9967207E4,1.1246035E4,8.503757E3,1.5485368E4,3.5455374E3,1.8601447E4,1.3657607E3,6.4315415E3,4.8144937E3,4.3023076E3,4.2014497E3,1.1802711E4,3.6826577E3,2.3167853E2,3.313859E3,1.9585673E3,1.6642879E4,7.7812177E2,5.87639E2,2.3154336E3,4.116108E3,3.4558398E3,1.3586537E3,3.7423567E3,5.599508E2,6.087401E2,3.5927095E3],"tree_param":{"num_deleted":"0","num_feature":"12","num_nodes":"31","size_leaf_vector":"1"}},{"base_weights":[6.0094753E-3,2.5825223E-1,-4.0870503E-1,-1.9711774E-2,5.2249885E-1,-6.5027505E-1,-1.02850415E-1,9.3688175E-2,-5.071538E-1,6.230223E-1,2.4766286E-1,-4.119443E-1,-8.107383E-1,9.203836E-2,-3.2599872E-1,-3.0697396E-2,7.871098E-3,6.1805535E-2,-2.7956441E-2,5.294587E-3,3.286236E-2,2.1121165E-2,-7.3128133E-3,-3.8833749E-3,-3.193041E-2,-3.4696933E-2,-5.055948E-2,1.0512244E-2,-3.267024E-2,-4.630529E-2,-1.144291E-2],"categories":[],"categories_nodes":[],"categories_segments":[],"categories_sizes":[],"default_left":[0,0,0,0,0,0,0,0,0,0,0,0,0,0,0,0,0,0,0,0,0,0,0,0,0,0,0,0,0,0,0],"id":24,"left_children":[1,3,5,7,9,11,13,15,17,19,21,23,25,27,29,-1,-1,-1,-1,-1,-1,-1,-1,-1,-1,-1,-1,-1,-1,-1,-1],"loss_changes":[6.12883E3,2.6758418E3,1.6370835E3,9.814825E2,5.1581396E2,4.7311182E2,4.2531723E2,6.497677E2,3.0432922E2,2.4193799E2,3.4448822E2,3.7752905E2,1.7249365E2,4.6018365E2,2.6556912E2,0E0,0E0,0E0,0E0,0E0,0E0,0E0,0E0,0E0,0E0,0E0,0E0,0E0,0E0,0E0,0E0],"parents":[2147483647,0,0,1,1,2,2,3,3,4,4,5,5,6,6,7,7,8,8,9,9,10,10,11,11,12,12,13,13,14,14],"right_children":[2,4,6,8,10,12,14,16,18,20,22,24,26,28,30,-1,-1,-1,-1,-1,-1,-1,-1,-1,-1,-1,-1,-1,-1,-1,-1],"split_conditions":[3.106445E1,1E0,1E0,5.668937E1,4.574406E1,4.1617306E1,4.4181442E1,2E0,4E0,2E0,1.9E1,2.8072487E1,3.1865978E1,5.0389313E1,4E0,-3.0697396E-2,7.871098E-3,6.1805535E-2,-2.7956441E-2,5.294587E-3,3.286236E-2,2.1121165E-2,-7.3128133E-3,-3.8833749E-3,-3.193041E-2,-3.4696933E-2,-5.055948E-2,1.0512244E-2,-3.267024E-2,-4.630529E-2,-1.144291E-2],"split_indices":[0,8,8,1,1,0,0,7,0,7,0,1,1,1,7,0,0,0,0,0,0,0,0,0,0,0,0,0,0,0,0],"split_type":[0,0,0,0,0,0,0,0,0,0,0,0,0,0,0,0,0,0,0,0,0,0,0,0,0,0,0,0,0,0,0],"sum_hessian":[5.8586125E4,3.642913E4,2.2156996E4,1.7754205E4,1.8674924E4,1.2378827E4,9.778168E3,1.44040205E4,3.3501855E3,1.3672742E4,5.0021826E3,4.9823213E3,7.396506E3,5.2199023E3,4.558266E3,1.1894065E3,1.3214613E4,9.633353E1,3.253852E3,8.489769E2,1.2823765E4,3.464916E3,1.5372666E3,2.0137898E3,2.9685317E3,4.6762144E3,2.720292E3,4.506081E3,7.13821E2,6.3386847E2,3.9243975E3],"tree_param":{"num_deleted":"0","num_feature":"12","num_nodes":"31","size_leaf_vector":"1"}},{"base_weights":[4.363287E-4,2.638813E-1,-3.7851268E-1,-9.418495E-3,5.210528E-1,-6.060916E-1,-9.3521684E-2,-7.3543185E-1,5.9960745E-2,6.37199E-1,2.818223E-1,-3.7191808E-1,-7.749011E-1,-3.3553247E-3,-6.4282507E-1,-3.9814144E-2,9.679573E-2,8.257773E-3,-2.0240795E-2,3.533683E-2,2.771571E-3,2.2682382E-2,-1.2826592E-2,-1.1592826E-2,-4.644678E-2,-3.2791182E-2,-4.8702415E-2,8.314323E-3,-2.3880724E-2,-2.306485E-2,-5.212275E-2],"categories":[],"categories_nodes":[],"categories_segments":[],"categories_sizes":[],"default_left":[0,0,0,0,0,0,0,0,0,0,0,0,0,0,0,0,0,0,0,0,0,0,0,0,0,0,0,0,0,0,0],"id":25,"left_children":[1,3,5,7,9,11,13,15,17,19,21,23,25,27,29,-1,-1,-1,-1,-1,-1,-1,-1,-1,-1,-1,-1,-1,-1,-1,-1],"loss_changes":[5.7982827E3,2.4080806E3,1.5447722E3,8.367423E2,4.9028467E2,5.232207E2,5.2384125E2,2.3708081E2,7.4141534E2,4.8063867E2,5.339332E2,4.3273468E2,1.8183105E2,7.311065E2,1.0770471E2,0E0,0E0,0E0,0E0,0E0,0E0,0E0,0E0,0E0,0E0,0E0,0E0,0E0,0E0,0E0,0E0],"parents":[2147483647,0,0,1,1,2,2,3,3,4,4,5,5,6,6,7,7,8,8,9,9,10,10,11,11,12,12,13,13,14,14],"right_children":[2,4,6,8,10,12,14,16,18,20,22,24,26,28,30,-1,-1,-1,-1,-1,-1,-1,-1,-1,-1,-1,-1,-1,-1,-1,-1],"split_conditions":[2.915476E1,1E0,1E0,2E0,3E0,4.036087E1,5.9816387E1,8E0,5.7264774E1,6.4653824E1,1.456022E1,5.0792797E1,3.1865978E1,3.9936382E1,6.711929E1,-3.9814144E-2,9.679573E-2,8.257773E-3,-2.0240795E-2,3.533683E-2,2.771571E-3,2.2682382E-2,-1.2826592E-2,-1.1592826E-2,-4.644678E-2,-3.2791182E-2,-4.8702415E-2,8.314323E-3,-2.3880724E-2,-2.306485E-2,-5.212275E-2],"split_indices":[0,8,8,7,5,0,0,6,1,1,0,1,1,1,0,0,0,0,0,0,0,0,0,0,0,0,0,0,0,0,0],"split_type":[0,0,0,0,0,0,0,0,0,0,0,0,0,0,0,0,0,0,0,0,0,0,0,0,0,0,0,0,0,0,0],"sum_hessian":[5.8078285E4,3.4260633E4,2.3817652E4,1.6609959E4,1.7650676E4,1.3242087E4,1.0575565E4,1.4479896E3,1.5161969E4,1.1880861E4,5.769814E3,5.548449E3,7.6936377E3,9.085256E3,1.4903091E3,1.4164265E3,3.1563086E1,1.236418E4,2.7977883E3,1.0612191E4,1.2686699E3,4.3739478E3,1.395866E3,4.434751E3,1.1136981E3,4.8174194E3,2.8762183E3,6.6921377E3,2.3931182E3,1.0262837E3,4.6402533E2],"tree_param":{"num_deleted":"0","num_feature":"12","num_nodes":"31","size_leaf_vector":"1"}},{"base_weights":[3.7282386E-3,1.933258E-1,-4.8523906E-1,-6.749731E-2,4.465372E-1,-6.843579E-1,-2.2238615E-1,7.968681E-2,-4.218246E-1,5.4928976E-1,1.602878E-1,-8.861469E-1,-5.7981753E-1,1.2726445E-1,-3.918192E-1,-3.1904463E-2,6.842161E-3,-1.2244036E-2,-3.8066775E-2,3.7808098E-2,2.2374133E-2,1.9555299E-2,-1.0892926E-2,-2.5783895E-2,-4.617875E-2,-4.6171788E-2,-2.4584668E-2,9.69663E-3,-4.9297463E-2,-1.2429408E-2,-4.076801E-2],"categories":[],"categories_nodes":[],"categories_segments":[],"categories_sizes":[],"default_left":[0,0,0,0,0,0,0,0,0,0,0,0,0,0,0,0,0,0,0,0,0,0,0,0,0,0,0,0,0,0,0],"id":26,"left_children":[1,3,5,7,9,11,13,15,17,19,21,23,25,27,29,-1,-1,-1,-1,-1,-1,-1,-1,-1,-1,-1,-1,-1,-1,-1,-1],"loss_changes":[5.3503584E3,2.7465825E3,8.438367E2,1.0684327E3,6.205698E2,1.930249E2,4.1189456E2,5.939291E2,3.6101453E2,3.266836E2,4.867119E2,4.2911377E1,1.8264001E2,1.6865372E2,2.8388574E2,0E0,0E0,0E0,0E0,0E0,0E0,0E0,0E0,0E0,0E0,0E0,0E0,0E0,0E0,0E0,0E0],"parents":[2147483647,0,0,1,1,2,2,3,3,4,4,5,5,6,6,7,7,8,8,9,9,10,10,11,11,12,12,13,13,14,14],"right_children":[2,4,6,8,10,12,14,16,18,20,22,24,26,28,30,-1,-1,-1,-1,-1,-1,-1,-1,-1,-1,-1,-1,-1,-1,-1,-1],"split_conditions":[3.6769554E1,1E0,1E0,4.574406E1,4.574406E1,2E0,2E0,2E0,2.2847319E1,2E0,1.9209373E1,3.8832977E1,5E0,6.711929E1,3.6869896E1,-3.1904463E-2,6.842161E-3,-1.2244036E-2,-3.8066775E-2,3.7808098E-2,2.2374133E-2,1.9555299E-2,-1.0892926E-2,-2.5783895E-2,-4.617875E-2,-4.6171788E-2,-2.4584668E-2,9.69663E-3,-4.9297463E-2,-1.2429408E-2,-4.076801E-2],"split_indices":[0,8,8,1,1,9,9,7,0,9,0,0,7,0,1,0,0,0,0,0,0,0,0,0,0,0,0,0,0,0,0],"split_type":[0,0,0,0,0,0,0,0,0,0,0,0,0,0,0,0,0,0,0,0,0,0,0,0,0,0,0,0,0,0,0],"sum_hessian":[5.771054E4,4.1586094E4,1.6124445E4,2.0485508E4,2.1100586E4,9.173584E3,6.950862E3,1.4473945E4,6.011562E3,1.5526313E4,5.5742725E3,3.1280967E3,6.045487E3,2.2688982E3,4.681964E3,1.0667997E3,1.3407146E4,3.953057E3,2.0585051E3,5.118695E3,1.0407618E4,3.461413E3,2.1128594E3,2.8838593E2,2.839711E3,1.2320271E3,4.81346E3,2.1414753E3,1.274229E2,3.4999531E3,1.1820106E3],"tree_param":{"num_deleted":"0","num_feature":"12","num_nodes":"31","size_leaf_vector":"1"}},{"base_weights":[9.864012E-4,1.7203373E-1,-4.9790716E-1,-7.912245E-2,4.181557E-1,-7.152786E-1,-2.144012E-1,7.1347326E-2,-3.3501047E-1,4.8971072E-1,-2.2742726E-2,-5.66939E-1,-9.1611266E-1,-1.3793406E-1,-6.615189E-1,-3.4826145E-2,6.542166E-3,3.0177707E-2,-1.9604404E-2,3.079437E-2,1.5408632E-2,1.6273996E-2,-1.8448777E-2,-1.2097557E-2,-3.554542E-2,-4.2987067E-2,-5.9553962E-2,-6.3054444E-4,-3.0292658E-2,-2.6085649E-2,-6.5535925E-2],"categories":[],"categories_nodes":[],"categories_segments":[],"categories_sizes":[],"default_left":[0,0,0,0,0,0,0,0,0,0,0,0,0,0,0,0,0,0,0,0,0,0,0,0,0,0,0,0,0,0,0],"id":27,"left_children":[1,3,5,7,9,11,13,15,17,19,21,23,25,27,29,-1,-1,-1,-1,-1,-1,-1,-1,-1,-1,-1,-1,-1,-1,-1,-1],"loss_changes":[4.8858174E3,2.6356284E3,9.007073E2,8.125774E2,6.7938696E2,2.4596875E2,2.1685815E2,6.0724207E2,4.1886914E2,4.241997E2,3.6276443E2,2.2260681E2,5.343286E1,3.1782593E2,8.340332E1,0E0,0E0,0E0,0E0,0E0,0E0,0E0,0E0,0E0,0E0,0E0,0E0,0E0,0E0,0E0,0E0],"parents":[2147483647,0,0,1,1,2,2,3,3,4,4,5,5,6,6,7,7,8,8,9,9,10,10,11,11,12,12,13,13,14,14],"right_children":[2,4,6,8,10,12,14,16,18,20,22,24,26,28,30,-1,-1,-1,-1,-1,-1,-1,-1,-1,-1,-1,-1,-1,-1,-1,-1],"split_conditions":[3.828838E1,1E0,1E0,4.0914383E1,5.824052E1,3.0465546E1,6.3245552E1,2E0,5.0990195E0,2.0808653E1,1.3038404E1,4.7423622E1,5.134019E1,3.9936382E1,7.2718636E1,-3.4826145E-2,6.542166E-3,3.0177707E-2,-1.9604404E-2,3.079437E-2,1.5408632E-2,1.6273996E-2,-1.8448777E-2,-1.2097557E-2,-3.554542E-2,-4.2987067E-2,-5.9553962E-2,-6.3054444E-4,-3.0292658E-2,-2.6085649E-2,-6.5535925E-2],"split_indices":[0,8,8,1,1,1,0,7,0,0,0,0,1,1,0,0,0,0,0,0,0,0,0,0,0,0,0,0,0,0,0],"split_type":[0,0,0,0,0,0,0,0,0,0,0,0,0,0,0,0,0,0,0,0,0,0,0,0,0,0,0,0,0,0,0],"sum_hessian":[5.725295E4,4.263578E4,1.4617166E4,2.1102416E4,2.1533367E4,8.272727E3,6.3444395E3,1.328888E4,7.8135356E3,1.8526521E4,3.0068467E3,4.760419E3,3.5123074E3,5.4189805E3,9.254588E2,9.5483484E2,1.2334045E4,4.4738095E2,7.366155E3,1.0928414E4,7.5981064E3,1.4991455E3,1.507701E3,1.4622664E3,3.2981526E3,2.9181746E3,5.941328E2,4.275024E3,1.1439564E3,7.6295844E2,1.6250035E2],"tree_param":{"num_deleted":"0","num_feature":"12","num_nodes":"31","size_leaf_vector":"1"}},{"base_weights":[3.2225062E-4,1.8308409E-1,-4.188445E-1,-5.474243E-2,4.1819292E-1,-6.205603E-1,-1.6550289E-1,-7.219988E-1,2.2704848E-4,4.6886462E-1,-1.1262171E-1,-4.8294258E-1,-7.904781E-1,-5.9536718E-2,-6.150916E-1,2.4339033E-2,-3.9603177E-2,-4.824305E-3,2.3098603E-2,3.485496E-2,1.8866424E-2,2.8972074E-2,-1.3029781E-2,-1.913627E-2,-4.9191877E-2,-3.492242E-2,-5.097252E-2,3.918911E-3,-2.6320508E-2,-2.6155993E-2,-6.1333057E-2],"categories":[],"categories_nodes":[],"categories_segments":[],"categories_sizes":[],"default_left":[0,0,0,0,0,0,0,0,0,0,0,0,0,0,0,0,0,0,0,0,0,0,0,0,0,0,0,0,0,0,0],"id":28,"left_children":[1,3,5,7,9,11,13,15,17,19,21,23,25,27,29,-1,-1,-1,-1,-1,-1,-1,-1,-1,-1,-1,-1,-1,-1,-1,-1],"loss_changes":[4.3459863E3,2.208979E3,8.8014087E2,7.203757E2,5.344043E2,2.2384839E2,3.6378668E2,1.2698718E2,8.1040076E2,3.786167E2,1.7752011E2,2.6571045E2,8.967651E1,3.9804263E2,8.1283325E1,0E0,0E0,0E0,0E0,0E0,0E0,0E0,0E0,0E0,0E0,0E0,0E0,0E0,0E0,0E0,0E0],"parents":[2147483647,0,0,1,1,2,2,3,3,4,4,5,5,6,6,7,7,8,8,9,9,10,10,11,11,12,12,13,13,14,14],"right_children":[2,4,6,8,10,12,14,16,18,20,22,24,26,28,30,-1,-1,-1,-1,-1,-1,-1,-1,-1,-1,-1,-1,-1,-1,-1,-1],"split_conditions":[3.51141E1,1E0,1E0,2E0,6.680141E1,5.0990196E1,5.9816387E1,4.472136E0,1E0,1.0198039E1,6.0827627E0,5.0389313E1,3.1865978E1,4.0462227E1,7.134424E1,2.4339033E-2,-3.9603177E-2,-4.824305E-3,2.3098603E-2,3.485496E-2,1.8866424E-2,2.8972074E-2,-1.3029781E-2,-1.913627E-2,-4.9191877E-2,-3.492242E-2,-5.097252E-2,3.918911E-3,-2.6320508E-2,-2.6155993E-2,-6.1333057E-2],"split_indices":[0,8,8,7,1,0,0,0,3,0,0,1,1,1,0,0,0,0,0,0,0,0,0,0,0,0,0,0,0,0,0],"split_type":[0,0,0,0,0,0,0,0,0,0,0,0,0,0,0,0,0,0,0,0,0,0,0,0,0,0,0,0,0,0,0],"sum_hessian":[5.672842E4,3.9504527E4,1.7223895E4,1.963914E4,1.9865387E4,9.588158E3,7.635737E3,1.493835E3,1.8145305E4,1.813439E4,1.7309968E3,5.2997188E3,4.2884395E3,6.180218E3,1.455519E3,8.151763E1,1.4123174E3,1.5003576E4,3.1417292E3,5.189177E3,1.2945214E4,3.044043E2,1.4265925E3,4.4176216E3,8.8209674E2,3.061854E3,1.2265851E3,4.7715337E3,1.4086841E3,1.2668563E3,1.8866269E2],"tree_param":{"num_deleted":"0","num_feature":"12","num_nodes":"31","size_leaf_vector":"1"}},{"base_weights":[4.639979E-3,2.287656E-1,-3.212327E-1,3.727367E-1,-2.9996546E-2,-1.18121676E-1,-5.183806E-1,4.8665366E-1,-5.1853113E-2,1.5554705E-1,-5.455339E-1,5.994838E-3,-7.5777847E-1,-3.5890698E-1,-7.560309E-1,-1.0391808E-2,2.7110307E-2,1.5046886E-2,-1.5781736E-2,4.8178665E-2,4.4012917E-3,-1.9711273E-2,-4.5810957E-2,-5.652672E-2,2.2309849E-3,-3.543325E-2,-6.501351E-2,-1.5521459E-2,-6.086964E-2,-3.537829E-2,-5.6857623E-2],"categories":[],"categories_nodes":[],"categories_segments":[],"categories_sizes":[],"default_left":[0,0,0,0,0,0,0,0,0,0,0,0,0,0,0,0,0,0,0,0,0,0,0,0,0,0,0,0,0,0,0],"id":29,"left_children":[1,3,5,7,9,11,13,15,17,19,21,23,25,27,29,-1,-1,-1,-1,-1,-1,-1,-1,-1,-1,-1,-1,-1,-1,-1,-1],"loss_changes":[4.130139E3,1.2482211E3,9.226826E2,1.0412739E3,1.1458854E3,9.012285E2,4.4289258E2,6.54969E2,4.2397375E2,4.805321E2,1.774585E2,4.1743027E2,4.8227783E1,2.9092413E2,8.591333E1,0E0,0E0,0E0,0E0,0E0,0E0,0E0,0E0,0E0,0E0,0E0,0E0,0E0,0E0,0E0,0E0],"parents":[2147483647,0,0,1,1,2,2,3,3,4,4,5,5,6,6,7,7,8,8,9,9,10,10,11,11,12,12,13,13,14,14],"right_children":[2,4,6,8,10,12,14,16,18,20,22,24,26,28,30,-1,-1,-1,-1,-1,-1,-1,-1,-1,-1,-1,-1,-1,-1,-1,-1],"split_conditions":[2.915476E1,3E0,4.1785164E1,5.5619656E1,1.4866069E1,5.134019E1,3.0068583E1,2E0,1.3038404E1,4.472136E0,2.2090721E1,2E0,3.7E1,7.134424E1,5.134019E1,-1.0391808E-2,2.7110307E-2,1.5046886E-2,-1.5781736E-2,4.8178665E-2,4.4012917E-3,-1.9711273E-2,-4.5810957E-2,-5.652672E-2,2.2309849E-3,-3.543325E-2,-6.501351E-2,-1.5521459E-2,-6.086964E-2,-3.537829E-2,-5.6857623E-2],"split_indices":[0,5,0,1,0,1,1,7,0,0,0,7,7,0,1,0,0,0,0,0,0,0,0,0,0,0,0,0,0,0,0],"split_type":[0,0,0,0,0,0,0,0,0,0,0,0,0,0,0,0,0,0,0,0,0,0,0,0,0,0,0,0,0,0,0],"sum_hessian":[5.6547023E4,3.3504152E4,2.3042871E4,2.1526639E4,1.1977515E4,1.1350575E4,1.1692297E4,1.6972729E4,4.55391E3,8.808136E3,3.169379E3,9.506887E3,1.8436887E3,6.998507E3,4.6937896E3,1.2568945E3,1.5715834E4,1.9481907E3,2.6057197E3,6.7824994E2,8.1298857E3,2.2521475E3,9.1723126E2,3.115423E2,9.195345E3,1.6927455E3,1.5094322E2,6.6257207E3,3.7278604E2,4.16678E3,5.270099E2],"tree_param":{"num_deleted":"0","num_feature":"12","num_nodes":"31","size_leaf_vector":"1"}},{"base_weights":[1.1721577E-2,2.813806E-1,-2.2778535E-1,7.269866E-2,4.8402932E-1,-4.4893548E-1,2.6812783E-2,-6.3967335E-1,1.4776312E-1,5.2462E-1,-1.3575007E-1,-7.1204394E-1,-3.220476E-1,3.168409E-1,-1.107374E-1,2.3923805E-2,-3.8122065E-2,7.545574E-4,3.0045325E-2,3.6570918E-2,2.1058846E-2,2.768722E-2,-1.8027684E-2,-3.0313758E-2,-4.7680657E-2,-7.5003947E-3,-2.8853163E-2,2.2856984E-2,-9.4433484E-4,-1.7502034E-3,-3.451819E-2],"categories":[],"categories_nodes":[],"categories_segments":[],"categories_sizes":[],"default_left":[0,0,0,0,0,0,0,0,0,0,0,0,0,0,0,0,0,0,0,0,0,0,0,0,0,0,0,0,0,0,0],"id":30,"left_children":[1,3,5,7,9,11,13,15,17,19,21,23,25,27,29,-1,-1,-1,-1,-1,-1,-1,-1,-1,-1,-1,-1,-1,-1,-1,-1],"loss_changes":[3.6473235E3,1.1233491E3,1.6840027E3,6.9998926E2,3.3911157E2,5.341279E2,5.547093E2,1.7166608E2,7.119048E2,2.7027002E2,1.2872156E2,1.3245728E2,4.737406E2,2.1070078E2,4.1400455E2,0E0,0E0,0E0,0E0,0E0,0E0,0E0,0E0,0E0,0E0,0E0,0E0,0E0,0E0,0E0,0E0],"parents":[2147483647,0,0,1,1,2,2,3,3,4,4,5,5,6,6,7,7,8,8,9,9,10,10,11,11,12,12,13,13,14,14],"right_children":[2,4,6,8,10,12,14,16,18,20,22,24,26,28,30,-1,-1,-1,-1,-1,-1,-1,-1,-1,-1,-1,-1,-1,-1,-1,-1],"split_conditions":[2.236068E1,1E0,1E0,2E0,7.289727E1,2E0,2E0,5E0,1E0,2E0,6.0827627E0,3.909386E1,4.1617306E1,4.5276924E1,5.0792797E1,2.3923805E-2,-3.8122065E-2,7.545574E-4,3.0045325E-2,3.6570918E-2,2.1058846E-2,2.768722E-2,-1.8027684E-2,-3.0313758E-2,-4.7680657E-2,-7.5003947E-3,-2.8853163E-2,2.2856984E-2,-9.4433484E-4,-1.7502034E-3,-3.451819E-2],"split_indices":[0,8,8,7,1,9,9,0,3,9,0,1,0,0,1,0,0,0,0,0,0,0,0,0,0,0,0,0,0,0,0],"split_type":[0,0,0,0,0,0,0,0,0,0,0,0,0,0,0,0,0,0,0,0,0,0,0,0,0,0,0,0,0,0,0],"sum_hessian":[5.647106E4,2.6563379E4,2.9907682E4,1.3087549E4,1.347583E4,1.6004777E4,1.3902903E4,1.2468882E3,1.1840661E4,1.2647661E4,8.281692E2,5.2057603E3,1.0799018E4,4.472088E3,9.430815E3,1.23072E2,1.1238162E3,9.159857E3,2.6808032E3,4.2150566E3,8.4326045E3,2.0326682E2,6.2490234E2,3.6229812E3,1.5827788E3,6.449571E3,4.349447E3,3.1537786E3,1.3183092E3,8.341929E3,1.0888866E3],"tree_param":{"num_deleted":"0","num_feature":"12","num_nodes":"31","size_leaf_vector":"1"}},{"base_weights":[-2.0306362E-4,1.7052649E-1,-3.741585E-1,-3.9969616E-2,3.8186374E-1,-5.7635E-1,-1.3171487E-1,9.063605E-2,-3.5497987E-1,-1.9045752E-1,4.2105013E-1,-3.3594248E-1,-6.951172E-1,-4.3661386E-2,-5.262246E-1,2.845639E-2,1.0184678E-3,-9.856768E-3,-3.4282234E-2,3.239735E-2,-2.2377715E-2,1.6974736E-2,3.8611986E-2,-4.2057536E-3,-3.0820996E-2,-5.5619378E-2,-3.2620624E-2,3.761182E-3,-2.052184E-2,-5.6934744E-2,-2.1064406E-2],"categories":[],"categories_nodes":[],"categories_segments":[],"categories_sizes":[],"default_left":[0,0,0,0,0,0,0,0,0,0,0,0,0,0,0,0,0,0,0,0,0,0,0,0,0,0,0,0,0,0,0],"id":31,"left_children":[1,3,5,7,9,11,13,15,17,19,21,23,25,27,29,-1,-1,-1,-1,-1,-1,-1,-1,-1,-1,-1,-1,-1,-1,-1,-1],"loss_changes":[3.5676064E3,1.7066592E3,8.5851294E2,7.908294E2,4.2942188E2,2.7244434E2,2.767003E2,4.5685767E2,2.9390912E2,2.6486896E2,5.12916E2,2.2313211E2,1.1316211E2,2.8404834E2,9.293564E1,0E0,0E0,0E0,0E0,0E0,0E0,0E0,0E0,0E0,0E0,0E0,0E0,0E0,0E0,0E0,0E0],"parents":[2147483647,0,0,1,1,2,2,3,3,4,4,5,5,6,6,7,7,8,8,9,9,10,10,11,11,12,12,13,13,14,14],"right_children":[2,4,6,8,10,12,14,16,18,20,22,24,26,28,30,-1,-1,-1,-1,-1,-1,-1,-1,-1,-1,-1,-1,-1,-1,-1,-1],"split_conditions":[3.420526E1,1E0,1E0,4.574406E1,2E0,2.0136303E1,5.9816387E1,7.615773E0,2.2090721E1,6.0827627E0,1E0,5.0606323E1,3E0,3.9936382E1,4E0,2.845639E-2,1.0184678E-3,-9.856768E-3,-3.4282234E-2,3.239735E-2,-2.2377715E-2,1.6974736E-2,3.8611986E-2,-4.2057536E-3,-3.0820996E-2,-5.5619378E-2,-3.2620624E-2,3.761182E-3,-2.052184E-2,-5.6934744E-2,-2.1064406E-2],"split_indices":[0,8,8,1,7,1,0,0,0,0,3,0,7,1,7,0,0,0,0,0,0,0,0,0,0,0,0,0,0,0,0],"split_type":[0,0,0,0,0,0,0,0,0,0,0,0,0,0,0,0,0,0,0,0,0,0,0,0,0,0,0,0,0,0,0],"sum_hessian":[5.587697E4,3.8362906E4,1.7514062E4,1.922011E4,1.9142799E4,9.549041E3,7.9650205E3,1.3587387E4,5.632722E3,1.2264536E3,1.7916346E4,3.1588186E3,6.390222E3,6.5125483E3,1.4524722E3,1.7389106E3,1.1848477E4,3.8137874E3,1.8189349E3,2.8747244E2,9.3898114E2,1.4541415E4,3.37493E3,1.665102E3,1.4937167E3,5.909513E2,5.799271E3,4.918939E3,1.5936093E3,2.1101497E2,1.2414573E3],"tree_param":{"num_deleted":"0","num_feature":"12","num_nodes":"31","size_leaf_vector":"1"}},{"base_weights":[4.522697E-3,1.9339511E-1,-3.1870008E-1,3.2946903E-1,-7.358088E-2,-1.4819847E-1,-5.0424695E-1,4.3875965E-1,-5.5721957E-2,1.0887053E-1,-5.337792E-1,2.0062573E-2,-5.024637E-1,-2.7865452E-1,-6.3478416E-1,-7.556777E-3,2.4214657E-2,1.097663E-2,-1.9990705E-2,1.9560201E-2,-3.5424628E-3,-1.8948546E-2,-4.3695148E-2,-5.9655767E-2,3.2265787E-3,-1.6448108E-2,-3.575187E-2,-1.0542739E-2,-6.004658E-2,-5.02203E-2,-2.9858619E-2],"categories":[],"categories_nodes":[],"categories_segments":[],"categories_sizes":[],"default_left":[0,0,0,0,0,0,0,0,0,0,0,0,0,0,0,0,0,0,0,0,0,0,0,0,0,0,0,0,0,0,0],"id":32,"left_children":[1,3,5,7,9,11,13,15,17,19,21,23,25,27,29,-1,-1,-1,-1,-1,-1,-1,-1,-1,-1,-1,-1,-1,-1,-1,-1],"loss_changes":[3.3861072E3,1.2718522E3,6.471133E2,9.762656E2,9.9253326E2,6.355787E2,2.882981E2,4.8528613E2,4.8561697E2,4.2956317E2,1.7637567E2,3.9011807E2,1.2639685E2,2.2438333E2,8.565698E1,0E0,0E0,0E0,0E0,0E0,0E0,0E0,0E0,0E0,0E0,0E0,0E0,0E0,0E0,0E0,0E0],"parents":[2147483647,0,0,1,1,2,2,3,3,4,4,5,5,6,6,7,7,8,8,9,9,10,10,11,11,12,12,13,13,14,14],"right_children":[2,4,6,8,10,12,14,16,18,20,22,24,26,28,30,-1,-1,-1,-1,-1,-1,-1,-1,-1,-1,-1,-1,-1,-1,-1,-1],"split_conditions":[3.106445E1,3E0,4.4418465E1,5.4462322E1,1.456022E1,3.9936382E1,1.9916407E1,2E0,1.7088007E1,7.81025E0,2.2090721E1,2E0,5.230576E1,6.664833E1,3E0,-7.556777E-3,2.4214657E-2,1.097663E-2,-1.9990705E-2,1.9560201E-2,-3.5424628E-3,-1.8948546E-2,-4.3695148E-2,-5.9655767E-2,3.2265787E-3,-1.6448108E-2,-3.575187E-2,-1.0542739E-2,-6.004658E-2,-5.02203E-2,-2.9858619E-2],"split_indices":[0,5,0,1,0,1,1,7,0,0,0,7,1,0,7,0,0,0,0,0,0,0,0,0,0,0,0,0,0,0,0],"split_type":[0,0,0,0,0,0,0,0,0,0,0,0,0,0,0,0,0,0,0,0,0,0,0,0,0,0,0,0,0,0,0],"sum_hessian":[5.546442E4,3.500813E4,2.0456293E4,2.318886E4,1.1819269E4,1.0661286E4,9.795007E3,1.8063535E4,5.125324E3,8.464267E3,3.3550017E3,7.2288374E3,3.4324492E3,3.5914514E3,6.203555E3,1.2942289E3,1.6769307E4,2.8476917E3,2.2776328E3,3.2917952E3,5.1724717E3,2.307054E3,1.0479479E3,2.5469034E2,6.974147E3,1.891315E3,1.5411342E3,3.3466558E3,2.4479553E2,5.7058234E2,5.6329727E3],"tree_param":{"num_deleted":"0","num_feature":"12","num_nodes":"31","size_leaf_vector":"1"}},{"base_weights":[-3.8431503E-3,-2.2095974E-1,2.2537784E-1,-4.867779E-1,-9.7445965E-2,4.6620876E-1,1.1427764E-1,-3.1542128E-1,-6.257033E-1,-3.7463558E-1,1.4644622E-2,6.173336E-1,3.244926E-1,-5.8657795E-2,2.4131797E-1,-1.1115865E-2,-3.576457E-2,-3.429551E-2,-1.8296476E-2,-2.7171487E-2,-1.2073439E-2,1.0181796E-2,-7.253366E-3,3.336642E-2,1.7860299E-2,1.1771094E-2,2.7966527E-2,5.5259964E-3,-1.2680552E-2,1.6338997E-2,1.1442942E-3],"categories":[],"categories_nodes":[],"categories_segments":[],"categories_sizes":[],"default_left":[0,0,0,0,0,0,0,0,0,0,0,0,0,0,0,0,0,0,0,0,0,0,0,0,0,0,0,0,0,0,0],"id":33,"left_children":[1,3,5,7,9,11,13,15,17,19,21,23,25,27,29,-1,-1,-1,-1,-1,-1,-1,-1,-1,-1,-1,-1,-1,-1,-1,-1],"loss_changes":[2.7478677E3,9.309303E2,7.185763E2,2.1394604E2,6.015642E2,1.8138232E2,4.038358E2,1.4986203E2,7.743091E1,1.25181335E2,4.1618546E2,5.31073E1,9.143451E1,2.5679425E2,1.978075E2,0E0,0E0,0E0,0E0,0E0,0E0,0E0,0E0,0E0,0E0,0E0,0E0,0E0,0E0,0E0,0E0],"parents":[2147483647,0,0,1,1,2,2,3,3,4,4,5,5,6,6,7,7,8,8,9,9,10,10,11,11,12,12,13,13,14,14],"right_children":[2,4,6,8,10,12,14,16,18,20,22,24,26,28,30,-1,-1,-1,-1,-1,-1,-1,-1,-1,-1,-1,-1,-1,-1,-1,-1],"split_conditions":[1E0,2E0,2E0,2.755281E1,-1E0,2.707208E1,2E0,4E0,1E0,-2E0,2.707208E1,7E0,2E0,3.1108809E1,4.1423664E1,-1.1115865E-2,-3.576457E-2,-3.429551E-2,-1.8296476E-2,-2.7171487E-2,-1.2073439E-2,1.0181796E-2,-7.253366E-3,3.336642E-2,1.7860299E-2,1.1771094E-2,2.7966527E-2,5.5259964E-3,-1.2680552E-2,1.6338997E-2,1.1442942E-3],"split_indices":[8,9,9,1,8,1,8,5,3,8,1,6,8,1,1,0,0,0,0,0,0,0,0,0,0,0,0,0,0,0,0],"split_type":[0,0,0,0,0,0,0,0,0,0,0,0,0,0,0,0,0,0,0,0,0,0,0,0,0,0,0,0,0,0,0],"sum_hessian":[5.52119E4,2.8354625E4,2.6857275E4,8.994441E3,1.9360184E4,8.477493E3,1.8379781E4,4.0286272E3,4.9658145E3,5.5739585E3,1.3786224E4,4.1009355E3,4.376557E3,7.784102E3,1.059568E4,3.2690354E3,7.595918E2,4.0301248E3,9.356895E2,2.4567947E3,3.117164E3,6.3141963E3,7.472028E3,3.4385115E3,6.624241E2,3.174512E3,1.2020452E3,4.167787E3,3.616315E3,7.6155757E3,2.9801042E3],"tree_param":{"num_deleted":"0","num_feature":"12","num_nodes":"31","size_leaf_vector":"1"}},{"base_weights":[-2.589912E-3,1.2643884E-1,-4.430607E-1,-7.091555E-2,3.2860753E-1,-6.2610894E-1,-2.2247243E-1,-3.507299E-1,5.2911907E-2,5.499357E-1,2.2664966E-1,-5.273298E-1,-8.0160964E-1,-1.6950826E-1,-1.0487933E0,-1.0357746E-2,-2.9871246E-2,6.9888677E-3,-1.9537125E-2,3.2057833E-2,1.950394E-2,-2.0658998E-2,1.338771E-2,-4.948508E-2,-2.2292145E-2,-4.0552296E-2,1.9230945E-2,4.3769865E-3,-1.8251486E-2,-5.6290474E-2,5.1247206E-2],"categories":[],"categories_nodes":[],"categories_segments":[],"categories_sizes":[],"default_left":[0,0,0,0,0,0,0,0,0,0,0,0,0,0,0,0,0,0,0,0,0,0,0,0,0,0,0,0,0,0,0],"id":34,"left_children":[1,3,5,7,9,11,13,15,17,19,21,23,25,27,29,-1,-1,-1,-1,-1,-1,-1,-1,-1,-1,-1,-1,-1,-1,-1,-1],"loss_changes":[3.1250986E3,1.6968782E3,5.0289917E2,7.4571075E2,4.7395386E2,1.17596924E2,2.4715317E2,2.337284E2,5.750491E2,9.635632E1,3.7842065E2,1.6379358E2,2.773462E1,2.670083E2,5.5490173E1,0E0,0E0,0E0,0E0,0E0,0E0,0E0,0E0,0E0,0E0,0E0,0E0,0E0,0E0,0E0,0E0],"parents":[2147483647,0,0,1,1,2,2,3,3,4,4,5,5,6,6,7,7,8,8,9,9,10,10,11,11,12,12,13,13,14,14],"right_children":[2,4,6,8,10,12,14,16,18,20,22,24,26,28,30,-1,-1,-1,-1,-1,-1,-1,-1,-1,-1,-1,-1,-1,-1,-1,-1],"split_conditions":[3.992493E1,1E0,1E0,2E0,2E0,3.1865978E1,4.836646E1,4.0914383E1,5.7264774E1,2.2671568E1,2E0,4E0,4E0,5.0606323E1,7.156505E1,-1.0357746E-2,-2.9871246E-2,6.9888677E-3,-1.9537125E-2,3.2057833E-2,1.950394E-2,-2.0658998E-2,1.338771E-2,-4.948508E-2,-2.2292145E-2,-4.0552296E-2,1.9230945E-2,4.3769865E-3,-1.8251486E-2,-5.6290474E-2,5.1247206E-2],"split_indices":[0,8,8,9,9,1,1,1,1,0,7,7,5,0,1,0,0,0,0,0,0,0,0,0,0,0,0,0,0,0,0],"split_type":[0,0,0,0,0,0,0,0,0,0,0,0,0,0,0,0,0,0,0,0,0,0,0,0,0,0,0,0,0,0,0],"sum_hessian":[5.4985027E4,4.252789E4,1.245714E4,2.1520506E4,2.1007383E4,6.8068496E3,5.65029E3,6.601404E3,1.4919103E4,6.623917E3,1.4383466E4,4.3579927E3,2.448857E3,5.3110747E3,3.3921548E2,4.1740005E3,2.4274033E3,1.2476874E4,2.4422283E3,4.215415E3,2.408502E3,8.6771063E2,1.3515755E4,6.512928E2,3.7067E3,2.4298442E3,1.901278E1,2.2947573E3,3.0163176E3,3.2750928E2,1.1706198E1],"tree_param":{"num_deleted":"0","num_feature":"12","num_nodes":"31","size_leaf_vector":"1"}},{"base_weights":[-4.0501934E-3,1.6688755E-1,-2.9750204E-1,-2.7710486E-2,3.637461E-1,-4.7144446E-1,-9.60853E-2,-6.3772E-1,2.617653E-2,4.1869658E-1,-1.0798506E-1,-7.259426E-1,-3.5145992E-1,4.703137E-2,-3.37586E-1,-3.452321E-2,9.325202E-2,1.043726E-2,-8.174307E-3,3.1137526E-2,1.6180338E-2,4.1389684E-3,-2.6196325E-2,-3.2391194E-2,-4.7546443E-2,-7.982043E-3,-2.6379118E-2,9.933407E-3,-1.8021785E-2,-4.1540094E-2,-1.2648483E-2],"categories":[],"categories_nodes":[],"categories_segments":[],"categories_sizes":[],"default_left":[0,0,0,0,0,0,0,0,0,0,0,0,0,0,0,0,0,0,0,0,0,0,0,0,0,0,0,0,0,0,0],"id":35,"left_children":[1,3,5,7,9,11,13,15,17,19,21,23,25,27,29,-1,-1,-1,-1,-1,-1,-1,-1,-1,-1,-1,-1,-1,-1,-1,-1],"loss_changes":[2.732903E3,1.3188643E3,7.025509E2,5.6915625E2,4.436814E2,3.2833374E2,3.212566E2,1.8680652E2,5.509287E2,2.972334E2,1.4178812E2,5.996411E1,2.470412E2,3.6071155E2,1.4413095E2,0E0,0E0,0E0,0E0,0E0,0E0,0E0,0E0,0E0,0E0,0E0,0E0,0E0,0E0,0E0,0E0],"parents":[2147483647,0,0,1,1,2,2,3,3,4,4,5,5,6,6,7,7,8,8,9,9,10,10,11,11,12,12,13,13,14,14],"right_children":[2,4,6,8,10,12,14,16,18,20,22,24,26,28,30,-1,-1,-1,-1,-1,-1,-1,-1,-1,-1,-1,-1,-1,-1,-1,-1],"split_conditions":[3.106445E1,1E0,1E0,2E0,6.4653824E1,2E0,4.808326E1,8E0,5E0,2E0,1.3E1,3.909386E1,2.755281E1,4.0601295E1,4E0,-3.452321E-2,9.325202E-2,1.043726E-2,-8.174307E-3,3.1137526E-2,1.6180338E-2,4.1389684E-3,-2.6196325E-2,-3.2391194E-2,-4.7546443E-2,-7.982043E-3,-2.6379118E-2,9.933407E-3,-1.8021785E-2,-4.1540094E-2,-1.2648483E-2],"split_indices":[0,8,8,7,1,9,0,6,6,9,7,1,1,1,7,0,0,0,0,0,0,0,0,0,0,0,0,0,0,0,0],"split_type":[0,0,0,0,0,0,0,0,0,0,0,0,0,0,0,0,0,0,0,0,0,0,0,0,0,0,0,0,0,0,0],"sum_hessian":[5.447956E4,3.4426383E4,2.0053176E4,1.7313023E4,1.711336E4,1.0759763E4,9.293414E3,1.4043806E3,1.5908643E4,1.5327965E4,1.7853947E3,3.4458174E3,7.313945E3,5.8358267E3,3.4575872E3,1.3761041E3,2.8276455E1,8.1058643E3,7.802779E3,4.8705874E3,1.0457377E4,1.2245684E3,5.608263E2,2.5606116E3,8.852058E2,3.5018757E3,3.812069E3,4.2534424E3,1.5823842E3,5.0502924E2,2.9525579E3],"tree_param":{"num_deleted":"0","num_feature":"12","num_nodes":"31","size_leaf_vector":"1"}},{"base_weights":[-5.5359425E-3,2.3134623E-1,-2.1771218E-1,3.9963138E-1,1.1815408E-3,-3.9838326E-1,-1.4004373E-2,4.5071727E-1,-3.4236166E-1,3.7505004E-1,-1.5953946E-1,-6.6583604E-1,-2.7564123E-1,5.085795E-2,-5.435262E-1,-3.5907954E-4,2.48558E-2,1.6702747E-2,-2.907513E-2,2.4047874E-2,-2.0042181E-2,-3.3830518E-5,-2.2875903E-2,-3.1041076E-2,-6.379287E-2,-2.1832027E-2,-2.4930756E-3,1.0927052E-2,-1.0672682E-2,-7.826462E-2,-2.4473008E-2],"categories":[],"categories_nodes":[],"categories_segments":[],"categories_sizes":[],"default_left":[0,0,0,0,0,0,0,0,0,0,0,0,0,0,0,0,0,0,0,0,0,0,0,0,0,0,0,0,0,0,0],"id":36,"left_children":[1,3,5,7,9,11,13,15,17,19,21,23,25,27,29,-1,-1,-1,-1,-1,-1,-1,-1,-1,-1,-1,-1,-1,-1,-1,-1],"loss_changes":[2.72467E3,9.921177E2,1.0524661E3,5.610012E2,6.5016376E2,4.9732642E2,4.6172043E2,2.9411816E2,1.5445494E2,2.675008E2,3.5820938E2,1.300979E2,3.7764355E2,5.3084796E2,8.027463E1,0E0,0E0,0E0,0E0,0E0,0E0,0E0,0E0,0E0,0E0,0E0,0E0,0E0,0E0,0E0,0E0],"parents":[2147483647,0,0,1,1,2,2,3,3,4,4,5,5,6,6,7,7,8,8,9,9,10,10,11,11,12,12,13,13,14,14],"right_children":[2,4,6,8,10,12,14,16,18,20,22,24,26,28,30,-1,-1,-1,-1,-1,-1,-1,-1,-1,-1,-1,-1,-1,-1,-1,-1],"split_conditions":[2.236068E1,3E0,1E0,7.474488E1,7.81025E0,2E0,5.134019E1,-1E0,7.2111025E0,7.289727E1,3.1108809E1,3E0,0E0,4.2059483E1,2.370654E1,-3.5907954E-4,2.48558E-2,1.6702747E-2,-2.907513E-2,2.4047874E-2,-2.0042181E-2,-3.3830518E-5,-2.2875903E-2,-3.1041076E-2,-6.379287E-2,-2.1832027E-2,-2.4930756E-3,1.0927052E-2,-1.0672682E-2,-7.826462E-2,-2.4473008E-2],"split_indices":[0,5,8,1,0,9,1,8,0,1,1,5,8,0,0,0,0,0,0,0,0,0,0,0,0,0,0,0,0,0,0],"split_type":[0,0,0,0,0,0,0,0,0,0,0,0,0,0,0,0,0,0,0,0,0,0,0,0,0,0,0,0,0,0,0],"sum_hessian":[5.4208668E4,2.5613086E4,2.859558E4,1.4794982E4,1.0818104E4,1.5154184E4,1.3441397E4,1.3842337E4,9.526457E2,3.2519944E3,7.566109E3,4.765599E3,1.0388584E4,1.1975406E4,1.4659906E3,1.2736649E3,1.2568672E4,2.4872461E2,7.039211E2,2.8617527E3,3.9024152E2,4.9357104E3,2.6303984E3,4.439983E3,3.2561624E2,6.063723E3,4.324861E3,7.3271377E3,4.648269E3,7.226881E1,1.3937218E3],"tree_param":{"num_deleted":"0","num_feature":"12","num_nodes":"31","size_leaf_vector":"1"}},{"base_weights":[4.1107903E-3,1.740935E-1,-2.4751785E-1,-2.849706E-3,3.5391027E-1,-4.229626E-1,-5.0772827E-2,8.185143E-2,-3.8122296E-1,4.6423468E-1,1.3492851E-1,-2.800392E-1,-6.401826E-1,-7.0986986E-1,8.940878E-4,1.0467109E-2,-1.2802375E-2,-1.2052501E-2,-3.785867E-2,2.5673611E-2,-5.3207013E-3,2.2373548E-2,-6.592958E-3,-4.933448E-3,-2.702406E-2,-2.4921741E-2,-4.0079854E-2,-2.6433406E-2,-5.8655716E-2,4.6066917E-3,-1.6717229E-2],"categories":[],"categories_nodes":[],"categories_segments":[],"categories_sizes":[],"default_left":[0,0,0,0,0,0,0,0,0,0,0,0,0,0,0,0,0,0,0,0,0,0,0,0,0,0,0,0,0,0,0],"id":37,"left_children":[1,3,5,7,9,11,13,15,17,19,21,23,25,27,29,-1,-1,-1,-1,-1,-1,-1,-1,-1,-1,-1,-1,-1,-1,-1,-1],"loss_changes":[2.3171128E3,1.0287136E3,7.538877E2,5.223314E2,3.8734436E2,3.5825732E2,3.5063998E2,5.737372E2,1.5691504E2,2.996565E2,4.4813153E2,3.28966E2,1.04415405E2,6.220865E1,2.921138E2,0E0,0E0,0E0,0E0,0E0,0E0,0E0,0E0,0E0,0E0,0E0,0E0,0E0,0E0,0E0,0E0],"parents":[2147483647,0,0,1,1,2,2,3,3,4,4,5,5,6,6,7,7,8,8,9,9,10,10,11,11,12,12,13,13,14,14],"right_children":[2,4,6,8,10,12,14,16,18,20,22,24,26,28,30,-1,-1,-1,-1,-1,-1,-1,-1,-1,-1,-1,-1,-1,-1,-1,-1],"split_conditions":[2.915476E1,1E0,1E0,5.7264774E1,3E0,3.2905243E1,3E0,4E0,7.747119E1,6.9623566E1,9.433981E0,5.0990196E1,3.992493E1,5.3366657E1,4.0601295E1,1.0467109E-2,-1.2802375E-2,-1.2052501E-2,-3.785867E-2,2.5673611E-2,-5.3207013E-3,2.2373548E-2,-6.592958E-3,-4.933448E-3,-2.702406E-2,-2.4921741E-2,-4.0079854E-2,-2.6433406E-2,-5.8655716E-2,4.6066917E-3,-1.6717229E-2],"split_indices":[0,8,8,1,5,1,7,5,1,1,0,0,0,0,1,0,0,0,0,0,0,0,0,0,0,0,0,0,0,0,0],"split_type":[0,0,0,0,0,0,0,0,0,0,0,0,0,0,0,0,0,0,0,0,0,0,0,0,0,0,0,0,0,0,0],"sum_hessian":[5.4170926E4,3.2330805E4,2.1840121E4,1.62961045E4,1.60347E4,1.1544404E4,1.0295717E4,1.3316018E4,2.9800872E3,1.0661998E4,5.3727026E3,6.964373E3,4.5800317E3,7.4749115E2,9.548227E3,9.668449E3,3.6475679E3,2.1719263E3,8.0816077E2,9.815208E3,8.4678973E2,2.4738748E3,2.8988276E3,4.1062114E3,2.8581616E3,2.4407493E3,2.1392822E3,5.3885504E2,2.0863614E2,7.5060723E3,2.0421539E3],"tree_param":{"num_deleted":"0","num_feature":"12","num_nodes":"31","size_leaf_vector":"1"}},{"base_weights":[-6.8948576E-3,-5.3199637E-1,2.6364788E-2,-5.6616265E-1,1.425621E0,-3.74542E-2,4.2555794E-1,-3.8103956E-1,-9.1597E-1,1.6329155E0,4.658295E-2,1.0031335E-1,-1.8122031E-1,6.8900204E-1,2.0216672E-1,4.0440295E-2,-2.217993E-2,-3.8620416E-2,-6.871767E-2,6.2049646E-2,8.973529E-2,-2.2195783E-2,6.5231468E-3,-5.3772232E-3,-1.771311E-2,4.815647E-2,2.4459457E-2,-1.4077107E-3,2.1666562E-2],"categories":[],"categories_nodes":[],"categories_segments":[],"categories_sizes":[],"default_left":[0,0,0,0,0,0,0,0,0,0,0,0,0,0,0,0,0,0,0,0,0,0,0,0,0,0,0,0,0],"id":38,"left_children":[1,3,5,7,9,11,13,15,17,19,-1,21,23,25,27,-1,-1,-1,-1,-1,-1,-1,-1,-1,-1,-1,-1,-1,-1],"loss_changes":[9.3823035E2,2.1483795E2,1.2871132E3,2.0336682E2,4.1284485E0,8.627616E2,4.0968286E2,1.5361166E2,7.053339E1,1.5297699E-1,0E0,3.6504706E2,2.717174E2,1.745315E2,2.007203E2,0E0,0E0,0E0,0E0,0E0,0E0,0E0,0E0,0E0,0E0,0E0,0E0,0E0,0E0],"parents":[2147483647,0,0,1,1,2,2,3,3,4,4,5,5,6,6,7,7,8,8,9,9,11,11,12,12,13,13,14,14],"right_children":[2,4,6,8,10,12,14,16,18,20,-1,22,24,26,28,-1,-1,-1,-1,-1,-1,-1,-1,-1,-1,-1,-1,-1,-1],"split_conditions":[2E0,8E0,1E0,4E0,1E0,2.9845932E1,1E0,1E0,7E0,2E0,4.658295E-2,4E0,5.3392925E1,1E0,3E0,4.0440295E-2,-2.217993E-2,-3.8620416E-2,-6.871767E-2,6.2049646E-2,8.973529E-2,-2.2195783E-2,6.5231468E-3,-5.3772232E-3,-1.771311E-2,4.815647E-2,2.4459457E-2,-1.4077107E-3,2.1666562E-2],"split_indices":[7,6,3,6,10,1,6,3,6,9,0,7,1,4,7,0,0,0,0,0,0,0,0,0,0,0,0,0,0],"split_type":[0,0,0,0,0,0,0,0,0,0,0,0,0,0,0,0,0,0,0,0,0,0,0,0,0,0,0,0,0],"sum_hessian":[5.371975E4,3.1990068E3,5.0520746E4,3.144831E3,5.4175896E1,4.355803E4,6.962714E3,2.0578674E3,1.0869636E3,3.6537106E1,1.7638792E1,2.2243209E4,2.1314822E4,3.193983E3,3.768731E3,1.0219691E2,1.9556705E3,8.2977136E2,2.5719223E2,1.320925E1,2.3327854E1,1.1668429E3,2.1076365E4,1.4950843E4,6.3639805E3,1.3449703E3,1.8490125E3,1.88825E3,1.8804811E3],"tree_param":{"num_deleted":"0","num_feature":"12","num_nodes":"29","size_leaf_vector":"1"}},{"base_weights":[-5.231379E-3,1.8498382E-1,-2.3181531E-1,3.2740074E-1,-4.099987E-2,-3.9329994E-1,-5.086735E-2,-2.977543E-1,3.8583413E-1,2.929981E-1,-2.2723769E-1,-2.8381863E-1,-6.679438E-1,2.3725815E-1,-1.8655859E-1,-1.68124E-2,8.366145E-2,4.0748473E-2,1.6488243E-2,5.4994494E-2,1.0069831E-2,-5.0893445E-2,-9.080446E-3,-2.6406074E-2,-8.73134E-3,-2.9884273E-2,-4.9484227E-2,-3.1520333E-2,1.4779582E-2,-7.101635E-3,-4.244147E-2],"categories":[],"categories_nodes":[],"categories_segments":[],"categories_sizes":[],"default_left":[0,0,0,0,0,0,0,0,0,0,0,0,0,0,0,0,0,0,0,0,0,0,0,0,0,0,0,0,0,0,0],"id":39,"left_children":[1,3,5,7,9,11,13,15,17,19,21,23,25,27,29,-1,-1,-1,-1,-1,-1,-1,-1,-1,-1,-1,-1,-1,-1,-1,-1],"loss_changes":[2.3055908E3,9.3595605E2,7.133436E2,6.5177124E2,6.9942163E2,3.8770142E2,4.5019617E2,1.16298935E2,3.922798E2,2.9730014E2,2.6023624E2,2.4599963E2,8.250513E1,1.8679036E2,2.3071802E2,0E0,0E0,0E0,0E0,0E0,0E0,0E0,0E0,0E0,0E0,0E0,0E0,0E0,0E0,0E0,0E0],"parents":[2147483647,0,0,1,1,2,2,3,3,4,4,5,5,6,6,7,7,8,8,9,9,10,10,11,11,12,12,13,13,14,14],"right_children":[2,4,6,8,10,12,14,16,18,20,22,24,26,28,30,-1,-1,-1,-1,-1,-1,-1,-1,-1,-1,-1,-1,-1,-1,-1,-1],"split_conditions":[2.624881E1,3E0,1E0,2E0,8.485281E0,5.0606323E1,2E0,8E0,7.28011E0,4E0,2E0,2E0,6.664833E1,3E0,6.400781E1,-1.68124E-2,8.366145E-2,4.0748473E-2,1.6488243E-2,5.4994494E-2,1.0069831E-2,-5.0893445E-2,-9.080446E-3,-2.6406074E-2,-8.73134E-3,-2.9884273E-2,-4.9484227E-2,-3.1520333E-2,1.4779582E-2,-7.101635E-3,-4.244147E-2],"split_indices":[0,5,8,7,0,0,9,6,0,0,7,9,0,7,0,0,0,0,0,0,0,0,0,0,0,0,0,0,0,0,0],"split_type":[0,0,0,0,0,0,0,0,0,0,0,0,0,0,0,0,0,0,0,0,0,0,0,0,0,0,0,0,0,0,0],"sum_hessian":[5.3492355E4,2.9080074E4,2.441228E4,1.7837975E4,1.12421E4,1.2899298E4,1.1512982E4,1.5244462E3,1.6313528E4,4.0243237E3,7.2177754E3,9.224262E3,3.6750356E3,3.6858132E3,7.827169E3,1.4960573E3,2.8388908E1,1.8835947E3,1.4429934E4,4.0915802E2,3.6151658E3,3.9266013E2,6.825115E3,2.8481196E3,6.3761426E3,3.0187014E3,6.563341E2,2.3157089E2,3.4542422E3,7.3352207E3,4.9194833E2],"tree_param":{"num_deleted":"0","num_feature":"12","num_nodes":"31","size_leaf_vector":"1"}},{"base_weights":[2.0095622E-3,1.966803E-1,-1.9811781E-1,3.4749955E-1,-2.6522113E-2,-3.7401727E-1,-7.1793008E-3,-2.0836017E-1,4.0436634E-1,1.8775967E-1,-2.7031037E-1,-3.3887187E-1,-9.949891E-1,8.930846E-2,-2.8225562E-1,-6.2765824E-3,-8.2113706E-2,1.5407003E-2,3.4802E-2,1.3526009E-2,-2.1923779E-2,-5.80507E-2,-1.1452915E-2,-8.921496E-3,-2.581633E-2,-5.5361193E-2,-3.3350985E-2,1.1300957E-2,-1.1950946E-2,-1.1707647E-2,-5.564788E-2],"categories":[],"categories_nodes":[],"categories_segments":[],"categories_sizes":[],"default_left":[0,0,0,0,0,0,0,0,0,0,0,0,0,0,0,0,0,0,0,0,0,0,0,0,0,0,0,0,0,0,0],"id":40,"left_children":[1,3,5,7,9,11,13,15,17,19,21,23,25,27,29,-1,-1,-1,-1,-1,-1,-1,-1,-1,-1,-1,-1,-1,-1,-1,-1],"loss_changes":[2.0831821E3,9.124551E2,8.8552844E2,5.1138855E2,5.710643E2,2.991682E2,3.3560553E2,1.7817189E2,4.1165088E2,3.01651E2,1.8762924E2,3.6974573E2,2.6301514E1,4.202339E2,1.3094608E2,0E0,0E0,0E0,0E0,0E0,0E0,0E0,0E0,0E0,0E0,0E0,0E0,0E0,0E0,0E0,0E0],"parents":[2147483647,0,0,1,1,2,2,3,3,4,4,5,5,6,6,7,7,8,8,9,9,10,10,11,11,12,12,13,13,14,14],"right_children":[2,4,6,8,10,12,14,16,18,20,22,24,26,28,30,-1,-1,-1,-1,-1,-1,-1,-1,-1,-1,-1,-1,-1,-1,-1,-1],"split_conditions":[2.4186773E1,3E0,1E0,2E0,1.0440307E1,3E0,4.90306E1,7.747119E1,1E0,6.752057E1,2E0,3.992493E1,3.9446167E1,4.0601295E1,7.134424E1,-6.2765824E-3,-8.2113706E-2,1.5407003E-2,3.4802E-2,1.3526009E-2,-2.1923779E-2,-5.80507E-2,-1.1452915E-2,-8.921496E-3,-2.581633E-2,-5.5361193E-2,-3.3350985E-2,1.1300957E-2,-1.1950946E-2,-1.1707647E-2,-5.564788E-2],"split_indices":[0,5,8,7,0,5,0,1,3,1,7,0,0,1,0,0,0,0,0,0,0,0,0,0,0,0,0,0,0,0,0],"split_type":[0,0,0,0,0,0,0,0,0,0,0,0,0,0,0,0,0,0,0,0,0,0,0,0,0,0,0,0,0,0,0],"sum_hessian":[5.346922E4,2.7104127E4,2.6365094E4,1.6174417E4,1.0929709E4,1.3722485E4,1.2642608E4,1.500891E3,1.4673526E4,5.8169946E3,5.112715E3,1.2988894E4,7.335919E2,9.360075E3,3.2825327E3,1.4199563E3,8.0934715E1,1.1035014E4,3.638512E3,5.138483E3,6.7851135E2,2.2510767E2,4.887607E3,6.8224883E3,6.166405E3,5.4478467E2,1.8880725E2,6.608645E3,2.7514302E3,3.10407E3,1.7846263E2],"tree_param":{"num_deleted":"0","num_feature":"12","num_nodes":"31","size_leaf_vector":"1"}},{"base_weights":[1.5297862E-3,1.0777642E-1,-3.3352813E-1,-5.3024083E-2,2.7624676E-1,-4.9850005E-1,-1.4895664E-1,2.424778E-2,-4.3279415E-1,-2.0798096E-1,3.092378E-1,-9.0307206E-1,-4.265075E-1,-1.0512048E-1,-9.198227E-1,5.4504443E-3,-1.41649665E-2,3.3366952E-2,-2.4868127E-2,2.488862E-2,-2.0097451E-2,1.2337354E-2,3.0859722E-2,-4.6280134E-2,3.0128972E-3,-1.2892946E-2,-3.1298745E-2,-3.7182588E-3,-5.423087E-2,-5.0839078E-2,7.137506E-3],"categories":[],"categories_nodes":[],"categories_segments":[],"categories_sizes":[],"default_left":[0,0,0,0,0,0,0,0,0,0,0,0,0,0,0,0,0,0,0,0,0,0,0,0,0,0,0,0,0,0,0],"id":41,"left_children":[1,3,5,7,9,11,13,15,17,19,21,23,25,27,29,-1,-1,-1,-1,-1,-1,-1,-1,-1,-1,-1,-1,-1,-1,-1,-1],"loss_changes":[1.8975718E3,1.0963801E3,3.9068958E2,6.076897E2,3.158031E2,1.969751E2,2.0462437E2,4.4859973E2,2.4902814E2,1.7286055E2,3.5594775E2,2.2253662E1,1.9341284E2,1.7263818E2,3.371573E1,0E0,0E0,0E0,0E0,0E0,0E0,0E0,0E0,0E0,0E0,0E0,0E0,0E0,0E0,0E0,0E0],"parents":[2147483647,0,0,1,1,2,2,3,3,4,4,5,5,6,6,7,7,8,8,9,9,10,10,11,11,12,12,13,13,14,14],"right_children":[2,4,6,8,10,12,14,16,18,20,22,24,26,28,30,-1,-1,-1,-1,-1,-1,-1,-1,-1,-1,-1,-1,-1,-1,-1,-1],"split_conditions":[3.8483765E1,1E0,1E0,5.7264774E1,2E0,4E0,5.0194427E1,4E0,4.472136E0,6.3245554E0,1E0,3E0,5.2773098E1,7.134424E1,7.055997E1,5.4504443E-3,-1.41649665E-2,3.3366952E-2,-2.4868127E-2,2.488862E-2,-2.0097451E-2,1.2337354E-2,3.0859722E-2,-4.6280134E-2,3.0128972E-3,-1.2892946E-2,-3.1298745E-2,-3.7182588E-3,-5.423087E-2,-5.0839078E-2,7.137506E-3],"split_indices":[0,8,8,1,7,7,1,5,0,0,3,5,0,0,1,0,0,0,0,0,0,0,0,0,0,0,0,0,0,0,0],"split_type":[0,0,0,0,0,0,0,0,0,0,0,0,0,0,0,0,0,0,0,0,0,0,0,0,0,0,0,0,0,0,0],"sum_hessian":[5.33024E4,4.047005E4,1.2832347E4,2.0706719E4,1.9763332E4,6.7750425E3,6.057304E3,1.7206621E4,3.5000972E3,1.2602749E3,1.8503057E4,1.0217325E3,5.75331E3,5.7324575E3,3.2484628E2,1.348951E4,3.7171123E3,1.9351973E2,3.3065774E3,2.71361E2,9.8891394E2,1.5383275E4,3.1197817E3,9.984203E2,2.3312197E1,3.118732E3,2.6345781E3,5.5589863E3,1.7347116E2,2.9772244E2,2.7123838E1],"tree_param":{"num_deleted":"0","num_feature":"12","num_nodes":"31","size_leaf_vector":"1"}},{"base_weights":[6.7135347E-3,9.753834E-2,-3.654741E-1,1.8834041E-1,-1.4316194E-1,-5.185878E-1,-1.9338766E-1,2.595827E-1,-8.917242E-2,9.841056E-3,-4.0013912E-1,-3.847077E-1,-7.835323E-1,-8.60853E-1,-1.3879359E-1,2.0524686E-2,5.0366297E-3,1.0466771E-2,-1.5175061E-2,4.484126E-3,-2.829699E-2,-3.3870842E-3,-2.6770134E-2,-1.5477905E-2,-5.3016454E-2,-3.528451E-2,-4.9487107E-2,1.4869596E-2,-4.576811E-2,-5.1474795E-3,-5.6965884E-2],"categories":[],"categories_nodes":[],"categories_segments":[],"categories_sizes":[],"default_left":[0,0,0,0,0,0,0,0,0,0,0,0,0,0,0,0,0,0,0,0,0,0,0,0,0,0,0,0,0,0,0],"id":42,"left_children":[1,3,5,7,9,11,13,15,17,19,21,23,25,27,29,-1,-1,-1,-1,-1,-1,-1,-1,-1,-1,-1,-1,-1,-1,-1,-1],"loss_changes":[1.7979221E3,9.344544E2,2.7480127E2,6.1377124E2,4.604703E2,1.9550928E2,1.78939E2,5.921262E2,4.058277E2,3.3755444E2,1.9647217E2,1.8596674E2,2.9031738E1,2.3716553E1,1.6282527E2,0E0,0E0,0E0,0E0,0E0,0E0,0E0,0E0,0E0,0E0,0E0,0E0,0E0,0E0,0E0,0E0],"parents":[2147483647,0,0,1,1,2,2,3,3,4,4,5,5,6,6,7,7,8,8,9,9,10,10,11,11,12,12,13,13,14,14],"right_children":[2,4,6,8,10,12,14,16,18,20,22,24,26,28,30,-1,-1,-1,-1,-1,-1,-1,-1,-1,-1,-1,-1,-1,-1,-1,-1],"split_conditions":[4.1785164E1,4.6080925E1,1E0,4E0,2.2090721E1,3.1865978E1,3E0,2.3194826E1,1.0198039E1,7.938035E1,5.134019E1,6.774216E1,4.574406E1,2.0454085E0,5.0792797E1,2.0524686E-2,5.0366297E-3,1.0466771E-2,-1.5175061E-2,4.484126E-3,-2.829699E-2,-3.3870842E-3,-2.6770134E-2,-1.5477905E-2,-5.3016454E-2,-3.528451E-2,-4.9487107E-2,1.4869596E-2,-4.576811E-2,-5.1474795E-3,-5.6965884E-2],"split_indices":[0,1,8,5,0,1,7,0,0,1,1,0,1,1,1,0,0,0,0,0,0,0,0,0,0,0,0,0,0,0,0],"split_type":[0,0,0,0,0,0,0,0,0,0,0,0,0,0,0,0,0,0,0,0,0,0,0,0,0,0,0,0,0,0,0],"sum_hessian":[5.318482E4,4.275265E4,1.0432173E4,3.1042393E4,1.1710254E4,5.519337E3,4.912836E3,2.4701229E4,6.3411636E3,7.340636E3,4.369618E3,3.6681982E3,1.851139E3,3.7033713E2,4.542499E3,1.2666346E4,1.2034884E4,2.6501597E3,3.691004E3,6.4474375E3,8.931987E2,1.2642767E3,3.1053413E3,3.3023364E3,3.658618E2,1.3470596E3,5.0407938E2,1.64451E1,3.5389203E2,4.386456E3,1.5604291E2],"tree_param":{"num_deleted":"0","num_feature":"12","num_nodes":"31","size_leaf_vector":"1"}},{"base_weights":[-5.1817955E-3,1.3268714E-1,-2.1242458E-1,-2.8471049E-2,3.007028E-1,-3.5924676E-1,-5.3556494E-2,3.0307854E-2,-4.6633327E-1,3.4267196E-1,-1.4737737E-1,-1.9855553E-1,-4.9027056E-1,9.373612E-2,-2.2422653E-1,5.099849E-2,1.8188615E-4,-1.7673811E-2,-5.09649E-2,3.1160265E-2,1.4233909E-2,3.1090096E-2,-1.501012E-2,2.8236576E-3,-1.790027E-2,-1.8308276E-2,-3.6401484E-2,1.1313259E-2,-7.165454E-3,-8.066689E-3,-2.4844408E-2],"categories":[],"categories_nodes":[],"categories_segments":[],"categories_sizes":[],"default_left":[0,0,0,0,0,0,0,0,0,0,0,0,0,0,0,0,0,0,0,0,0,0,0,0,0,0,0,0,0,0,0],"id":43,"left_children":[1,3,5,7,9,11,13,15,17,19,21,23,25,27,29,-1,-1,-1,-1,-1,-1,-1,-1,-1,-1,-1,-1,-1,-1,-1,-1],"loss_changes":[1.5047185E3,8.563199E2,4.907127E2,4.15482E2,2.9121912E2,2.3010327E2,2.5406844E2,3.7567273E2,1.18872925E2,2.3015247E2,1.5614206E2,1.9978416E2,1.774281E2,1.7046649E2,8.020462E1,0E0,0E0,0E0,0E0,0E0,0E0,0E0,0E0,0E0,0E0,0E0,0E0,0E0,0E0,0E0,0E0],"parents":[2147483647,0,0,1,1,2,2,3,3,4,4,5,5,6,6,7,7,8,8,9,9,10,10,11,11,12,12,13,13,14,14],"right_children":[2,4,6,8,10,12,14,16,18,20,22,24,26,28,30,-1,-1,-1,-1,-1,-1,-1,-1,-1,-1,-1,-1,-1,-1,-1,-1],"split_conditions":[2.915476E1,1E0,1E0,6.543283E1,6.896249E1,3.992493E1,2.974488E1,4.472136E0,2.2090721E1,7.81025E0,5.3851647E0,2.5796026E1,3.1865978E1,5.0606323E1,5.134019E1,5.099849E-2,1.8188615E-4,-1.7673811E-2,-5.09649E-2,3.1160265E-2,1.4233909E-2,3.1090096E-2,-1.501012E-2,2.8236576E-3,-1.790027E-2,-1.8308276E-2,-3.6401484E-2,1.1313259E-2,-7.165454E-3,-8.066689E-3,-2.4844408E-2],"split_indices":[0,8,8,1,1,0,1,0,0,0,0,1,1,0,1,0,0,0,0,0,0,0,0,0,0,0,0,0,0,0,0],"split_type":[0,0,0,0,0,0,0,0,0,0,0,0,0,0,0,0,0,0,0,0,0,0,0,0,0,0,0,0,0,0,0],"sum_hessian":[5.266148E4,3.1623922E4,2.1037557E4,1.6141786E4,1.5482136E4,1.0932622E4,1.0104936E4,1.4232181E4,1.9096061E3,1.4156419E4,1.325717E3,4.9115166E3,6.0211055E3,5.42418E3,4.6807554E3,3.7249713E2,1.3859683E4,1.5872885E3,3.223176E2,2.4234963E3,1.1732923E4,2.1923299E2,1.106484E3,1.8897083E3,3.021808E3,3.9577744E3,2.063331E3,3.4791023E3,1.9450776E3,3.8047378E3,8.760178E2],"tree_param":{"num_deleted":"0","num_feature":"12","num_nodes":"31","size_leaf_vector":"1"}},{"base_weights":[1.2037937E-2,1.8761401E-1,-1.4407618E-1,2.2878855E-1,-3.4809905E-1,-2.942908E-1,1.5940072E-2,9.953266E-1,1.9785106E-1,2.543218E-1,-4.1190803E-1,-5.538886E-1,-1.7723192E-1,2.5724486E-1,-9.483395E-2,5.304579E-2,4.2046208E-2,-3.3181284E-3,1.4079674E-2,-2.1306679E-2,2.3344588E-2,-2.639388E-2,-1.1765646E-3,-1.9082492E-2,-3.371917E-2,-4.611788E-3,-2.3452288E-2,1.4227064E-2,-4.662348E-2,3.2600313E-3,-1.324072E-2],"categories":[],"categories_nodes":[],"categories_segments":[],"categories_sizes":[],"default_left":[0,0,0,0,0,0,0,0,0,0,0,0,0,0,0,0,0,0,0,0,0,0,0,0,0,0,0,0,0,0,0],"id":44,"left_children":[1,3,5,7,9,11,13,15,17,19,21,23,25,27,29,-1,-1,-1,-1,-1,-1,-1,-1,-1,-1,-1,-1,-1,-1,-1,-1],"loss_changes":[1.4439219E3,5.4697754E2,6.702687E2,5.45833E2,6.8144394E1,4.3697644E2,3.609612E2,8.151184E0,4.8972888E2,2.4809452E1,7.2091125E1,9.2503174E1,2.4586615E2,1.3824054E2,2.5178522E2,0E0,0E0,0E0,0E0,0E0,0E0,0E0,0E0,0E0,0E0,0E0,0E0,0E0,0E0,0E0,0E0],"parents":[2147483647,0,0,1,1,2,2,3,3,4,4,5,5,6,6,7,7,8,8,9,9,10,10,11,11,12,12,13,13,14,14],"right_children":[2,4,6,8,10,12,14,16,18,20,22,24,26,28,30,-1,-1,-1,-1,-1,-1,-1,-1,-1,-1,-1,-1,-1,-1,-1,-1],"split_conditions":[2.2090721E1,7.289727E1,1E0,4.472136E0,4.472136E0,2E0,2E0,4E0,0E0,0E0,2E0,3.383785E1,5.0606323E1,6.774216E1,2.974488E1,5.304579E-2,4.2046208E-2,-3.3181284E-3,1.4079674E-2,-2.1306679E-2,2.3344588E-2,-2.639388E-2,-1.1765646E-3,-1.9082492E-2,-3.371917E-2,-4.611788E-3,-2.3452288E-2,1.4227064E-2,-4.662348E-2,3.2600313E-3,-1.324072E-2],"split_indices":[0,1,8,0,0,9,9,6,8,8,8,0,0,0,1,0,0,0,0,0,0,0,0,0,0,0,0,0,0,0,0],"split_type":[0,0,0,0,0,0,0,0,0,0,0,0,0,0,0,0,0,0,0,0,0,0,0,0,0,0,0,0,0,0,0],"sum_hessian":[5.267685E4,2.479292E4,2.7883932E4,2.3023893E4,1.7690278E3,1.4382024E4,1.3501908E4,8.91986E2,2.2131906E4,1.6914487E2,1.5998829E3,4.4685435E3,9.91348E3,4.2476685E3,9.254239E3,6.219251E2,2.7006094E2,5.326525E3,1.6805383E4,4.0022995E1,1.2912187E2,1.2317289E3,3.6815408E2,1.8410535E3,2.6274897E3,7.678339E3,2.235142E3,4.153141E3,9.452746E1,4.7668877E3,4.4873516E3],"tree_param":{"num_deleted":"0","num_feature":"12","num_nodes":"31","size_leaf_vector":"1"}},{"base_weights":[3.3318116E-3,-1.4302759E-1,1.5807523E-1,-3.8542232E-1,-3.6018442E-2,3.7886712E-1,5.767567E-2,-2.8742936E-1,-5.498912E-1,-6.8927884E-1,4.4765216E-3,4.8673806E-1,2.7268875E-1,-1.03623E-1,1.7730148E-1,-4.4284146E-3,-2.0177266E-2,-2.8451988E-2,6.0497683E-2,-3.7083983E-2,7.758715E-2,-6.510901E-3,9.489616E-3,5.6664026E-3,2.6031768E-2,3.076489E-3,1.6807722E-2,-3.2829374E-2,-3.482962E-3,1.5343172E-2,2.2892195E-3],"categories":[],"categories_nodes":[],"categories_segments":[],"categories_sizes":[],"default_left":[0,0,0,0,0,0,0,0,0,0,0,0,0,0,0,0,0,0,0,0,0,0,0,0,0,0,0,0,0,0,0],"id":45,"left_children":[1,3,5,7,9,11,13,15,17,19,21,23,25,27,29,-1,-1,-1,-1,-1,-1,-1,-1,-1,-1,-1,-1,-1,-1,-1,-1],"loss_changes":[1.1854796E3,6.9774097E2,5.639817E2,1.3261963E2,4.937078E2,9.0956055E1,3.3751627E2,1.1922073E2,1.043056E2,1.290777E2,4.3870374E2,4.985913E1,5.3720886E1,1.398487E2,1.7111832E2,0E0,0E0,0E0,0E0,0E0,0E0,0E0,0E0,0E0,0E0,0E0,0E0,0E0,0E0,0E0,0E0],"parents":[2147483647,0,0,1,1,2,2,3,3,4,4,5,5,6,6,7,7,8,8,9,9,10,10,11,11,12,12,13,13,14,14],"right_children":[2,4,6,8,10,12,14,16,18,20,22,24,26,28,30,-1,-1,-1,-1,-1,-1,-1,-1,-1,-1,-1,-1,-1,-1,-1,-1],"split_conditions":[1E0,2E0,2E0,6E0,2E0,5E0,2E0,5E0,8E1,8E0,0E0,2E0,6E0,2E0,3E0,-4.4284146E-3,-2.0177266E-2,-2.8451988E-2,6.0497683E-2,-3.7083983E-2,7.758715E-2,-6.510901E-3,9.489616E-3,5.6664026E-3,2.6031768E-2,3.076489E-3,1.6807722E-2,-3.2829374E-2,-3.482962E-3,1.5343172E-2,2.2892195E-3],"split_indices":[8,9,9,6,7,6,8,7,7,