{"learner":{"attributes":{"scikit_learn":"{\"_estimator_type\": \"classifier\"}"},"feature_names":["distance","angle","is_behind_net","is_rush","is_rebound","pre_shot_lateral_movement","pre_shot_north_south_movement","pre_shot_distance","pre_shot_speed","rebound_angle_change","shot_type_encoded","prior_event_encoded","seconds_since_prior","score_state","period_cat","is_home","game_strength_encoded","is_empty_net"],"feature_types":["float","float","float","float","float","float","float","float","float","float","float","float","float","float","float","float","float","float"],"gradient_booster":{"model":{"cats":{"enc":[],"feature_segments":[],"sorted_idx":[]},"gbtree_model_param":{"num_parallel_tree":"1","num_trees":"300"},"iteration_indptr":[0,1,2,3,4,5,6,7,8,9,10,11,12,13,14,15,16,17,18,19,20,21,22,23,24,25,26,27,28,29,30,31,32,33,34,35,36,37,38,39,40,41,42,43,44,45,46,47,48,49,50,51,52,53,54,55,56,57,58,59,60,61,62,63,64,65,66,67,68,69,70,71,72,73,74,75,76,77,78,79,80,81,82,83,84,85,86,87,88,89,90,91,92,93,94,95,96,97,98,99,100,101,102,103,104,105,106,107,108,109,110,111,112,113,114,115,116,117,118,119,120,121,122,123,124,125,126,127,128,129,130,131,132,133,134,135,136,137,138,139,140,141,142,143,144,145,146,147,148,149,150,151,152,153,154,155,156,157,158,159,160,161,162,163,164,165,166,167,168,169,170,171,172,173,174,175,176,177,178,179,180,181,182,183,184,185,186,187,188,189,190,191,192,193,194,195,196,197,198,199,200,201,202,203,204,205,206,207,208,209,210,211,212,213,214,215,216,217,218,219,220,221,222,223,224,225,226,227,228,229,230,231,232,233,234,235,236,237,238,239,240,241,242,243,244,245,246,247,248,249,250,251,252,253,254,255,256,257,258,259,260,261,262,263,264,265,266,267,268,269,270,271,272,273,274,275,276,277,278,279,280,281,282,283,284,285,286,287,288,289,290,291,292,293,294,295,296,297,298,299,300],"tree_info":[0,0,0,0,0,0,0,0,0,0,0,0,0,0,0,0,0,0,0,0,0,0,0,0,0,0,0,0,0,0,0,0,0,0,0,0,0,0,0,0,0,0,0,0,0,0,0,0,0,0,0,0,0,0,0,0,0,0,0,0,0,0,0,0,0,0,0,0,0,0,0,0,0,0,0,0,0,0,0,0,0,0,0,0,0,0,0,0,0,0,0,0,0,0,0,0,0,0,0,0,0,0,0,0,0,0,0,0,0,0,0,0,0,0,0,0,0,0,0,0,0,0,0,0,0,0,0,0,0,0,0,0,0,0,0,0,0,0,0,0,0,0,0,0,0,0,0,0,0,0,0,0,0,0,0,0,0,0,0,0,0,0,0,0,0,0,0,0,0,0,0,0,0,0,0,0,0,0,0,0,0,0,0,0,0,0,0,0,0,0,0,0,0,0,0,0,0,0,0,0,0,0,0,0,0,0,0,0,0,0,0,0,0,0,0,0,0,0,0,0,0,0,0,0,0,0,0,0,0,0,0,0,0,0,0,0,0,0,0,0,0,0,0,0,0,0,0,0,0,0,0,0,0,0,0,0,0,0,0,0,0,0,0,0,0,0,0,0,0,0,0,0,0,0,0,0,0,0,0,0,0,0,0,0,0,0,0,0,0,0,0,0,0,0,0,0,0,0,0,0],"trees":[{"base_weights":[-1.1725371E-3,6.9256186E-1,-6.5186566E-1,1.0760847E0,-6.481834E-3,-3.4374073E-1,-7.9582804E-1,-3.1459543E-1,1.2503797E0,2.1354137E-1,-5.9694935E-2,-7.639179E-3,-6.6852534E-1,-6.5276396E-1,-8.6588925E-1,9.2006326E-2,-2.1312896E-2,5.1945955E-2,1.328667E-1,1.0565939E-2,-2.2172144E-2,-4.311356E-2,2.8290176E-3,-2.5573073E-2,-4.244638E-2,-2.0104518E-2,-3.7367042E-2,-4.155364E-2,-4.9667057E-2],"categories":[],"categories_nodes":[],"categories_segments":[],"categories_sizes":[],"default_left":[0,0,0,0,0,0,0,0,0,0,0,0,0,0,0,0,0,0,0,0,0,0,0,0,0,0,0,0,0],"id":0,"left_children":[1,3,5,7,9,11,13,15,17,-1,19,21,23,25,27,-1,-1,-1,-1,-1,-1,-1,-1,-1,-1,-1,-1,-1,-1],"loss_changes":[3.5709856E3,1.0264934E3,1.8079797E2,5.9966064E2,3.0921448E2,1.4208202E2,2.7313477E1,6.722635E1,6.509375E2,0E0,1.3963391E2,3.5212124E1,1.832196E1,2.1472687E1,7.4456787E0,0E0,0E0,0E0,0E0,0E0,0E0,0E0,0E0,0E0,0E0,0E0,0E0,0E0,0E0],"parents":[2147483647,0,0,1,1,2,2,3,3,4,4,5,5,6,6,7,7,8,8,10,10,11,11,12,12,13,13,14,14],"right_children":[2,4,6,8,10,12,14,16,18,-1,20,22,24,26,28,-1,-1,-1,-1,-1,-1,-1,-1,-1,-1,-1,-1,-1,-1],"split_conditions":[3.237964E1,4.729061E1,4.2015366E1,2E0,4E0,3.565622E1,2.1765543E1,5.035506E0,1E0,2.1354137E-1,1.9614862E1,2E0,5.092646E1,5.047938E1,1.4240006E1,9.2006326E-2,-2.1312896E-2,5.1945955E-2,1.328667E-1,1.0565939E-2,-2.2172144E-2,-4.311356E-2,2.8290176E-3,-2.5573073E-2,-4.244638E-2,-2.0104518E-2,-3.7367042E-2,-4.155364E-2,-4.9667057E-2],"split_indices":[0,1,0,12,0,1,1,0,3,0,0,12,1,0,8,0,0,0,0,0,0,0,0,0,0,0,0,0,0],"split_type":[0,0,0,0,0,0,0,0,0,0,0,0,0,0,0,0,0,0,0,0,0,0,0,0,0,0,0,0,0],"sum_hessian":[7.9087676E3,3.827755E3,4.081013E3,2.4713406E3,1.3564142E3,1.3006338E3,2.7803792E3,2.7514938E2,2.1961912E3,1.5693579E1,1.3407207E3,6.396839E2,6.609499E2,9.17392E2,1.862987E3,1.2793678E1,2.623557E2,1.9107501E3,2.854412E2,7.860436E2,5.5467706E2,4.3839672E1,5.9584424E2,3.5537994E2,3.0556992E2,2.5274623E2,6.646458E2,1.4691692E3,3.9381784E2],"tree_param":{"num_deleted":"0","num_feature":"18","num_nodes":"29","size_leaf_vector":"1"}},{"base_weights":[3.6020833E-3,6.836765E-1,-6.0333467E-1,-4.1523206E-1,8.241219E-1,-2.7918863E-1,-7.8336763E-1,9.168276E-1,-5.067709E-1,6.369806E-1,1.9067378E0,-6.514262E-2,-3.9263898E-1,-7.275356E-1,-9.40779E-1,7.20154E-2,1.3163376E-2,2.913759E-2,-2.9179547E-2,4.933359E-2,1.863985E-2,1.4589337E-1,6.2256634E-2,-6.722282E-4,-3.793736E-2,-1.6885212E-2,-3.9306864E-2,-3.3908054E-2,-4.5651626E-2,-4.3563616E-2,-4.9270216E-2],"categories":[],"categories_nodes":[],"categories_segments":[],"categories_sizes":[],"default_left":[0,0,0,0,0,0,0,0,0,0,0,0,0,0,0,0,0,0,0,0,0,0,0,0,0,0,0,0,0,0,0],"id":1,"left_children":[1,3,5,7,9,11,13,15,17,19,21,23,25,27,29,-1,-1,-1,-1,-1,-1,-1,-1,-1,-1,-1,-1,-1,-1,-1,-1],"loss_changes":[3.2810198E3,5.788895E2,2.448999E2,5.2343483E1,6.722639E2,3.6434135E1,2.304419E1,9.102369E0,3.371422E1,2.6160376E2,3.237749E2,1.8683092E1,2.0942688E1,1.7674805E1,1.3234253E0,0E0,0E0,0E0,0E0,0E0,0E0,0E0,0E0,0E0,0E0,0E0,0E0,0E0,0E0,0E0,0E0],"parents":[2147483647,0,0,1,1,2,2,3,3,4,4,5,5,6,6,7,7,8,8,9,9,10,10,11,11,12,12,13,13,14,14],"right_children":[2,4,6,8,10,12,14,16,18,20,22,24,26,28,30,-1,-1,-1,-1,-1,-1,-1,-1,-1,-1,-1,-1,-1,-1,-1,-1],"split_conditions":[3.0811943E1,2E0,4.2015366E1,5.035506E0,1E0,3.4669872E1,1.1801695E1,9.088876E0,1E0,1.5499997E1,1.0392041E1,3E0,1.7492855E1,6.3840973E1,1.6507574E1,7.20154E-2,1.3163376E-2,2.913759E-2,-2.9179547E-2,4.933359E-2,1.863985E-2,1.4589337E-1,6.2256634E-2,-6.722282E-4,-3.793736E-2,-1.6885212E-2,-3.9306864E-2,-3.3908054E-2,-4.5651626E-2,-4.3563616E-2,-4.9270216E-2],"split_indices":[0,12,0,0,3,0,8,8,6,0,0,10,8,0,8,0,0,0,0,0,0,0,0,0,0,0,0,0,0,0,0],"split_type":[0,0,0,0,0,0,0,0,0,0,0,0,0,0,0,0,0,0,0,0,0,0,0,0,0,0,0,0,0,0,0],"sum_hessian":[7.946936E3,3.747606E3,4.19933E3,4.244625E2,3.3231436E3,1.5004136E3,2.6989163E3,2.6713661E1,3.9774884E2,2.8347212E3,4.8842233E2,5.203143E2,9.8009937E2,1.9964274E3,7.024889E2,1.416454E1,1.254912E1,2.5763554E1,3.719853E2,1.2187573E3,1.6159639E3,1.9183348E2,2.9658887E2,4.8517123E2,3.5143017E1,8.6166406E2,1.184353E2,1.5804169E3,4.160104E2,2.8269644E2,4.1979248E2],"tree_param":{"num_deleted":"0","num_feature":"18","num_nodes":"31","size_leaf_vector":"1"}},{"base_weights":[-1.0628832E-3,3.3360425E-1,-1.8678549E-1,1.3973237E0,2.5302023E-1,-4.486213E-2,-3.929691E-1,8.722567E-2,2.0447743E0,1.4621267E-1,1.0471863E0,3.326615E-1,-2.0720702E-1,-7.2853214E-1,-3.2894817E-1,4.2491283E-2,-3.4935286E-3,1.6044275E-1,4.6520624E-2,2.12172E-2,-3.9614164E-3,5.524102E-2,-9.290833E-3,-1.983711E-2,2.64408E-2,-8.333354E-3,-3.4495216E-2,-2.7421358E-4,-3.814518E-2,-1.7976997E-2,1.1759541E-2],"categories":[],"categories_nodes":[],"categories_segments":[],"categories_sizes":[],"default_left":[0,0,0,0,0,0,0,0,0,0,0,0,0,0,0,0,0,0,0,0,0,0,0,0,0,0,0,0,0,0,0],"id":2,"left_children":[1,3,5,7,9,11,13,15,17,19,21,23,25,27,29,-1,-1,-1,-1,-1,-1,-1,-1,-1,-1,-1,-1,-1,-1,-1,-1],"loss_changes":[4.9384412E2,2.4271246E2,1.4950404E2,1.6901581E2,2.2353795E2,1.8562802E2,4.451172E1,8.088236E0,1.7012769E2,1.4585942E2,2.2409851E1,1.3052625E2,4.132695E1,8.269836E0,3.030635E1,0E0,0E0,0E0,0E0,0E0,0E0,0E0,0E0,0E0,0E0,0E0,0E0,0E0,0E0,0E0,0E0],"parents":[2147483647,0,0,1,1,2,2,3,3,4,4,5,5,6,6,7,7,8,8,9,9,10,10,11,11,12,12,13,13,14,14],"right_children":[2,4,6,8,10,12,14,16,18,20,22,24,26,28,30,-1,-1,-1,-1,-1,-1,-1,-1,-1,-1,-1,-1,-1,-1,-1,-1],"split_conditions":[2.5024927E1,1.1313708E1,6E0,2E0,1.3017033E2,2.8951757E1,4E0,1E0,5E0,5E0,2.6816248E1,2E0,2.879236E1,2E0,1.61E2,4.2491283E-2,-3.4935286E-3,1.6044275E-1,4.6520624E-2,2.12172E-2,-3.9614164E-3,5.524102E-2,-9.290833E-3,-1.983711E-2,2.64408E-2,-8.333354E-3,-3.4495216E-2,-2.7421358E-4,-3.814518E-2,-1.7976997E-2,1.1759541E-2],"split_indices":[1,7,11,12,7,7,12,6,12,11,8,12,8,6,6,0,0,0,0,0,0,0,0,0,0,0,0,0,0,0,0],"split_type":[0,0,0,0,0,0,0,0,0,0,0,0,0,0,0,0,0,0,0,0,0,0,0,0,0,0,0,0,0,0,0],"sum_hessian":[7.943329E3,2.8346213E3,5.108708E3,1.9846873E2,2.6361526E3,3.026607E3,2.082101E3,6.6017975E1,1.3245076E2,2.324689E3,3.1146378E2,9.0982117E2,2.1167856E3,3.319291E2,1.750172E3,1.0523526E1,5.549445E1,6.3860985E1,6.858978E1,1.0403298E3,1.2843591E3,2.9765454E2,1.3809262E1,1.9260258E2,7.172186E2,1.9540201E3,1.6276552E2,1.5115436E1,3.1681366E2,1.6604906E3,8.968141E1],"tree_param":{"num_deleted":"0","num_feature":"18","num_nodes":"31","size_leaf_vector":"1"}},{"base_weights":[-3.4537797E-3,6.0672915E-1,-5.920248E-1,3.9866683E0,5.712427E-1,-2.8661E-1,-7.692925E-1,2.25631E-1,1.456101E-1,8.053118E-1,2.0100224E-1,-7.988495E-2,-3.8938308E-1,-7.224323E-1,-9.5178074E-1,6.0984828E-2,2.3832323E-2,2.288123E-2,-1.6811626E-2,-1.4440964E-3,-3.9429322E-2,-1.6852997E-2,-3.6748447E-2,-3.3785265E-2,-4.4848006E-2,-4.3953776E-2,-4.9188193E-2],"categories":[],"categories_nodes":[],"categories_segments":[],"categories_sizes":[],"default_left":[0,0,0,0,0,0,0,0,0,0,0,0,0,0,0,0,0,0,0,0,0,0,0,0,0,0,0],"id":3,"left_children":[1,3,5,7,9,11,13,-1,-1,15,17,19,21,23,25,-1,-1,-1,-1,-1,-1,-1,-1,-1,-1,-1,-1],"loss_changes":[2.8462615E3,4.6444287E2,2.1818567E2,9.611572E0,3.3365527E2,3.1479233E1,2.1135376E1,0E0,0E0,3.207859E2,2.060327E2,1.7824383E1,1.7660477E1,1.5987061E1,3.4033203E-1,0E0,0E0,0E0,0E0,0E0,0E0,0E0,0E0,0E0,0E0,0E0,0E0],"parents":[2147483647,0,0,1,1,2,2,3,3,4,4,5,5,6,6,9,9,10,10,11,11,12,12,13,13,14,14],"right_children":[2,4,6,8,10,12,14,-1,-1,16,18,20,22,24,26,-1,-1,-1,-1,-1,-1,-1,-1,-1,-1,-1,-1],"split_conditions":[3.102812E1,4E0,4.226526E1,1.6958998E1,3E0,3.4669872E1,1.3875563E1,2.25631E-1,1.456101E-1,1.7810753E1,1.5499997E1,3E0,1.7E1,6.3840973E1,4E0,6.0984828E-2,2.3832323E-2,2.288123E-2,-1.6811626E-2,-1.4440964E-3,-3.9429322E-2,-1.6852997E-2,-3.6748447E-2,-3.3785265E-2,-4.4848006E-2,-4.3953776E-2,-4.9188193E-2],"split_indices":[0,0,0,5,10,0,8,0,0,0,0,10,8,0,11,0,0,0,0,0,0,0,0,0,0,0,0],"split_type":[0,0,0,0,0,0,0,0,0,0,0,0,0,0,0,0,0,0,0,0,0,0,0,0,0,0,0],"sum_hessian":[7.9233022E3,3.890213E3,4.0330896E3,3.926267E1,3.8509502E3,1.4821344E3,2.5509553E3,2.4211336E1,1.5051331E1,2.3586296E3,1.4923206E3,4.927531E2,9.893813E2,2.0336935E3,5.172617E2,1.0420681E3,1.3165614E3,1.01001306E3,4.823075E2,4.6064285E2,3.2110264E1,8.60998E2,1.2838336E2,1.6080385E3,4.2565506E2,1.6672992E2,3.505318E2],"tree_param":{"num_deleted":"0","num_feature":"18","num_nodes":"27","size_leaf_vector":"1"}},{"base_weights":[8.694094E-3,5.5865425E-1,-6.095611E-1,8.576386E-1,-1.2211811E-1,-3.2063925E-1,-7.4706507E-1,1.1577947E0,4.122854E-1,2.4604192E0,-1.6859561E-1,-5.236022E-3,-6.3478655E-1,-6.4872664E-1,-8.555943E-1,7.8221545E-2,2.9627195E-2,6.6487454E-2,8.117393E-3,1.555508E-1,7.526743E-2,6.153622E-3,-2.1495502E-2,8.9171E-3,-9.731772E-3,-2.2880234E-2,-4.2013947E-2,-1.976425E-2,-3.688168E-2,-4.0826567E-2,-4.888011E-2],"categories":[],"categories_nodes":[],"categories_segments":[],"categories_sizes":[],"default_left":[0,0,0,0,0,0,0,0,0,0,0,0,0,0,0,0,0,0,0,0,0,0,0,0,0,0,0,0,0,0,0],"id":4,"left_children":[1,3,5,7,9,11,13,15,17,19,21,23,25,27,29,-1,-1,-1,-1,-1,-1,-1,-1,-1,-1,-1,-1,-1,-1,-1,-1],"loss_changes":[2.6998135E3,8.554258E2,1.482649E2,3.8985327E2,1.5444102E2,1.1960072E2,2.6467163E1,3.9988623E2,2.6972504E2,9.452896E0,9.619939E1,2.101323E1,2.1634155E1,2.9732544E1,4.9231567E0,0E0,0E0,0E0,0E0,0E0,0E0,0E0,0E0,0E0,0E0,0E0,0E0,0E0,0E0,0E0,0E0],"parents":[2147483647,0,0,1,1,2,2,3,3,4,4,5,5,6,6,7,7,8,8,9,9,10,10,11,11,12,12,13,13,14,14],"right_children":[2,4,6,8,10,12,14,16,18,20,22,24,26,28,30,-1,-1,-1,-1,-1,-1,-1,-1,-1,-1,-1,-1,-1,-1,-1,-1],"split_conditions":[3.237964E1,5.057629E1,4.179209E1,3E0,4E0,3.565622E1,2.9688698E1,2.3345236E1,8.341903E0,4E0,6.465415E1,3.7148876E1,5.092646E1,5.047938E1,1.3367966E1,7.8221545E-2,2.9627195E-2,6.6487454E-2,8.117393E-3,1.555508E-1,7.526743E-2,6.153622E-3,-2.1495502E-2,8.9171E-3,-9.731772E-3,-2.2880234E-2,-4.2013947E-2,-1.976425E-2,-3.688168E-2,-4.0826567E-2,-4.888011E-2],"split_indices":[0,1,0,10,0,1,1,0,0,10,1,0,1,0,8,0,0,0,0,0,0,0,0,0,0,0,0,0,0,0,0],"split_type":[0,0,0,0,0,0,0,0,0,0,0,0,0,0,0,0,0,0,0,0,0,0,0,0,0,0,0,0,0,0,0],"sum_hessian":[7.938259E3,4.2012197E3,3.7370393E3,2.9189873E3,1.2822323E3,1.2061089E3,2.5309304E3,1.7427922E3,1.1761951E3,2.1749977E1,1.2604823E3,6.0235864E2,6.0375024E2,1.3314655E3,1.199465E3,1.0125824E3,7.3020984E2,2.5089531E2,9.2529974E2,1.1594443E1,1.0155533E1,5.958967E2,6.645856E2,3.0590976E2,2.964489E2,3.2594092E2,2.7780936E2,3.4719202E2,9.8427344E2,9.143974E2,2.8506754E2],"tree_param":{"num_deleted":"0","num_feature":"18","num_nodes":"31","size_leaf_vector":"1"}},{"base_weights":[3.316729E-4,4.825686E-1,-6.326113E-1,7.465589E-1,-1.4818583E-1,-3.4764266E-1,-7.513481E-1,-3.9472666E-1,8.706284E-1,1.5242012E-1,-5.2778226E-1,-7.466008E-2,-6.293043E-1,-5.8392036E-1,-8.283774E-1,6.067086E-2,-2.280683E-2,9.69858E-2,3.5903644E-2,2.2165602E-2,-1.5636764E-2,-1.2820139E-2,-3.352957E-2,-4.532238E-2,-8.350934E-4,-2.4393572E-2,-4.0167976E-2,-1.5448389E-2,-3.4634367E-2,-3.9396204E-2,-4.9201004E-2],"categories":[],"categories_nodes":[],"categories_segments":[],"categories_sizes":[],"default_left":[0,0,0,0,0,0,0,0,0,0,0,0,0,0,0,0,0,0,0,0,0,0,0,0,0,0,0,0,0,0,0],"id":5,"left_children":[1,3,5,7,9,11,13,15,17,19,21,23,25,27,29,-1,-1,-1,-1,-1,-1,-1,-1,-1,-1,-1,-1,-1,-1,-1,-1],"loss_changes":[2.421356E3,7.498347E2,1.1581201E2,4.498092E2,1.5176259E2,7.7673035E1,3.073462E1,3.1357872E1,4.6559717E2,1.00619286E2,2.260382E1,2.4785889E1,1.18517E1,2.2697876E1,9.648071E0,0E0,0E0,0E0,0E0,0E0,0E0,0E0,0E0,0E0,0E0,0E0,0E0,0E0,0E0,0E0,0E0],"parents":[2147483647,0,0,1,1,2,2,3,3,4,4,5,5,6,6,7,7,8,8,9,9,10,10,11,11,12,12,13,13,14,14],"right_children":[2,4,6,8,10,12,14,16,18,20,22,24,26,28,30,-1,-1,-1,-1,-1,-1,-1,-1,-1,-1,-1,-1,-1,-1,-1,-1],"split_conditions":[3.40147E1,5.057629E1,4.2015366E1,2E0,1.8349752E1,3.565622E1,2.0483225E1,4.472136E0,8.341903E0,7.134043E1,5.924577E1,2E0,5.092646E1,5.047938E1,1.4240006E1,6.067086E-2,-2.280683E-2,9.69858E-2,3.5903644E-2,2.2165602E-2,-1.5636764E-2,-1.2820139E-2,-3.352957E-2,-4.532238E-2,-8.350934E-4,-2.4393572E-2,-4.0167976E-2,-1.5448389E-2,-3.4634367E-2,-3.9396204E-2,-4.9201004E-2],"split_indices":[0,1,0,12,0,1,1,0,0,1,1,12,1,0,8,0,0,0,0,0,0,0,0,0,0,0,0,0,0,0,0],"split_type":[0,0,0,0,0,0,0,0,0,0,0,0,0,0,0,0,0,0,0,0,0,0,0,0,0,0,0,0,0,0,0],"sum_hessian":[7.9309297E3,4.5014946E3,3.4294348E3,3.17322E3,1.3282748E3,1.00981165E3,2.419623E3,3.1092398E2,2.8622961E3,7.4159625E2,5.866785E2,5.1344904E2,4.9636264E2,7.651363E2,1.6544868E3,1.0746477E1,3.001775E2,3.55973E2,2.506323E3,4.5629333E2,2.853029E2,2.0324612E2,3.834324E2,3.249254E1,4.8095648E2,2.7594205E2,2.2042061E2,2.1796976E2,5.471665E2,1.3179885E3,3.364983E2],"tree_param":{"num_deleted":"0","num_feature":"18","num_nodes":"31","size_leaf_vector":"1"}},{"base_weights":[-9.368465E-3,7.2658725E-2,-5.787877E-1,-5.539343E-1,1.3058224E-1,-4.6550083E-1,-8.0056584E-1,6.0171217E-1,-6.3077927E-1,9.0961045E-1,7.249629E-2,-3.6174336E-1,-8.4213966E-1,-6.5057117E-1,-9.049501E-1,6.1322946E-2,-8.033954E-3,-1.4033531E-2,-3.71192E-2,8.573764E-2,1.0445013E-2,1.3916942E-2,-4.8121014E-3,-1.1209269E-2,-2.3183784E-2,-3.788389E-2,-5.1312137E-2,-2.8164754E-2,-5.0560094E-2,-2.9541362E-2,-4.6119753E-2],"categories":[],"categories_nodes":[],"categories_segments":[],"categories_sizes":[],"default_left":[0,0,0,0,0,0,0,0,0,0,0,0,0,0,0,0,0,0,0,0,0,0,0,0,0,0,0,0,0,0,0],"id":6,"left_children":[1,3,5,7,9,11,13,15,17,19,21,23,25,27,29,-1,-1,-1,-1,-1,-1,-1,-1,-1,-1,-1,-1,-1,-1,-1,-1],"loss_changes":[3.7060403E2,2.517939E2,2.4728668E1,5.2514954E1,2.87251E2,2.5631119E1,4.6783447E0,1.787518E1,2.131961E1,2.4815479E2,2.0530087E2,7.216507E0,1.4396667E0,3.8871803E0,5.279999E-1,0E0,0E0,0E0,0E0,0E0,0E0,0E0,0E0,0E0,0E0,0E0,0E0,0E0,0E0,0E0,0E0],"parents":[2147483647,0,0,1,1,2,2,3,3,4,4,5,5,6,6,7,7,8,8,9,9,10,10,11,11,12,12,13,13,14,14],"right_children":[2,4,6,8,10,12,14,16,18,20,22,24,26,28,30,-1,-1,-1,-1,-1,-1,-1,-1,-1,-1,-1,-1,-1,-1,-1,-1],"split_conditions":[4.8E1,2E0,6.1476364E1,1E0,1.1313708E1,7E0,7.76831E1,1E0,9.894759E0,5E0,2.7299572E1,5.2449688E1,1.1961055E1,1.9506409E1,-2E0,6.1322946E-2,-8.033954E-3,-1.4033531E-2,-3.71192E-2,8.573764E-2,1.0445013E-2,1.3916942E-2,-4.8121014E-3,-1.1209269E-2,-2.3183784E-2,-3.788389E-2,-5.1312137E-2,-2.8164754E-2,-5.0560094E-2,-2.9541362E-2,-4.6119753E-2],"split_indices":[5,12,5,6,7,11,7,4,8,12,1,5,8,8,13,0,0,0,0,0,0,0,0,0,0,0,0,0,0,0,0],"split_type":[0,0,0,0,0,0,0,0,0,0,0,0,0,0,0,0,0,0,0,0,0,0,0,0,0,0,0,0,0,0,0],"sum_hessian":[7.932611E3,6.9345347E3,9.98076E2,5.86073E2,6.3484614E3,6.626736E2,3.354024E2,3.611539E1,5.499576E2,4.3949197E2,5.9089697E3,5.210843E2,1.4158925E2,1.4059999E2,1.9480243E2,1.9514994E1,1.6600395E1,1.3378458E2,4.1617303E2,2.0383304E2,2.3565892E2,2.6615347E3,3.247435E3,2.2314658E2,2.9793774E2,1.0056707E2,4.1022175E1,1.1526638E2,2.5333601E1,1.2083803E1,1.8271861E2],"tree_param":{"num_deleted":"0","num_feature":"18","num_nodes":"31","size_leaf_vector":"1"}},{"base_weights":[-8.947112E-3,4.7344777E-1,-5.712342E-1,6.831113E-1,-1.7979667E-1,-2.7673778E-1,-7.444023E-1,-3.3136952E-1,7.9122823E-1,1.2073731E0,-2.5764787E-1,-3.6013324E-2,-6.5255576E-1,-6.9492996E-1,-9.5238805E-1,3.9124347E-2,-2.1388968E-2,5.168003E-2,1.0661571E-2,1.0295772E-1,3.2493323E-2,-3.8614185E-3,-2.9665116E-2,-4.737461E-2,9.590167E-4,-2.212979E-2,-3.971702E-2,-3.016637E-2,-4.1727986E-2,-4.2672377E-2,-4.8605602E-2],"categories":[],"categories_nodes":[],"categories_segments":[],"categories_sizes":[],"default_left":[0,0,0,0,0,0,0,0,0,0,0,0,0,0,0,0,0,0,0,0,0,0,0,0,0,0,0,0,0,0,0],"id":7,"left_children":[1,3,5,7,9,11,13,15,17,19,21,23,25,27,29,-1,-1,-1,-1,-1,-1,-1,-1,-1,-1,-1,-1,-1,-1,-1,-1],"loss_changes":[2.1510098E3,5.8471796E2,1.8653821E2,3.5469446E2,1.12394516E2,1.2278828E2,2.3059082E1,3.3831158E1,4.0891577E2,2.4935982E1,5.9516586E1,4.1700096E1,1.5425156E1,2.3364014E1,2.9541016E-2,0E0,0E0,0E0,0E0,0E0,0E0,0E0,0E0,0E0,0E0,0E0,0E0,0E0,0E0,0E0,0E0],"parents":[2147483647,0,0,1,1,2,2,3,3,4,4,5,5,6,6,7,7,8,8,9,9,10,10,11,11,12,12,13,13,14,14],"right_children":[2,4,6,8,10,12,14,16,18,20,22,24,26,28,30,-1,-1,-1,-1,-1,-1,-1,-1,-1,-1,-1,-1,-1,-1,-1,-1],"split_conditions":[3.1517176E1,5.4804672E1,4.226526E1,2E0,5.035506E0,4.042608E1,1.4240006E1,5.2509828E0,4E0,4E0,2.013263E1,2E0,4.984075E1,3.1647985E1,4.7010635E1,3.9124347E-2,-2.1388968E-2,5.168003E-2,1.0661571E-2,1.0295772E-1,3.2493323E-2,-3.8614185E-3,-2.9665116E-2,-4.737461E-2,9.590167E-4,-2.212979E-2,-3.971702E-2,-3.016637E-2,-4.1727986E-2,-4.2672377E-2,-4.8605602E-2],"split_indices":[0,1,0,12,0,1,8,0,10,0,0,12,1,1,0,0,0,0,0,0,0,0,0,0,0,0,0,0,0,0,0],"split_type":[0,0,0,0,0,0,0,0,0,0,0,0,0,0,0,0,0,0,0,0,0,0,0,0,0,0,0,0,0,0,0],"sum_hessian":[7.928156E3,4.2673164E3,3.6608394E3,3.2304382E3,1.0368783E3,1.3565073E3,2.304332E3,3.1092334E2,2.919515E3,5.432872E1,9.8254956E2,8.2753705E2,5.2897034E2,1.8650458E3,4.3928616E2,2.4201286E1,2.8672208E2,2.0564094E3,8.631056E2,2.0426615E1,3.3902107E1,6.3985016E2,3.4269937E2,4.6326443E1,7.8121063E2,2.1488385E2,3.140865E2,1.129422E3,7.356238E2,8.0374794E1,3.5891138E2],"tree_param":{"num_deleted":"0","num_feature":"18","num_nodes":"31","size_leaf_vector":"1"}},{"base_weights":[4.4927853E-3,8.201939E-2,-5.602248E-1,-5.261988E-1,1.3498667E-1,-3.1096572E-1,-6.588871E-1,-1.8371047E-1,-7.190249E-1,3.3816542E-2,9.010753E-1,-2.1082053E-1,-7.1542E-1,-6.1227703E-1,-9.342994E-1,-4.3122894E-3,-4.0185954E-2,-3.3252776E-2,-5.057648E-2,-2.4849534E-2,3.521267E-3,6.906637E-2,9.100186E-3,-1.5174466E-2,-2.4824112E-3,-2.1697696E-2,-4.254793E-2,-2.2491813E-2,-3.8514636E-2,-4.0643077E-2,-5.054911E-2],"categories":[],"categories_nodes":[],"categories_segments":[],"categories_sizes":[],"default_left":[0,0,0,0,0,0,0,0,0,0,0,0,0,0,0,0,0,0,0,0,0,0,0,0,0,0,0,0,0,0,0],"id":8,"left_children":[1,3,5,7,9,11,13,15,17,19,21,23,25,27,29,-1,-1,-1,-1,-1,-1,-1,-1,-1,-1,-1,-1,-1,-1,-1,-1],"loss_changes":[3.4745883E2,2.2488144E2,2.3355103E1,3.6800003E1,4.9755835E2,1.0929674E1,8.227081E0,1.2184755E1,4.9700623E0,1.10257805E2,2.5836835E2,3.2810707E0,1.6860332E0,1.4775604E1,8.440399E-2,0E0,0E0,0E0,0E0,0E0,0E0,0E0,0E0,0E0,0E0,0E0,0E0,0E0,0E0,0E0,0E0],"parents":[2147483647,0,0,1,1,2,2,3,3,4,4,5,5,6,6,7,7,8,8,9,9,10,10,11,11,12,12,13,13,14,14],"right_children":[2,4,6,8,10,12,14,16,18,20,22,24,26,28,30,-1,-1,-1,-1,-1,-1,-1,-1,-1,-1,-1,-1,-1,-1,-1,-1],"split_conditions":[4.8E1,2E0,5.2449688E1,7E0,1E0,7E0,7E0,1.8471842E1,7E0,4E0,1.3683851E1,6E0,0E0,6.1476364E1,3.2E1,-4.3122894E-3,-4.0185954E-2,-3.3252776E-2,-5.057648E-2,-2.4849534E-2,3.521267E-3,6.906637E-2,9.100186E-3,-1.5174466E-2,-2.4824112E-3,-2.1697696E-2,-4.254793E-2,-2.2491813E-2,-3.8514636E-2,-4.0643077E-2,-5.054911E-2],"split_indices":[5,12,5,6,3,11,11,5,11,12,8,11,13,5,6,0,0,0,0,0,0,0,0,0,0,0,0,0,0,0,0],"split_type":[0,0,0,0,0,0,0,0,0,0,0,0,0,0,0,0,0,0,0,0,0,0,0,0,0,0,0,0,0,0,0],"sum_hessian":[7.9343105E3,6.9772954E3,9.5701526E2,5.582324E2,6.419063E3,2.725645E2,6.8445074E2,2.0178482E2,3.564476E2,5.671169E3,7.4789386E2,2.196894E2,5.2875107E1,5.881388E2,9.631196E1,1.7535786E2,2.6426964E1,3.036884E2,5.2759216E1,3.6508365E2,5.3060854E3,4.4785825E2,3.000356E2,1.3892758E2,8.0761826E1,1.8551607E1,3.4323498E1,2.919055E2,2.962333E2,4.176755E1,5.454441E1],"tree_param":{"num_deleted":"0","num_feature":"18","num_nodes":"31","size_leaf_vector":"1"}},{"base_weights":[-4.776344E-3,4.0427986E-1,-5.9254616E-1,6.2575674E-1,-1.06638536E-1,-3.652409E-1,-7.5262904E-1,2.6430647E0,5.8317053E-1,1.6137876E-1,-4.5908505E-1,-1.19515195E-1,-6.538077E-1,-6.689599E-1,-8.5754424E-1,4.7324505E-2,1.6262133E-1,-2.0680059E-2,3.363326E-2,2.3299722E-2,-8.828941E-3,-1.1043695E-2,-3.154838E-2,-4.3332934E-2,-3.8731191E-3,-2.585171E-2,-4.1871827E-2,-3.0888373E-2,-4.8310827E-2,-3.9653912E-2,-4.6068817E-2],"categories":[],"categories_nodes":[],"categories_segments":[],"categories_sizes":[],"default_left":[0,0,0,0,0,0,0,0,0,0,0,0,0,0,0,0,0,0,0,0,0,0,0,0,0,0,0,0,0,0,0],"id":9,"left_children":[1,3,5,7,9,11,13,15,17,19,21,23,25,27,29,-1,-1,-1,-1,-1,-1,-1,-1,-1,-1,-1,-1,-1,-1,-1,-1],"loss_changes":[1.9083292E3,5.2964667E2,1.1824219E2,2.7894897E2,1.338422E2,9.549773E1,1.6194214E1,6.641193E1,2.8562366E2,8.2969406E1,2.491719E1,2.2844027E1,1.5130554E1,1.5643585E1,2.7421265E0,0E0,0E0,0E0,0E0,0E0,0E0,0E0,0E0,0E0,0E0,0E0,0E0,0E0,0E0,0E0,0E0],"parents":[2147483647,0,0,1,1,2,2,3,3,4,4,5,5,6,6,7,7,8,8,9,9,10,10,11,11,12,12,13,13,14,14],"right_children":[2,4,6,8,10,12,14,16,18,20,22,24,26,28,30,-1,-1,-1,-1,-1,-1,-1,-1,-1,-1,-1,-1,-1,-1,-1,-1],"split_conditions":[3.3781265E1,4.8512234E1,4.552011E1,5.035506E0,1.8349752E1,3.6269768E1,2.9688698E1,2E0,2E0,6.603751E1,5.924577E1,2E0,5.2065903E1,6.6911476E1,3.8E1,4.7324505E-2,1.6262133E-1,-2.0680059E-2,3.363326E-2,2.3299722E-2,-8.828941E-3,-1.1043695E-2,-3.154838E-2,-4.3332934E-2,-3.8731191E-3,-2.585171E-2,-4.1871827E-2,-3.0888373E-2,-4.8310827E-2,-3.9653912E-2,-4.6068817E-2],"split_indices":[0,1,0,0,0,1,1,12,12,1,1,12,1,0,6,0,0,0,0,0,0,0,0,0,0,0,0,0,0,0,0],"split_type":[0,0,0,0,0,0,0,0,0,0,0,0,0,0,0,0,0,0,0,0,0,0,0,0,0,0,0,0,0,0,0],"sum_hessian":[7.9351255E3,4.679062E3,3.2560635E3,3.2639534E3,1.4151085E3,1.3468801E3,1.9091835E3,6.621646E1,3.1977368E3,8.041422E2,6.109663E2,7.282022E2,6.1867786E2,1.0662402E3,8.429432E2,1.8172937E1,4.804352E1,2.6315466E2,2.9345823E3,4.2273456E2,3.8140768E2,2.5703198E2,3.5393433E2,3.775784E1,6.9044434E2,3.567631E2,2.619148E2,9.122194E2,1.5402084E2,4.2606854E2,4.1687463E2],"tree_param":{"num_deleted":"0","num_feature":"18","num_nodes":"31","size_leaf_vector":"1"}},{"base_weights":[6.9999597E-3,3.8780922E-1,-5.755632E-1,5.8306843E-1,-7.761935E-2,-2.9600623E-1,-7.039047E-1,7.4514776E-1,1.4749329E-1,9.1832244E-1,-1.668447E-1,-4.6550337E-2,-5.795877E-1,-5.534951E-1,-7.765611E-1,5.071802E-2,1.7318113E-2,2.6854504E-2,-7.850039E-3,7.2172195E-2,1.9005387E-3,5.8020256E-4,-2.575625E-2,1.4374104E-2,-9.406631E-3,-2.1590501E-2,-3.8484517E-2,-1.5933331E-2,-3.259443E-2,-3.6482394E-2,-4.5893293E-2],"categories":[],"categories_nodes":[],"categories_segments":[],"categories_sizes":[],"default_left":[0,0,0,0,0,0,0,0,0,0,0,0,0,0,0,0,0,0,0,0,0,0,0,0,0,0,0,0,0,0,0],"id":10,"left_children":[1,3,5,7,9,11,13,15,17,19,21,23,25,27,29,-1,-1,-1,-1,-1,-1,-1,-1,-1,-1,-1,-1,-1,-1,-1,-1],"loss_changes":[1.7567761E3,4.352345E2,1.1210144E2,2.3805432E2,1.25994125E2,6.976844E1,2.3006958E1,2.6357922E2,1.0876409E2,5.3841644E1,8.0834015E1,2.4929575E1,1.2636612E1,1.6012909E1,8.900024E0,0E0,0E0,0E0,0E0,0E0,0E0,0E0,0E0,0E0,0E0,0E0,0E0,0E0,0E0,0E0,0E0],"parents":[2147483647,0,0,1,1,2,2,3,3,4,4,5,5,6,6,7,7,8,8,9,9,10,10,11,11,12,12,13,13,14,14],"right_children":[2,4,6,8,10,12,14,16,18,20,22,24,26,28,30,-1,-1,-1,-1,-1,-1,-1,-1,-1,-1,-1,-1,-1,-1,-1,-1],"split_conditions":[3.40147E1,4.8512234E1,4.226526E1,4E0,5.9437237E0,3.565622E1,2.0483225E1,2.3345236E1,1.1313708E1,6E0,2.2550127E1,1.3671308E1,5.092646E1,5.08475E1,1.2250283E1,5.071802E-2,1.7318113E-2,2.6854504E-2,-7.850039E-3,7.2172195E-2,1.9005387E-3,5.8020256E-4,-2.575625E-2,1.4374104E-2,-9.406631E-3,-2.1590501E-2,-3.8484517E-2,-1.5933331E-2,-3.259443E-2,-3.6482394E-2,-4.5893293E-2],"split_indices":[0,1,0,10,0,1,1,0,0,10,0,1,1,0,8,0,0,0,0,0,0,0,0,0,0,0,0,0,0,0,0],"split_type":[0,0,0,0,0,0,0,0,0,0,0,0,0,0,0,0,0,0,0,0,0,0,0,0,0,0,0,0,0,0,0],"sum_hessian":[7.916913E3,4.7876567E3,3.1292563E3,3.372538E3,1.4151188E3,9.8563214E2,2.143624E3,2.4574133E3,9.151246E2,1.1559082E2,1.299528E3,5.2498596E2,4.6064618E2,7.010222E2,1.4426019E3,1.4661198E3,9.9129364E2,4.011253E2,5.1399927E2,7.200116E1,4.358966E1,8.599044E2,4.396235E2,1.5597247E2,3.6901346E2,2.6101538E2,1.9963078E2,2.0824883E2,4.927734E2,1.0876617E3,3.5494016E2],"tree_param":{"num_deleted":"0","num_feature":"18","num_nodes":"31","size_leaf_vector":"1"}},{"base_weights":[-2.3720947E-3,3.457671E-1,-5.8177954E-1,4.8943865E-1,-2.1118848E-1,-3.682405E-1,-7.2362924E-1,1.3697333E0,4.1776732E-1,1.3216646E-1,-4.7191316E-1,-1.8848397E-1,-6.8345964E-1,-5.9806854E-1,-7.9478544E-1,1.1534671E-1,5.6833953E-2,2.8981378E-2,9.473651E-3,8.874031E-2,2.3317167E-3,-2.6913697E-2,-5.7875444E-3,1.5506824E-3,-1.3067435E-2,-2.7019639E-2,-3.998978E-2,-2.7725024E-2,-4.9246203E-2,-3.7262853E-2,-4.4651676E-2],"categories":[],"categories_nodes":[],"categories_segments":[],"categories_sizes":[],"default_left":[0,0,0,0,0,0,0,0,0,0,0,0,0,0,0,0,0,0,0,0,0,0,0,0,0,0,0,0,0,0,0],"id":11,"left_children":[1,3,5,7,9,11,13,15,17,19,21,23,25,27,29,-1,-1,-1,-1,-1,-1,-1,-1,-1,-1,-1,-1,-1,-1,-1,-1],"loss_changes":[1.594135E3,3.951316E2,8.958197E1,2.4704297E2,9.07495E1,6.707181E1,1.5439209E1,6.182025E1,1.3404858E2,6.145689E1,1.3551956E1,1.2109768E1,6.7299957E0,1.0381561E1,4.852173E0,0E0,0E0,0E0,0E0,0E0,0E0,0E0,0E0,0E0,0E0,0E0,0E0,0E0,0E0,0E0,0E0],"parents":[2147483647,0,0,1,1,2,2,3,3,4,4,5,5,6,6,7,7,8,8,9,9,10,10,11,11,12,12,13,13,14,14],"right_children":[2,4,6,8,10,12,14,16,18,20,22,24,26,28,30,-1,-1,-1,-1,-1,-1,-1,-1,-1,-1,-1,-1,-1,-1,-1,-1],"split_conditions":[3.4669872E1,5.642691E1,4.552011E1,6.999202E0,1.2987399E1,4.042608E1,2.1765543E1,4.472136E0,2.1501692E1,4E0,1E0,1.308521E1,5.092646E1,6.744416E1,5.5E1,1.1534671E-1,5.6833953E-2,2.8981378E-2,9.473651E-3,8.874031E-2,2.3317167E-3,-2.6913697E-2,-5.7875444E-3,1.5506824E-3,-1.3067435E-2,-2.7019639E-2,-3.998978E-2,-2.7725024E-2,-4.9246203E-2,-3.7262853E-2,-4.4651676E-2],"split_indices":[0,1,0,0,0,1,1,0,0,0,3,1,1,0,6,0,0,0,0,0,0,0,0,0,0,0,0,0,0,0,0],"split_type":[0,0,0,0,0,0,0,0,0,0,0,0,0,0,0,0,0,0,0,0,0,0,0,0,0,0,0,0,0,0,0],"sum_hessian":[7.9009316E3,4.9357E3,2.9652314E3,3.9236753E3,1.012025E3,1.1849766E3,1.780255E3,2.9404105E2,3.6296343E3,4.370094E2,5.750157E2,7.556552E2,4.2932132E2,6.473538E2,1.1329011E3,5.6785595E1,2.3725545E2,2.1229368E3,1.5066975E3,2.065134E1,4.1635803E2,4.8427365E2,9.074201E1,1.8847318E2,5.6718207E2,1.9507207E2,2.3424924E2,5.8401483E2,6.3339005E1,7.589087E2,3.739924E2],"tree_param":{"num_deleted":"0","num_feature":"18","num_nodes":"31","size_leaf_vector":"1"}},{"base_weights":[-1.2583501E-2,3.184686E-1,-5.614066E-1,-4.1630659E-1,3.912976E-1,-2.6984343E-1,-6.94394E-1,5.352406E-1,-4.9710038E-1,8.364113E-1,2.3953149E-1,-2.1362375E-1,-6.9852865E-1,-6.414303E-1,-9.239882E-1,1.1206225E-1,-2.5224337E-2,7.0560733E-3,-2.9724455E-2,5.925076E-2,1.6108584E-2,1.9482654E-2,-7.6250746E-3,-4.889162E-3,-1.4578621E-2,-4.3872874E-2,-3.0233879E-2,-2.9198846E-2,-4.3490365E-2,-4.248346E-2,-4.791971E-2],"categories":[],"categories_nodes":[],"categories_segments":[],"categories_sizes":[],"default_left":[0,0,0,0,0,0,0,0,0,0,0,0,0,0,0,0,0,0,0,0,0,0,0,0,0,0,0,0,0,0,0],"id":12,"left_children":[1,3,5,7,9,11,13,15,17,19,21,23,25,27,29,-1,-1,-1,-1,-1,-1,-1,-1,-1,-1,-1,-1,-1,-1,-1,-1],"loss_changes":[1.439028E3,2.6453333E2,1.15359314E2,3.4553917E1,3.0347217E2,2.2387085E1,2.4285767E1,6.3898434E1,2.5667786E1,2.0444788E2,1.9743385E2,7.4491043E0,1.2825928E0,2.1347351E1,1.6046143E-1,0E0,0E0,0E0,0E0,0E0,0E0,0E0,0E0,0E0,0E0,0E0,0E0,0E0,0E0,0E0,0E0],"parents":[2147483647,0,0,1,1,2,2,3,3,4,4,5,5,6,6,7,7,8,8,9,9,10,10,11,11,12,12,13,13,14,14],"right_children":[2,4,6,8,10,12,14,16,18,20,22,24,26,28,30,-1,-1,-1,-1,-1,-1,-1,-1,-1,-1,-1,-1,-1,-1,-1,-1],"split_conditions":[3.40147E1,2E0,4.2015366E1,1E0,1.0392041E1,1.7492855E1,1.4240006E1,1E0,5.9437237E0,4E0,3E0,3.7148876E1,0E0,6.3840973E1,1.8027756E1,1.1206225E-1,-2.5224337E-2,7.0560733E-3,-2.9724455E-2,5.925076E-2,1.6108584E-2,1.9482654E-2,-7.6250746E-3,-4.889162E-3,-1.4578621E-2,-4.3872874E-2,-3.0233879E-2,-2.9198846E-2,-4.3490365E-2,-4.248346E-2,-4.791971E-2],"split_indices":[0,12,0,6,0,8,8,3,0,10,10,0,13,0,8,0,0,0,0,0,0,0,0,0,0,0,0,0,0,0,0],"split_type":[0,0,0,0,0,0,0,0,0,0,0,0,0,0,0,0,0,0,0,0,0,0,0,0,0,0,0,0,0,0,0],"sum_hessian":[7.9182954E3,4.939307E3,2.9789883E3,4.449969E2,4.49431E3,9.3409546E2,2.0448928E3,3.438645E1,4.106104E2,1.1416022E3,3.3527078E3,8.2712146E2,1.0697402E2,1.6646731E3,3.8021967E2,1.2583537E1,2.1802916E1,5.4301952E1,3.5630847E2,6.7959753E2,4.6200464E2,2.4243538E3,9.28354E2,3.336035E2,4.9351797E2,3.3932205E1,7.304182E1,1.3329072E3,3.3176593E2,1.2845155E2,2.5176813E2],"tree_param":{"num_deleted":"0","num_feature":"18","num_nodes":"31","size_leaf_vector":"1"}},{"base_weights":[-7.038632E-3,3.718363E-1,-4.6284837E-1,-3.882734E-1,4.5137945E-1,-2.0678377E-1,-6.701476E-1,2.699413E-1,-5.023245E-1,3.3666158E-1,9.9158466E-1,-8.259485E-1,-1.7934415E-1,-6.1443967E-1,-9.068159E-1,3.0898197E-2,1.2483004E-3,-4.7795074E-3,-2.823965E-2,2.5333622E-2,1.074992E-2,2.8489253E-2,8.7411486E-2,-2.5184372E-2,-4.3663505E-2,-4.842489E-3,-1.6791103E-2,-2.8720895E-2,-4.477702E-2,-4.057152E-2,-4.795818E-2],"categories":[],"categories_nodes":[],"categories_segments":[],"categories_sizes":[],"default_left":[0,0,0,0,0,0,0,0,0,0,0,0,0,0,0,0,0,0,0,0,0,0,0,0,0,0,0,0,0,0,0],"id":13,"left_children":[1,3,5,7,9,11,13,15,17,19,21,23,25,27,29,-1,-1,-1,-1,-1,-1,-1,-1,-1,-1,-1,-1,-1,-1,-1,-1],"loss_changes":[1.3618428E3,2.6054395E2,1.898675E2,3.0801235E1,2.4128326E2,2.7083405E1,2.5516785E1,5.1833906E0,8.801094E0,6.644083E1,2.167998E2,5.9319305E-1,1.9796158E1,1.753009E1,1.0927124E0,0E0,0E0,0E0,0E0,0E0,0E0,0E0,0E0,0E0,0E0,0E0,0E0,0E0,0E0,0E0,0E0],"parents":[2147483647,0,0,1,1,2,2,3,3,4,4,5,5,6,6,7,7,8,8,9,9,10,10,11,11,12,12,13,13,14,14],"right_children":[2,4,6,8,10,12,14,16,18,20,22,24,26,28,30,-1,-1,-1,-1,-1,-1,-1,-1,-1,-1,-1,-1,-1,-1,-1,-1],"split_conditions":[2.9410883E1,2E0,4.2015366E1,5.9437237E0,1E0,2E0,1.3875563E1,4.9897857E0,1E0,5E0,3E0,1.0404326E1,3.7148876E1,6.6911476E1,1.8027756E1,3.0898197E-2,1.2483004E-3,-4.7795074E-3,-2.823965E-2,2.5333622E-2,1.074992E-2,2.8489253E-2,8.7411486E-2,-2.5184372E-2,-4.3663505E-2,-4.842489E-3,-1.6791103E-2,-2.8720895E-2,-4.477702E-2,-4.057152E-2,-4.795818E-2],"split_indices":[0,12,0,0,3,12,8,8,3,11,12,8,0,0,8,0,0,0,0,0,0,0,0,0,0,0,0,0,0,0,0],"split_type":[0,0,0,0,0,0,0,0,0,0,0,0,0,0,0,0,0,0,0,0,0,0,0,0,0,0,0,0,0,0,0],"sum_hessian":[7.883835E3,4.3053535E3,3.5784812E3,4.0749304E2,3.8978606E3,1.601831E3,1.9766503E3,5.9978256E1,3.4751477E2,3.216441E3,6.814196E2,6.674117E1,1.5350898E3,1.6029398E3,3.737104E2,2.4148825E1,3.5829433E1,4.66041E1,3.0091068E2,1.340323E3,1.8761179E3,4.386453E2,2.4277434E2,1.0036479E1,5.6704693E1,1.0062296E3,5.288602E2,1.4058282E3,1.9711163E2,1.3826718E2,2.354432E2],"tree_param":{"num_deleted":"0","num_feature":"18","num_nodes":"31","size_leaf_vector":"1"}},{"base_weights":[-1.9438066E-2,2.6640916E-1,-5.5261046E-1,4.673482E-1,-8.194891E-2,-3.4015423E-1,-6.9936764E-1,6.720982E-1,1.4485414E-1,8.1119996E-1,-1.6127284E-1,-1.5520394E-1,-6.684779E-1,-5.503728E-1,-7.844968E-1,4.552941E-2,1.9689377E-2,1.9984877E-2,-1.5645871E-2,7.3274516E-2,1.8865203E-2,-1.3910176E-3,-2.6692882E-2,4.823462E-3,-1.1881322E-2,-2.509726E-2,-4.0341895E-2,-2.519457E-2,-4.938011E-2,-3.6056057E-2,-4.2514738E-2],"categories":[],"categories_nodes":[],"categories_segments":[],"categories_sizes":[],"default_left":[0,0,0,0,0,0,0,0,0,0,0,0,0,0,0,0,0,0,0,0,0,0,0,0,0,0,0,0,0,0,0],"id":14,"left_children":[1,3,5,7,9,11,13,15,17,19,21,23,25,27,29,-1,-1,-1,-1,-1,-1,-1,-1,-1,-1,-1,-1,-1,-1,-1,-1],"loss_changes":[1.2038473E3,3.5998413E2,8.571814E1,2.1524573E2,1.33461E2,6.840744E1,2.0237305E1,1.3202545E2,1.4802115E2,4.307373E1,8.596725E1,1.5020573E1,8.95549E0,1.1612274E1,3.701477E0,0E0,0E0,0E0,0E0,0E0,0E0,0E0,0E0,0E0,0E0,0E0,0E0,0E0,0E0,0E0,0E0],"parents":[2147483647,0,0,1,1,2,2,3,3,4,4,5,5,6,6,7,7,8,8,9,9,10,10,11,11,12,12,13,13,14,14],"right_children":[2,4,6,8,10,12,14,16,18,20,22,24,26,28,30,-1,-1,-1,-1,-1,-1,-1,-1,-1,-1,-1,-1,-1,-1,-1,-1],"split_conditions":[3.4669872E1,4.2829964E1,4.552011E1,3E0,5.9437237E0,4.042608E1,2.1765543E1,2.2825424E1,1.4764823E1,5.924577E1,6.959085E1,1.284586E1,5.092646E1,6.744416E1,6.1400326E1,4.552941E-2,1.9689377E-2,1.9984877E-2,-1.5645871E-2,7.3274516E-2,1.8865203E-2,-1.3910176E-3,-2.6692882E-2,4.823462E-3,-1.1881322E-2,-2.509726E-2,-4.0341895E-2,-2.519457E-2,-4.938011E-2,-3.6056057E-2,-4.2514738E-2],"split_indices":[0,1,0,10,0,1,1,0,0,1,1,1,1,0,7,0,0,0,0,0,0,0,0,0,0,0,0,0,0,0,0],"split_type":[0,0,0,0,0,0,0,0,0,0,0,0,0,0,0,0,0,0,0,0,0,0,0,0,0,0,0,0,0,0,0],"sum_hessian":[7.8969907E3,5.1411763E3,2.7558145E3,3.2602598E3,1.8809165E3,1.1272477E3,1.6285669E3,1.9935072E3,1.2667527E3,1.5267247E2,1.728244E3,7.2200354E2,4.0524414E2,5.9487274E2,1.0336941E3,1.0723323E3,9.2117487E2,8.138216E2,4.5293112E2,5.9927578E1,9.274489E1,1.2732616E3,4.5498242E2,1.7807858E2,5.439249E2,1.8599951E2,2.1924463E2,5.396551E2,5.521766E1,5.3263116E2,5.0106296E2],"tree_param":{"num_deleted":"0","num_feature":"18","num_nodes":"31","size_leaf_vector":"1"}},{"base_weights":[-5.4350276E-3,2.4373966E-1,-5.750983E-1,4.099232E-1,-1.3837783E-1,-3.747351E-1,-6.799657E-1,-3.438739E-1,4.7312003E-1,5.60322E-2,-4.9974203E-1,-1.6376147E-1,-6.455384E-1,-5.444694E-1,-7.5709164E-1,3.5403457E-2,-2.1440368E-2,6.741359E-2,2.0714773E-2,1.2638134E-2,-1.8776095E-2,-1.165717E-2,-3.059095E-2,-5.5449465E-3,-3.0221952E-2,-2.5580063E-2,-4.1240126E-2,-2.3956904E-2,-4.283558E-2,-3.5949405E-2,-4.556793E-2],"categories":[],"categories_nodes":[],"categories_segments":[],"categories_sizes":[],"default_left":[0,0,0,0,0,0,0,0,0,0,0,0,0,0,0,0,0,0,0,0,0,0,0,0,0,0,0,0,0,0,0],"id":15,"left_children":[1,3,5,7,9,11,13,15,17,19,21,23,25,27,29,-1,-1,-1,-1,-1,-1,-1,-1,-1,-1,-1,-1,-1,-1,-1,-1],"loss_changes":[1.1188217E3,3.4826987E2,5.0141968E1,1.8222339E2,1.16840195E2,4.710179E1,1.6028564E1,2.676815E1,1.8099158E2,9.195759E1,1.7239151E1,1.0783649E1,8.257584E0,1.1303421E1,5.2229004E0,0E0,0E0,0E0,0E0,0E0,0E0,0E0,0E0,0E0,0E0,0E0,0E0,0E0,0E0,0E0,0E0],"parents":[2147483647,0,0,1,1,2,2,3,3,4,4,5,5,6,6,7,7,8,8,9,9,10,10,11,11,12,12,13,13,14,14],"right_children":[2,4,6,8,10,12,14,16,18,20,22,24,26,28,30,-1,-1,-1,-1,-1,-1,-1,-1,-1,-1,-1,-1,-1,-1,-1,-1],"split_conditions":[3.7148876E1,4.668298E1,4.552011E1,2E0,2.2550127E1,3.6269768E1,2.1501434E1,5.035506E0,6.999202E0,7.134043E1,5.2798195E1,1.721705E1,5.092646E1,1.3683851E1,1.4240006E1,3.5403457E-2,-2.1440368E-2,6.741359E-2,2.0714773E-2,1.2638134E-2,-1.8776095E-2,-1.165717E-2,-3.059095E-2,-5.5449465E-3,-3.0221952E-2,-2.5580063E-2,-4.1240126E-2,-2.3956904E-2,-4.283558E-2,-3.5949405E-2,-4.556793E-2],"split_indices":[0,1,0,12,0,1,1,0,0,1,1,8,1,8,8,0,0,0,0,0,0,0,0,0,0,0,0,0,0,0,0],"split_type":[0,0,0,0,0,0,0,0,0,0,0,0,0,0,0,0,0,0,0,0,0,0,0,0,0,0,0,0,0,0,0],"sum_hessian":[7.8800537E3,5.4825293E3,2.3975244E3,3.8207888E3,1.6617402E3,8.2528326E2,1.5722411E3,2.9520544E2,3.5255835E3,1.0810123E3,5.8072797E2,4.6478775E2,3.604955E2,5.732335E2,9.990076E2,2.1506018E1,2.7369943E2,2.2067102E2,3.3049124E3,7.428068E2,3.3820547E2,1.7279022E2,4.079377E2,4.1612244E2,4.866531E1,2.0853929E2,1.5195622E2,4.7614316E2,9.709036E1,8.0567004E2,1.9333759E2],"tree_param":{"num_deleted":"0","num_feature":"18","num_nodes":"31","size_leaf_vector":"1"}},{"base_weights":[-4.9976935E-3,3.1258237E-1,-4.2495623E-1,4.001308E-1,-2.6326802E-1,-1.7756245E-1,-6.3302463E-1,6.043066E-1,9.9189475E-2,7.542298E-1,-3.2956094E-1,1.7298311E-2,-5.590678E-1,-5.2753735E-1,-7.600143E-1,4.11687E-2,1.9256188E-2,2.2360384E-2,-7.4799443E-3,5.1971115E-2,1.0487553E-2,-8.204718E-3,-2.6257077E-2,2.7582888E-3,-3.1885717E-2,-1.9307582E-2,-3.6182694E-2,-2.2476919E-2,-4.297964E-2,-3.5743106E-2,-4.4813484E-2],"categories":[],"categories_nodes":[],"categories_segments":[],"categories_sizes":[],"default_left":[0,0,0,0,0,0,0,0,0,0,0,0,0,0,0,0,0,0,0,0,0,0,0,0,0,0,0,0,0,0,0],"id":16,"left_children":[1,3,5,7,9,11,13,15,17,19,21,23,25,27,29,-1,-1,-1,-1,-1,-1,-1,-1,-1,-1,-1,-1,-1,-1,-1,-1],"loss_changes":[1.0481864E3,2.2571588E2,1.7408502E2,2.3864801E2,4.0125237E1,1.1504092E2,2.4217346E1,1.1080945E2,1.361348E2,5.4443207E0,1.7897842E1,2.5463636E1,1.4609695E1,2.5698608E1,4.4756775E0,0E0,0E0,0E0,0E0,0E0,0E0,0E0,0E0,0E0,0E0,0E0,0E0,0E0,0E0,0E0,0E0],"parents":[2147483647,0,0,1,1,2,2,3,3,4,4,5,5,6,6,7,7,8,8,9,9,10,10,11,11,12,12,13,13,14,14],"right_children":[2,4,6,8,10,12,14,16,18,20,22,24,26,28,30,-1,-1,-1,-1,-1,-1,-1,-1,-1,-1,-1,-1,-1,-1,-1,-1],"split_conditions":[2.9410883E1,6.465415E1,4.179209E1,3E0,4.472136E0,4.182017E1,2.9688698E1,1.7521385E1,1.0052693E1,2.4E1,7.633065E1,3E0,5.2798195E1,6.3840973E1,1.2412191E1,4.11687E-2,1.9256188E-2,2.2360384E-2,-7.4799443E-3,5.1971115E-2,1.0487553E-2,-8.204718E-3,-2.6257077E-2,2.7582888E-3,-3.1885717E-2,-1.9307582E-2,-3.6182694E-2,-2.2476919E-2,-4.297964E-2,-3.5743106E-2,-4.4813484E-2],"split_indices":[0,1,0,10,0,1,1,0,0,6,1,10,1,0,8,0,0,0,0,0,0,0,0,0,0,0,0,0,0,0,0],"split_type":[0,0,0,0,0,0,0,0,0,0,0,0,0,0,0,0,0,0,0,0,0,0,0,0,0,0,0,0,0,0,0],"sum_hessian":[7.857214E3,4.474086E3,3.3831274E3,3.883908E3,5.9017816E2,1.5463579E3,1.8367697E3,2.3133745E3,1.5705334E3,3.546505E1,5.5471313E2,1.0241893E3,5.221685E2,1.00614404E3,8.306256E2,1.1556134E3,1.1577612E3,6.543695E2,9.1616394E2,2.2677683E1,1.2787366E1,3.0148633E2,2.5322678E2,9.690808E2,5.510853E1,2.5627213E2,2.6589642E2,8.166653E2,1.8947873E2,6.2857544E2,2.0205017E2],"tree_param":{"num_deleted":"0","num_feature":"18","num_nodes":"31","size_leaf_vector":"1"}},{"base_weights":[-9.191029E-3,2.421367E-1,-5.0676984E-1,-4.3398815E-1,3.043501E-1,-2.901494E-1,-6.502894E-1,1.6795252E-1,-5.3892857E-1,5.4073375E-1,1.06124915E-1,-2.4283554E-1,-6.463402E-1,-5.96913E-1,-8.8170874E-1,-4.8068874E-3,2.0804407E-2,-1.6175762E-2,-3.460517E-2,3.842684E-2,6.7262114E-3,1.1601357E-2,-1.9801274E-2,-8.926773E-3,-2.229545E-2,-4.437822E-2,-2.8679146E-2,-2.7005548E-2,-3.957216E-2,-3.673106E-2,-4.5893274E-2],"categories":[],"categories_nodes":[],"categories_segments":[],"categories_sizes":[],"default_left":[0,0,0,0,0,0,0,0,0,0,0,0,0,0,0,0,0,0,0,0,0,0,0,0,0,0,0,0,0,0,0],"id":17,"left_children":[1,3,5,7,9,11,13,15,17,19,21,23,25,27,29,-1,-1,-1,-1,-1,-1,-1,-1,-1,-1,-1,-1,-1,-1,-1,-1],"loss_changes":[9.828607E2,2.1978494E2,8.18111E1,2.7910553E1,2.240351E2,1.7587303E1,1.906012E1,4.3744516E0,1.2158455E1,2.0172021E2,1.6462172E2,1.2077591E1,1.6471672E0,1.3844025E1,8.9508057E-1,0E0,0E0,0E0,0E0,0E0,0E0,0E0,0E0,0E0,0E0,0E0,0E0,0E0,0E0,0E0,0E0],"parents":[2147483647,0,0,1,1,2,2,3,3,4,4,5,5,6,6,7,7,8,8,9,9,10,10,11,11,12,12,13,13,14,14],"right_children":[2,4,6,8,10,12,14,16,18,20,22,24,26,28,30,-1,-1,-1,-1,-1,-1,-1,-1,-1,-1,-1,-1,-1,-1,-1,-1],"split_conditions":[3.40147E1,2E0,4.410758E1,5.9437237E0,1.5499997E1,1.7E1,1.3875563E1,1E0,7E0,4E0,3E0,7E0,2E0,6.3444214E1,4.9513954E1,-4.8068874E-3,2.0804407E-2,-1.6175762E-2,-3.460517E-2,3.842684E-2,6.7262114E-3,1.1601357E-2,-1.9801274E-2,-8.926773E-3,-2.229545E-2,-4.437822E-2,-2.8679146E-2,-2.7005548E-2,-3.957216E-2,-3.673106E-2,-4.5893274E-2],"split_indices":[0,12,0,0,0,8,8,15,6,10,10,11,12,0,0,0,0,0,0,0,0,0,0,0,0,0,0,0,0,0,0],"split_type":[0,0,0,0,0,0,0,0,0,0,0,0,0,0,0,0,0,0,0,0,0,0,0,0,0,0,0,0,0,0,0],"sum_hessian":[7.857424E3,5.220869E3,2.6365547E3,4.3941415E2,4.781455E3,1.051899E3,1.5846556E3,6.514431E1,3.7426984E2,2.1800347E3,2.6014204E3,9.300408E2,1.21858284E2,1.2905679E3,2.9408786E2,3.1854347E1,3.3289963E1,1.5682933E2,2.1744052E2,1.3961688E3,7.8386597E2,2.0803582E3,5.210622E2,7.0780457E2,2.222362E2,2.5642492E1,9.621579E1,1.0018176E3,2.8875018E2,6.223408E1,2.3185378E2],"tree_param":{"num_deleted":"0","num_feature":"18","num_nodes":"31","size_leaf_vector":"1"}},{"base_weights":[-5.4919585E-3,2.1237697E-1,-5.475946E-1,4.20329E-1,-4.3721654E-2,-4.0186962E-1,-6.9135517E-1,5.474946E-1,7.648457E-2,1.4051273E-1,-3.3106297E-1,-2.3272046E-1,-7.242901E-1,-6.3830656E-1,-9.1553193E-1,-1.5322179E-2,3.135971E-2,1.3534446E-2,-1.5353994E-2,1.3359765E-2,-1.399378E-2,-8.750924E-3,-2.745266E-2,-7.5211423E-3,-2.4072962E-2,-3.0027268E-2,-4.2679794E-2,-2.9241187E-2,-4.262235E-2,-4.0811174E-2,-4.761853E-2],"categories":[],"categories_nodes":[],"categories_segments":[],"categories_sizes":[],"default_left":[0,0,0,0,0,0,0,0,0,0,0,0,0,0,0,0,0,0,0,0,0,0,0,0,0,0,0,0,0,0,0],"id":18,"left_children":[1,3,5,7,9,11,13,15,17,19,21,23,25,27,29,-1,-1,-1,-1,-1,-1,-1,-1,-1,-1,-1,-1,-1,-1,-1,-1],"loss_changes":[9.2723157E2,2.9825946E2,4.6872314E1,1.3509808E2,1.329451E2,6.091736E1,1.287262E1,1.53737E2,6.232654E1,8.1576164E1,3.3276367E1,1.4996674E1,5.6468506E0,1.0019104E1,6.3934326E-3,0E0,0E0,0E0,0E0,0E0,0E0,0E0,0E0,0E0,0E0,0E0,0E0,0E0,0E0,0E0,0E0],"parents":[2147483647,0,0,1,1,2,2,3,3,4,4,5,5,6,6,7,7,8,8,9,9,10,10,11,11,12,12,13,13,14,14],"right_children":[2,4,6,8,10,12,14,16,18,20,22,24,26,28,30,-1,-1,-1,-1,-1,-1,-1,-1,-1,-1,-1,-1,-1,-1,-1,-1],"split_conditions":[3.6921738E1,3.6464287E1,5.047938E1,4E0,2.1761145E1,4.0143936E1,1.3875563E1,2E0,1.5499997E1,6.959085E1,5.315482E1,1.0802236E1,5.092646E1,6.64003E1,4E0,-1.5322179E-2,3.135971E-2,1.3534446E-2,-1.5353994E-2,1.3359765E-2,-1.399378E-2,-8.750924E-3,-2.745266E-2,-7.5211423E-3,-2.4072962E-2,-3.0027268E-2,-4.2679794E-2,-2.9241187E-2,-4.262235E-2,-4.0811174E-2,-4.761853E-2],"split_indices":[0,1,0,10,0,1,8,12,0,1,1,8,1,0,11,0,0,0,0,0,0,0,0,0,0,0,0,0,0,0,0],"split_type":[0,0,0,0,0,0,0,0,0,0,0,0,0,0,0,0,0,0,0,0,0,0,0,0,0,0,0,0,0,0,0],"sum_hessian":[7.8487705E3,5.599116E3,2.2496545E3,3.089666E3,2.50945E3,1.1190791E3,1.1305754E3,2.2550706E3,8.3459546E2,1.5293737E3,9.8007623E2,7.351331E2,3.8394595E2,9.173448E2,2.1323059E2,1.9226016E2,2.0628103E3,5.542598E2,2.8033563E2,1.175504E3,3.5386963E2,5.7224646E2,4.0782977E2,5.5358044E2,1.815527E2,1.9907603E2,1.8486992E2,7.370045E2,1.8034029E2,6.3961533E1,1.4926906E2],"tree_param":{"num_deleted":"0","num_feature":"18","num_nodes":"31","size_leaf_vector":"1"}},{"base_weights":[-7.7063716E-3,2.6559716E-1,-3.9313605E-1,3.9517868E-1,-6.691775E-2,-1.7728381E-1,-5.9943783E-1,5.828841E-1,1.3268194E-1,3.8177427E-2,-4.761344E-1,1.5403562E-2,-5.289556E-1,-4.266349E-1,-6.8782616E-1,-9.494836E-3,3.288125E-2,7.049887E-2,3.7829806E-3,1.4433168E-2,-9.206038E-3,3.5360496E-2,-2.752364E-2,-3.8917467E-2,2.6014138E-3,-1.9055E-2,-3.4829017E-2,-7.849737E-3,-2.7983716E-2,-3.1935517E-2,-4.5082998E-2],"categories":[],"categories_nodes":[],"categories_segments":[],"categories_sizes":[],"default_left":[0,0,0,0,0,0,0,0,0,0,0,0,0,0,0,0,0,0,0,0,0,0,0,0,0,0,0,0,0,0,0],"id":19,"left_children":[1,3,5,7,9,11,13,15,17,19,21,23,25,27,29,-1,-1,-1,-1,-1,-1,-1,-1,-1,-1,-1,-1,-1,-1,-1,-1],"loss_changes":[8.2519904E2,1.9752301E2,1.4462503E2,1.6244153E2,5.533291E1,1.0773247E2,2.5082642E1,1.1118732E2,1.0015091E2,5.708842E1,2.3515717E1,2.992494E1,1.3681763E1,2.0175407E1,1.0951355E1,0E0,0E0,0E0,0E0,0E0,0E0,0E0,0E0,0E0,0E0,0E0,0E0,0E0,0E0,0E0,0E0],"parents":[2147483647,0,0,1,1,2,2,3,3,4,4,5,5,6,6,7,7,8,8,9,9,10,10,11,11,12,12,13,13,14,14],"right_children":[2,4,6,8,10,12,14,16,18,20,22,24,26,28,30,-1,-1,-1,-1,-1,-1,-1,-1,-1,-1,-1,-1,-1,-1,-1,-1],"split_conditions":[2.915476E1,4.8512234E1,4.2015366E1,3E0,7.633065E1,4.042608E1,2.0483225E1,2E0,5.2509828E0,1.2987399E1,4.472136E0,2E0,5.2798195E1,5.1166275E1,1.4240006E1,-9.494836E-3,3.288125E-2,7.049887E-2,3.7829806E-3,1.4433168E-2,-9.206038E-3,3.5360496E-2,-2.752364E-2,-3.8917467E-2,2.6014138E-3,-1.9055E-2,-3.4829017E-2,-7.849737E-3,-2.7983716E-2,-3.1935517E-2,-4.5082998E-2],"split_indices":[0,1,0,10,1,1,1,12,0,0,0,12,1,0,8,0,0,0,0,0,0,0,0,0,0,0,0,0,0,0,0],"split_type":[0,0,0,0,0,0,0,0,0,0,0,0,0,0,0,0,0,0,0,0,0,0,0,0,0,0,0,0,0,0,0],"sum_hessian":[7.831733E3,4.582587E3,3.249146E3,3.297398E3,1.285189E3,1.5887285E3,1.6604175E3,1.9218829E3,1.375515E3,1.02329315E3,2.6189584E2,1.0269824E3,5.617461E2,5.638649E2,1.0965526E3,1.6935036E2,1.7525326E3,5.7768936E1,1.3177461E3,4.8100143E2,5.422917E2,1.4976793E1,2.4691904E2,4.4402946E1,9.8257947E2,3.0021286E2,2.6153323E2,1.8701297E2,3.7685196E2,8.9497186E2,2.0158069E2],"tree_param":{"num_deleted":"0","num_feature":"18","num_nodes":"31","size_leaf_vector":"1"}},{"base_weights":[-9.4302994E-4,1.9152357E-1,-5.147648E-1,3.5421672E-1,-6.5907136E-2,-3.3425456E-1,-6.1873114E-1,-3.4361318E-1,4.0823677E-1,4.547942E-1,-1.7666765E-1,-1.9342053E-1,-7.007596E-1,-5.615999E-1,-8.7521416E-1,2.7003953E-2,-2.1100111E-2,2.6138538E-2,4.3986007E-3,3.740507E-2,1.3939542E-4,-4.223857E-3,-2.5643481E-2,-4.5747157E-2,-7.998605E-3,-2.7411709E-2,-3.948936E-2,-2.1229705E-2,-3.3708114E-2,-4.5965068E-2,-3.8951237E-2],"categories":[],"categories_nodes":[],"categories_segments":[],"categories_sizes":[],"default_left":[0,0,0,0,0,0,0,0,0,0,0,0,0,0,0,0,0,0,0,0,0,0,0,0,0,0,0,0,0,0,0],"id":20,"left_children":[1,3,5,7,9,11,13,15,17,19,21,23,25,27,29,-1,-1,-1,-1,-1,-1,-1,-1,-1,-1,-1,-1,-1,-1,-1,-1],"loss_changes":[7.7663556E2,2.3930516E2,3.9955322E1,1.3211392E2,1.2772753E2,4.034652E1,1.9389343E1,1.7690128E1,1.1916205E2,5.1503624E1,5.6546314E1,1.3560543E1,2.5181503E0,1.6868652E1,3.2440186E-1,0E0,0E0,0E0,0E0,0E0,0E0,0E0,0E0,0E0,0E0,0E0,0E0,0E0,0E0,0E0,0E0],"parents":[2147483647,0,0,1,1,2,2,3,3,4,4,5,5,6,6,7,7,8,8,9,9,10,10,11,11,12,12,13,13,14,14],"right_children":[2,4,6,8,10,12,14,16,18,20,22,24,26,28,30,-1,-1,-1,-1,-1,-1,-1,-1,-1,-1,-1,-1,-1,-1,-1,-1],"split_conditions":[3.6921738E1,3.988029E1,4.552011E1,2E0,7.9417343E0,4.3602818E1,1.3875563E1,1E0,4E0,6.603751E1,6.87534E1,2E0,5.092646E1,2.477514E1,4E0,2.7003953E-2,-2.1100111E-2,2.6138538E-2,4.3986007E-3,3.740507E-2,1.3939542E-4,-4.223857E-3,-2.5643481E-2,-4.5747157E-2,-7.998605E-3,-2.7411709E-2,-3.948936E-2,-2.1229705E-2,-3.3708114E-2,-4.5965068E-2,-3.8951237E-2],"split_indices":[0,1,0,12,0,1,8,6,10,1,1,12,1,1,12,0,0,0,0,0,0,0,0,0,0,0,0,0,0,0,0],"split_type":[0,0,0,0,0,0,0,0,0,0,0,0,0,0,0,0,0,0,0,0,0,0,0,0,0,0,0,0,0,0,0],"sum_hessian":[7.8512524E3,5.712209E3,2.1390435E3,3.499923E3,2.2122861E3,7.832869E2,1.3557566E3,2.5108258E2,3.2488403E3,3.8749753E2,1.8247885E3,5.669552E2,2.1633174E2,1.1113864E3,2.4437022E2,1.9977972E1,2.311046E2,2.3925703E3,8.5626996E2,2.3460628E2,1.5289127E2,1.4330741E3,3.917144E2,2.395093E1,5.430043E2,8.23701E1,1.3396164E2,5.0341928E2,6.0796704E2,1.617E2,8.267023E1],"tree_param":{"num_deleted":"0","num_feature":"18","num_nodes":"31","size_leaf_vector":"1"}},{"base_weights":[-1.6567825E-3,2.2541134E-1,-3.887283E-1,-3.5251766E-1,2.783606E-1,-2.1623969E-1,-5.943945E-1,1.7574054E-1,-4.5623255E-1,4.6884537E-1,9.907183E-2,-8.2926166E-1,-1.927895E-1,-5.33651E-1,-8.6877984E-1,1.4828056E-3,3.1168202E-2,-1.4378552E-2,-3.0785892E-2,4.2789046E-2,1.318081E-2,1.0696529E-2,-4.147143E-3,-2.7947167E-2,-4.5885406E-2,-8.462295E-3,-3.572059E-2,-2.303663E-2,-3.9212503E-2,-4.0577758E-2,-4.8850313E-2],"categories":[],"categories_nodes":[],"categories_segments":[],"categories_sizes":[],"default_left":[0,0,0,0,0,0,0,0,0,0,0,0,0,0,0,0,0,0,0,0,0,0,0,0,0,0,0,0,0,0,0],"id":21,"left_children":[1,3,5,7,9,11,13,15,17,19,21,23,25,27,29,-1,-1,-1,-1,-1,-1,-1,-1,-1,-1,-1,-1,-1,-1,-1,-1],"loss_changes":[6.876978E2,1.5100502E2,1.0249863E2,2.2780869E1,1.5425528E2,2.2480766E1,2.1520172E1,4.4751453E0,9.146561E0,1.737143E2,4.8702034E1,8.671684E-1,1.8524178E1,1.9419647E1,6.778717E-1,0E0,0E0,0E0,0E0,0E0,0E0,0E0,0E0,0E0,0E0,0E0,0E0,0E0,0E0,0E0,0E0],"parents":[2147483647,0,0,1,1,2,2,3,3,4,4,5,5,6,6,7,7,8,8,9,9,10,10,11,11,12,12,13,13,14,14],"right_children":[2,4,6,8,10,12,14,16,18,20,22,24,26,28,30,-1,-1,-1,-1,-1,-1,-1,-1,-1,-1,-1,-1,-1,-1,-1,-1],"split_conditions":[3.0811943E1,2E0,4.552011E1,5.9437237E0,5E0,2E0,1.3875563E1,1E0,1.6155495E1,5E0,3E0,4E0,3E0,6.3840973E1,7E0,1.4828056E-3,3.1168202E-2,-1.4378552E-2,-3.0785892E-2,4.2789046E-2,1.318081E-2,1.0696529E-2,-4.147143E-3,-2.7947167E-2,-4.5885406E-2,-8.462295E-3,-3.572059E-2,-2.303663E-2,-3.9212503E-2,-4.0577758E-2,-4.8850313E-2],"split_indices":[0,12,0,0,11,12,8,11,7,12,10,11,10,0,11,0,0,0,0,0,0,0,0,0,0,0,0,0,0,0,0],"split_type":[0,0,0,0,0,0,0,0,0,0,0,0,0,0,0,0,0,0,0,0,0,0,0,0,0,0,0,0,0,0,0],"sum_hessian":[7.8223887E3,4.930451E3,2.8919375E3,4.1333524E2,4.517116E3,1.5739471E3,1.3179905E3,6.771963E1,3.456156E2,2.1893906E3,2.3277256E3,5.6724487E1,1.5172227E3,1.0815104E3,2.3648006E2,5.1860813E1,1.5858813E1,1.693378E2,1.762778E2,7.576883E2,1.4317023E3,1.4270333E3,9.0069214E2,1.5788811E1,4.0935677E1,1.4529669E3,6.4255684E1,8.399448E2,2.4156555E2,1.6024774E2,7.6232315E1],"tree_param":{"num_deleted":"0","num_feature":"18","num_nodes":"31","size_leaf_vector":"1"}},{"base_weights":[-5.7704566E-4,1.7092216E-1,-4.9053517E-1,2.6955307E-1,-2.3233974E-1,-3.7120137E-1,-6.546479E-1,-3.7255418E-1,3.1711805E-1,1.1685002E0,-2.7020222E-1,-1.4525078E-1,-5.3905296E-1,-5.195916E-1,-7.4063057E-1,1.3349061E-2,-2.3577953E-2,5.1918793E-2,1.3170636E-2,7.71467E-2,2.8755689E-2,-5.496084E-3,-2.6759852E-2,-4.562223E-3,-2.9189993E-2,-2.335543E-2,-4.3195497E-2,-1.998164E-2,-3.7045304E-2,-3.3309933E-2,-4.152564E-2],"categories":[],"categories_nodes":[],"categories_segments":[],"categories_sizes":[],"default_left":[0,0,0,0,0,0,0,0,0,0,0,0,0,0,0,0,0,0,0,0,0,0,0,0,0,0,0,0,0,0,0],"id":22,"left_children":[1,3,5,7,9,11,13,15,17,19,21,23,25,27,29,-1,-1,-1,-1,-1,-1,-1,-1,-1,-1,-1,-1,-1,-1,-1,-1],"loss_changes":[6.555568E2,2.2991386E2,3.9371613E1,1.4194583E2,6.0578857E1,4.4427353E1,9.489349E0,2.0433334E1,1.6721814E2,5.797989E0,4.696396E1,1.1825552E1,1.5324066E1,8.574142E0,2.9067688E0,0E0,0E0,0E0,0E0,0E0,0E0,0E0,0E0,0E0,0E0,0E0,0E0,0E0,0E0,0E0,0E0],"parents":[2147483647,0,0,1,1,2,2,3,3,4,4,5,5,6,6,7,7,8,8,9,9,10,10,11,11,12,12,13,13,14,14],"right_children":[2,4,6,8,10,12,14,16,18,20,22,24,26,28,30,-1,-1,-1,-1,-1,-1,-1,-1,-1,-1,-1,-1,-1,-1,-1,-1],"split_conditions":[3.7148876E1,5.4804672E1,3.1647985E1,2E0,4E0,5.047938E1,4.410758E1,5.9437237E0,6.999202E0,5E0,1.9614862E1,1.6507574E1,6.6911476E1,4.984075E1,4.2E1,1.3349061E-2,-2.3577953E-2,5.1918793E-2,1.3170636E-2,7.71467E-2,2.8755689E-2,-5.496084E-3,-2.6759852E-2,-4.562223E-3,-2.9189993E-2,-2.335543E-2,-4.3195497E-2,-1.998164E-2,-3.7045304E-2,-3.3309933E-2,-4.152564E-2],"split_indices":[0,1,1,12,0,0,0,0,0,12,0,8,0,1,6,0,0,0,0,0,0,0,0,0,0,0,0,0,0,0,0],"split_type":[0,0,0,0,0,0,0,0,0,0,0,0,0,0,0,0,0,0,0,0,0,0,0,0,0,0,0,0,0,0,0],"sum_hessian":[7.799703E3,5.7779194E3,2.021784E3,4.642721E3,1.135198E3,1.1724814E3,8.493026E2,3.1972577E2,4.3229956E3,2.908925E1,1.1061086E3,5.005457E2,6.719357E2,3.3311273E2,5.161899E2,4.2633327E1,2.7709244E2,2.9831516E2,4.0246804E3,1.6853973E1,1.2235277E1,6.9011285E2,4.1599585E2,4.4673886E2,5.3806828E1,5.521024E2,1.1983329E2,2.1784184E2,1.1527088E2,2.8696478E2,2.2922508E2],"tree_param":{"num_deleted":"0","num_feature":"18","num_nodes":"31","size_leaf_vector":"1"}},{"base_weights":[-7.2794827E-3,1.6664223E-1,-4.3352413E-1,2.9817274E-1,-9.080852E-2,-2.5846016E-1,-5.7561904E-1,-2.381731E-1,3.369971E-1,9.269741E-2,-3.4242353E-1,-1.3275847E-1,-5.97883E-1,-4.130137E-1,-6.746861E-1,3.4603213E-3,-2.1685865E-2,5.9204664E-2,1.5552752E-2,1.1456936E-2,-1.5332855E-2,-1.1042906E-2,-3.0439813E-2,-4.092504E-3,-2.869208E-2,-2.0983854E-2,-3.457321E-2,-1.661327E-2,-3.9890487E-2,-3.0157873E-2,-4.2475626E-2],"categories":[],"categories_nodes":[],"categories_segments":[],"categories_sizes":[],"default_left":[0,0,0,0,0,0,0,0,0,0,0,0,0,0,0,0,0,0,0,0,0,0,0,0,0,0,0,0,0,0,0],"id":23,"left_children":[1,3,5,7,9,11,13,15,17,19,21,23,25,27,29,-1,-1,-1,-1,-1,-1,-1,-1,-1,-1,-1,-1,-1,-1,-1,-1],"loss_changes":[5.788198E2,1.8780344E2,5.613553E1,7.651004E1,8.664458E1,4.3249023E1,1.9826721E1,1.4956824E1,7.485483E1,5.9218475E1,2.5489868E1,1.6622612E1,4.281952E0,1.4496971E1,9.166534E0,0E0,0E0,0E0,0E0,0E0,0E0,0E0,0E0,0E0,0E0,0E0,0E0,0E0,0E0,0E0,0E0],"parents":[2147483647,0,0,1,1,2,2,3,3,4,4,5,5,6,6,7,7,8,8,9,9,10,10,11,11,12,12,13,13,14,14],"right_children":[2,4,6,8,10,12,14,16,18,20,22,24,26,28,30,-1,-1,-1,-1,-1,-1,-1,-1,-1,-1,-1,-1,-1,-1,-1,-1],"split_conditions":[3.4669872E1,4.307227E1,4.552011E1,2E0,1.8349752E1,4.3602818E1,2.1765543E1,5.1352115E0,5.6341834E0,7.134043E1,6.364437E1,1.721705E1,3.782397E1,1.3367966E1,6.1E1,3.4603213E-3,-2.1685865E-2,5.9204664E-2,1.5552752E-2,1.1456936E-2,-1.5332855E-2,-1.1042906E-2,-3.0439813E-2,-4.092504E-3,-2.869208E-2,-2.0983854E-2,-3.457321E-2,-1.661327E-2,-3.9890487E-2,-3.0157873E-2,-4.2475626E-2],"split_indices":[0,1,0,12,0,1,1,5,0,1,1,8,0,8,6,0,0,0,0,0,0,0,0,0,0,0,0,0,0,0,0],"split_type":[0,0,0,0,0,0,0,0,0,0,0,0,0,0,0,0,0,0,0,0,0,0,0,0,0,0,0,0,0,0,0],"sum_hessian":[7.8058613E3,5.5442397E3,2.2616216E3,3.6694004E3,1.8748392E3,1.01452454E3,1.247097E3,2.4734023E2,3.42206E3,1.0845183E3,7.90321E2,7.413606E2,2.7316397E2,4.740977E2,7.729994E2,9.642075E1,1.5091948E2,1.0035883E2,3.3217014E3,8.0866156E2,2.7585672E2,5.439197E2,2.464013E2,6.657118E2,7.564876E1,9.5943665E1,1.772203E2,3.9340607E2,8.069161E1,5.517189E2,2.2128053E2],"tree_param":{"num_deleted":"0","num_feature":"18","num_nodes":"31","size_leaf_vector":"1"}},{"base_weights":[-5.2378345E-3,2.023223E-1,-3.4014824E-1,2.7728298E-1,-1.9104259E-1,-1.932414E-1,-5.5450547E-1,4.3275094E-1,3.960836E-2,6.400541E-1,-2.579196E-1,-4.5341916E-2,-4.9279487E-1,-4.815036E-1,-8.149937E-1,2.4781458E-2,-7.4951956E-3,2.6282748E-2,-4.2090924E-3,4.850362E-2,1.0680144E-2,-6.4824778E-3,-2.6593406E-2,-1.48156425E-2,1.1186888E-3,-1.59495E-2,-3.2658678E-2,-1.8149966E-2,-3.220291E-2,-3.6618166E-2,-4.4944312E-2],"categories":[],"categories_nodes":[],"categories_segments":[],"categories_sizes":[],"default_left":[0,0,0,0,0,0,0,0,0,0,0,0,0,0,0,0,0,0,0,0,0,0,0,0,0,0,0,0,0,0,0],"id":24,"left_children":[1,3,5,7,9,11,13,15,17,19,21,23,25,27,29,-1,-1,-1,-1,-1,-1,-1,-1,-1,-1,-1,-1,-1,-1,-1,-1],"loss_changes":[5.4257336E2,1.4214468E2,9.3937256E1,1.4955649E2,4.306801E1,7.855244E1,2.269101E1,8.972583E1,9.64238E1,7.9237823E0,2.5059963E1,2.0203524E1,1.6129486E1,1.807817E1,1.1736908E0,0E0,0E0,0E0,0E0,0E0,0E0,0E0,0E0,0E0,0E0,0E0,0E0,0E0,0E0,0E0,0E0],"parents":[2147483647,0,0,1,1,2,2,3,3,4,4,5,5,6,6,7,7,8,8,9,9,10,10,11,11,12,12,13,13,14,14],"right_children":[2,4,6,8,10,12,14,16,18,20,22,24,26,28,30,-1,-1,-1,-1,-1,-1,-1,-1,-1,-1,-1,-1,-1,-1,-1,-1],"split_conditions":[2.9410883E1,5.924577E1,4.552011E1,3E0,5.035506E0,4.0601295E1,1.2250283E1,2.0518284E1,7.596664E0,6E0,7.633065E1,2.6560266E1,5.092646E1,2.9289183E1,1.8591745E1,2.4781458E-2,-7.4951956E-3,2.6282748E-2,-4.2090924E-3,4.850362E-2,1.0680144E-2,-6.4824778E-3,-2.6593406E-2,-1.48156425E-2,1.1186888E-3,-1.59495E-2,-3.2658678E-2,-1.8149966E-2,-3.220291E-2,-3.6618166E-2,-4.4944312E-2],"split_indices":[0,1,0,10,0,1,8,8,0,10,1,7,1,1,8,0,0,0,0,0,0,0,0,0,0,0,0,0,0,0,0],"split_type":[0,0,0,0,0,0,0,0,0,0,0,0,0,0,0,0,0,0,0,0,0,0,0,0,0,0,0,0,0,0,0],"sum_hessian":[7.803242E3,4.817809E3,2.985433E3,4.0469138E3,7.708955E2,1.7725449E3,1.2128882E3,2.446068E3,1.6008456E3,5.67745E1,7.1412103E2,1.1874252E3,5.851198E2,9.4960864E2,2.6327957E2,2.2079434E3,2.3812474E2,3.2429517E2,1.2765504E3,3.1287367E1,2.5487135E1,4.8738672E2,2.267343E2,2.515911E2,9.3583405E2,2.8224045E2,3.0287936E2,5.510902E2,3.9851843E2,1.3753935E2,1.2574022E2],"tree_param":{"num_deleted":"0","num_feature":"18","num_nodes":"31","size_leaf_vector":"1"}},{"base_weights":[-2.2488374E-3,1.2901711E-1,-4.8115394E-1,3.080391E-1,-4.4577867E-2,-2.6577812E-1,-5.9268713E-1,4.139932E-1,9.240876E-3,1.02403305E-1,-2.55689E-1,-1.8809548E-2,-4.4981027E-1,-5.568278E-1,-8.6666036E-1,-1.3783837E-2,2.3385687E-2,8.703874E-3,-1.6738208E-2,4.6899997E-2,3.0705556E-3,-6.939178E-3,-2.556477E-2,4.2284536E-3,-2.074352E-2,-1.9246263E-2,-4.7366712E-2,-2.5814397E-2,-4.1237045E-2,-2.90743E-2,-4.5573212E-2],"categories":[],"categories_nodes":[],"categories_segments":[],"categories_sizes":[],"default_left":[0,0,0,0,0,0,0,0,0,0,0,0,0,0,0,0,0,0,0,0,0,0,0,0,0,0,0,0,0,0,0],"id":25,"left_children":[1,3,5,7,9,11,13,15,17,19,21,23,25,27,29,-1,-1,-1,-1,-1,-1,-1,-1,-1,-1,-1,-1,-1,-1,-1,-1],"loss_changes":[4.9021466E2,1.90221E2,4.0140747E1,9.539249E1,9.647161E1,2.6087372E1,1.0367798E1,8.254303E1,4.4844597E1,6.2732605E1,3.806012E1,1.01157465E1,1.02547455E1,1.0211578E1,1.0802078E0,0E0,0E0,0E0,0E0,0E0,0E0,0E0,0E0,0E0,0E0,0E0,0E0,0E0,0E0,0E0,0E0],"parents":[2147483647,0,0,1,1,2,2,3,3,4,4,5,5,6,6,7,7,8,8,9,9,10,10,11,11,12,12,13,13,14,14],"right_children":[2,4,6,8,10,12,14,16,18,20,22,24,26,28,30,-1,-1,-1,-1,-1,-1,-1,-1,-1,-1,-1,-1,-1,-1,-1,-1],"split_conditions":[3.940812E1,3.1647985E1,2.0483225E1,4E0,2.1761145E1,5.1166275E1,1.8027756E1,2E0,1.5499997E1,4.472136E0,5.315482E1,1.1507714E1,6.744416E1,4.8820107E1,4.2015366E1,-1.3783837E-2,2.3385687E-2,8.703874E-3,-1.6738208E-2,4.6899997E-2,3.0705556E-3,-6.939178E-3,-2.556477E-2,4.2284536E-3,-2.074352E-2,-1.9246263E-2,-4.7366712E-2,-2.5814397E-2,-4.1237045E-2,-2.90743E-2,-4.5573212E-2],"split_indices":[0,1,1,10,0,0,8,12,0,0,1,8,0,1,0,0,0,0,0,0,0,0,0,0,0,0,0,0,0,0,0],"split_type":[0,0,0,0,0,0,0,0,0,0,0,0,0,0,0,0,0,0,0,0,0,0,0,0,0,0,0,0,0,0,0],"sum_hessian":[7.7960396E3,6.1194526E3,1.6765867E3,3.012254E3,3.1071987E3,5.731638E2,1.1034229E3,2.223436E3,7.888178E2,1.8321337E3,1.2750651E3,2.4520471E2,3.2795914E2,9.783966E2,1.2502625E2,1.6037636E2,2.0630598E3,5.3361835E2,2.551995E2,8.4653336E1,1.7474803E3,8.759699E2,3.9909518E2,1.9507364E2,5.0131065E1,2.9169162E2,3.6267513E1,8.523487E2,1.2604794E2,1.88738E1,1.0615246E2],"tree_param":{"num_deleted":"0","num_feature":"18","num_nodes":"31","size_leaf_vector":"1"}},{"base_weights":[-4.376833E-3,2.1154018E-1,-2.7993634E-1,-3.3411622E-1,2.6299858E-1,-1.5031625E-1,-5.333239E-1,4.286256E-1,-4.0627104E-1,6.078419E-1,1.6851969E-1,-1.8009426E-2,-4.9129382E-1,-4.575889E-1,-8.053735E-1,1.02634646E-1,-2.269293E-2,-1.36996955E-2,-3.2314043E-2,4.9917858E-2,9.433839E-3,1.0863534E-2,-1.0362402E-2,-3.4303915E-2,3.0599578E-4,-1.5419185E-2,-3.032246E-2,-1.8985547E-2,-3.6989782E-2,-3.1177068E-2,-4.389286E-2],"categories":[],"categories_nodes":[],"categories_segments":[],"categories_sizes":[],"default_left":[0,0,0,0,0,0,0,0,0,0,0,0,0,0,0,0,0,0,0,0,0,0,0,0,0,0,0,0,0,0,0],"id":26,"left_children":[1,3,5,7,9,11,13,15,17,19,21,23,25,27,29,-1,-1,-1,-1,-1,-1,-1,-1,-1,-1,-1,-1,-1,-1,-1,-1],"loss_changes":[4.6262555E2,1.2249782E2,1.12113434E2,2.0875141E1,1.2971115E2,1.0200613E2,2.34422E1,4.821897E1,1.07487755E1,1.4001025E2,5.736384E1,2.6282837E1,1.312709E1,1.9637695E1,2.752121E0,0E0,0E0,0E0,0E0,0E0,0E0,0E0,0E0,0E0,0E0,0E0,0E0,0E0,0E0,0E0,0E0],"parents":[2147483647,0,0,1,1,2,2,3,3,4,4,5,5,6,6,7,7,8,8,9,9,10,10,11,11,12,12,13,13,14,14],"right_children":[2,4,6,8,10,12,14,16,18,20,22,24,26,28,30,-1,-1,-1,-1,-1,-1,-1,-1,-1,-1,-1,-1,-1,-1,-1,-1],"split_conditions":[2.6182241E1,2E0,4.552011E1,1E0,1E0,4.3602818E1,1.2250283E1,1E0,4.8512234E1,6E0,6.465415E1,2E0,5.092646E1,6.3840973E1,4E0,1.02634646E-1,-2.269293E-2,-1.36996955E-2,-3.2314043E-2,4.9917858E-2,9.433839E-3,1.0863534E-2,-1.0362402E-2,-3.4303915E-2,3.0599578E-4,-1.5419185E-2,-3.032246E-2,-1.8985547E-2,-3.6989782E-2,-3.1177068E-2,-4.389286E-2],"split_indices":[0,12,0,6,11,1,8,3,1,12,1,12,1,0,11,0,0,0,0,0,0,0,0,0,0,0,0,0,0,0,0],"split_type":[0,0,0,0,0,0,0,0,0,0,0,0,0,0,0,0,0,0,0,0,0,0,0,0,0,0,0,0,0,0,0],"sum_hessian":[7.7734873E3,4.358545E3,3.4149426E3,3.7513907E2,3.9834055E3,2.260288E3,1.1546544E3,3.1993923E1,3.4314514E2,8.554868E2,3.1279187E3,1.6291823E3,6.3110596E2,9.053103E2,2.4934413E2,1.0797274E1,2.119665E1,2.2260303E2,1.20542114E2,4.4216345E2,4.133234E2,2.7690874E3,3.588313E2,5.5835377E1,1.5733469E3,2.4524403E2,3.8586188E2,7.113509E2,1.9395943E2,7.380354E1,1.7554059E2],"tree_param":{"num_deleted":"0","num_feature":"18","num_nodes":"31","size_leaf_vector":"1"}},{"base_weights":[-6.0161846E-3,1.4000766E-1,-3.8035682E-1,3.1845644E-1,5.589997E-3,-2.4061714E-1,-5.348616E-1,4.3950537E-1,2.6876338E-2,2.0686765E-1,-1.2124235E-1,-8.748632E-2,-5.826803E-1,-4.2925522E-1,-6.914219E-1,2.9750496E-2,1.3275715E-2,8.87746E-3,-1.5039823E-2,2.1201236E-2,-1.2985909E-3,-1.5561405E-3,-2.1654502E-2,6.6120275E-3,-8.246162E-3,-2.1985367E-2,-3.692689E-2,-1.9339526E-2,-4.7000926E-2,-2.8938536E-2,-4.013153E-2],"categories":[],"categories_nodes":[],"categories_segments":[],"categories_sizes":[],"default_left":[0,0,0,0,0,0,0,0,0,0,0,0,0,0,0,0,0,0,0,0,0,0,0,0,0,0,0,0,0,0,0],"id":27,"left_children":[1,3,5,7,9,11,13,15,17,19,21,23,25,27,29,-1,-1,-1,-1,-1,-1,-1,-1,-1,-1,-1,-1,-1,-1,-1,-1],"loss_changes":[4.252577E2,1.3424164E2,4.7005707E1,8.4854645E1,8.154088E1,6.008957E1,1.6831635E1,4.58114E1,3.4931213E1,6.244016E1,5.505378E1,1.3536447E1,7.5829773E0,1.31119E1,4.742935E0,0E0,0E0,0E0,0E0,0E0,0E0,0E0,0E0,0E0,0E0,0E0,0E0,0E0,0E0,0E0,0E0],"parents":[2147483647,0,0,1,1,2,2,3,3,4,4,5,5,6,6,7,7,8,8,9,9,10,10,11,11,12,12,13,13,14,14],"right_children":[2,4,6,8,10,12,14,16,18,20,22,24,26,28,30,-1,-1,-1,-1,-1,-1,-1,-1,-1,-1,-1,-1,-1,-1,-1,-1],"split_conditions":[3.40147E1,2.7299572E1,4.730298E1,4E0,1.2987399E1,4.042608E1,2.987237E1,5E0,1.5499997E1,3E0,5.882661E1,1.284586E1,3.9655968E1,7.165539E1,3.8E1,2.9750496E-2,1.3275715E-2,8.87746E-3,-1.5039823E-2,2.1201236E-2,-1.2985909E-3,-1.5561405E-3,-2.1654502E-2,6.6120275E-3,-8.246162E-3,-2.1985367E-2,-3.692689E-2,-1.9339526E-2,-4.7000926E-2,-2.8938536E-2,-4.013153E-2],"split_indices":[0,1,0,10,0,1,1,11,0,10,1,1,0,0,6,0,0,0,0,0,0,0,0,0,0,0,0,0,0,0,0],"split_type":[0,0,0,0,0,0,0,0,0,0,0,0,0,0,0,0,0,0,0,0,0,0,0,0,0,0,0,0,0,0,0],"sum_hessian":[7.7777E3,5.595585E3,2.1821152E3,2.403458E3,3.1921267E3,1.1471494E3,1.034966E3,1.6980206E3,7.0543744E2,1.2336866E3,1.9584402E3,7.932792E2,3.5387018E2,6.202939E2,4.1467203E2,8.9536676E2,8.0265393E2,4.8354736E2,2.2189008E2,6.379154E2,5.957712E2,1.5202185E3,4.3822174E2,2.0653355E2,5.8674567E2,1.865569E2,1.6731328E2,5.743038E2,4.5990128E1,2.0908215E2,2.0558989E2],"tree_param":{"num_deleted":"0","num_feature":"18","num_nodes":"31","size_leaf_vector":"1"}},{"base_weights":[9.447534E-3,1.2291135E-1,-4.371557E-1,-3.8636687E-1,1.6099994E-1,-3.7072632E-1,-6.913633E-1,1.05053574E-1,-4.8005474E-1,3.4510782E-1,2.3715874E-2,-3.1388313E-1,-6.927686E-1,-5.219787E-1,-7.883587E-1,2.5402663E-2,-2.0098577E-3,-2.2062968E-2,-4.2620417E-2,3.5938922E-2,1.1104594E-2,5.177119E-3,-1.935735E-2,-1.2116459E-2,-1.9821865E-2,-3.0150333E-2,-4.6232145E-2,-1.6703798E-2,-3.4685012E-2,-3.0686138E-2,-4.284176E-2],"categories":[],"categories_nodes":[],"categories_segments":[],"categories_sizes":[],"default_left":[0,0,0,0,0,0,0,0,0,0,0,0,0,0,0,0,0,0,0,0,0,0,0,0,0,0,0,0,0,0,0],"id":28,"left_children":[1,3,5,7,9,11,13,15,17,19,21,23,25,27,29,-1,-1,-1,-1,-1,-1,-1,-1,-1,-1,-1,-1,-1,-1,-1,-1],"loss_changes":[3.9317334E2,1.20076225E2,2.6288086E1,1.9885406E1,1.4550574E2,2.2635391E1,4.919998E0,4.1064377E0,4.8533936E0,1.1288095E2,1.08241936E2,6.1827087E0,3.3233948E0,3.676445E0,1.9182892E0,0E0,0E0,0E0,0E0,0E0,0E0,0E0,0E0,0E0,0E0,0E0,0E0,0E0,0E0,0E0,0E0],"parents":[2147483647,0,0,1,1,2,2,3,3,4,4,5,5,6,6,7,7,8,8,9,9,10,10,11,11,12,12,13,13,14,14],"right_children":[2,4,6,8,10,12,14,16,18,20,22,24,26,28,30,-1,-1,-1,-1,-1,-1,-1,-1,-1,-1,-1,-1,-1,-1,-1,-1],"split_conditions":[3.940812E1,2E0,1.2412191E1,5.9437237E0,1.5499997E1,6.3840973E1,4.792703E1,3.2831268E0,3.102812E1,1E0,3E0,5.047938E1,7.165539E1,1.7492855E1,4E0,2.5402663E-2,-2.0098577E-3,-2.2062968E-2,-4.2620417E-2,3.5938922E-2,1.1104594E-2,5.177119E-3,-1.935735E-2,-1.2116459E-2,-1.9821865E-2,-3.0150333E-2,-4.6232145E-2,-1.6703798E-2,-3.4685012E-2,-3.0686138E-2,-4.284176E-2],"split_indices":[0,12,8,0,0,0,0,9,0,11,10,0,0,8,11,0,0,0,0,0,0,0,0,0,0,0,0,0,0,0,0],"split_type":[0,0,0,0,0,0,0,0,0,0,0,0,0,0,0,0,0,0,0,0,0,0,0,0,0,0,0,0,0,0,0],"sum_hessian":[7.756923E3,6.186028E3,1.5708948E3,4.2981924E2,5.756209E3,1.2473866E3,3.2350812E2,6.8803474E1,3.6101578E2,2.4581448E3,3.298064E3,1.0619229E3,1.8546373E2,1.20120804E2,2.0338731E2,1.7566704E1,5.123677E1,3.2892978E2,3.208601E1,6.076171E2,1.8505276E3,2.7621536E3,5.359105E2,5.7096967E2,4.909532E2,1.3630045E2,4.916329E1,5.8764465E1,6.135634E1,6.0093426E1,1.432939E2],"tree_param":{"num_deleted":"0","num_feature":"18","num_nodes":"31","size_leaf_vector":"1"}},{"base_weights":[-2.692428E-3,1.5739156E-1,-2.8484935E-1,-3.6510742E-1,2.0152174E-1,-1.6034293E-1,-4.8446855E-1,-7.307479E-2,-4.7964662E-1,3.2169312E-1,8.974968E-3,-7.093495E-1,-1.4195962E-1,-4.2385957E-1,-7.8655887E-1,2.4540158E-2,-9.4265025E-3,-3.1873535E-3,-2.751424E-2,2.2539644E-2,7.128145E-3,7.6838457E-3,-1.6106961E-2,-2.0365786E-2,-3.8388137E-2,-6.0067936E-3,-2.9456282E-2,-1.8800845E-2,-3.8905215E-2,-3.4903646E-2,-4.3892603E-2],"categories":[],"categories_nodes":[],"categories_segments":[],"categories_sizes":[],"default_left":[0,0,0,0,0,0,0,0,0,0,0,0,0,0,0,0,0,0,0,0,0,0,0,0,0,0,0,0,0,0,0],"id":29,"left_children":[1,3,5,7,9,11,13,15,17,19,21,23,25,27,29,-1,-1,-1,-1,-1,-1,-1,-1,-1,-1,-1,-1,-1,-1,-1,-1],"loss_changes":[3.4979187E2,1.1400013E2,6.95936E1,1.2848263E1,1.0543315E2,1.7338455E1,1.9373215E1,7.233447E0,8.087269E0,6.481781E1,8.399684E1,6.705837E-1,1.625761E1,1.4937317E1,8.3068085E-1,0E0,0E0,0E0,0E0,0E0,0E0,0E0,0E0,0E0,0E0,0E0,0E0,0E0,0E0,0E0,0E0],"parents":[2147483647,0,0,1,1,2,2,3,3,4,4,5,5,6,6,7,7,8,8,9,9,10,10,11,11,12,12,13,13,14,14],"right_children":[2,4,6,8,10,12,14,16,18,20,22,24,26,28,30,-1,-1,-1,-1,-1,-1,-1,-1,-1,-1,-1,-1,-1,-1,-1,-1],"split_conditions":[2.9410883E1,2E0,4.552011E1,7.074975E0,3E0,2E0,1.3875563E1,1E0,1E0,1.9614862E1,1.4519633E1,1.1507714E1,3E0,6.744416E1,2.0518284E1,2.4540158E-2,-9.4265025E-3,-3.1873535E-3,-2.751424E-2,2.2539644E-2,7.128145E-3,7.6838457E-3,-1.6106961E-2,-2.0365786E-2,-3.8388137E-2,-6.0067936E-3,-2.9456282E-2,-1.8800845E-2,-3.8905215E-2,-3.4903646E-2,-4.3892603E-2],"split_indices":[0,12,0,0,10,12,8,4,3,0,0,8,10,0,8,0,0,0,0,0,0,0,0,0,0,0,0,0,0,0,0],"split_type":[0,0,0,0,0,0,0,0,0,0,0,0,0,0,0,0,0,0,0,0,0,0,0,0,0,0,0,0,0,0,0],"sum_hessian":[7.74211E3,4.9398745E3,2.8022354E3,3.8416058E2,4.555714E3,1.726923E3,1.0753124E3,1.0868697E2,2.754736E2,2.8046306E3,1.7510834E3,5.4734127E1,1.6721888E3,8.976235E2,1.776889E2,1.791924E1,9.076774E1,4.0270958E1,2.3520264E2,1.6290513E3,1.1755795E3,1.2189288E3,5.3215454E2,1.0162173E1,4.4571953E1,1.5955856E3,7.660324E1,7.9263525E2,1.0498823E2,9.4622536E1,8.3066376E1],"tree_param":{"num_deleted":"0","num_feature":"18","num_nodes":"31","size_leaf_vector":"1"}},{"base_weights":[-2.9105968E-3,9.579052E-2,-4.091306E-1,2.587764E-1,-2.9557133E-2,-2.89718E-1,-5.926689E-1,-2.6943773E-1,2.930421E-1,8.6161815E-2,-2.0420118E-1,-2.2382121E-1,-8.089967E-1,-4.08753E-1,-6.7211753E-1,9.67791E-3,-2.5842017E-2,2.2153594E-2,7.4165114E-3,7.109952E-3,-2.1797156E-2,-4.757829E-3,-2.3388539E-2,-7.667607E-3,-3.423603E-2,-3.3257004E-2,-4.6443574E-2,-1.1422324E-2,-3.3782285E-2,-3.167004E-2,-4.7782335E-2],"categories":[],"categories_nodes":[],"categories_segments":[],"categories_sizes":[],"default_left":[0,0,0,0,0,0,0,0,0,0,0,0,0,0,0,0,0,0,0,0,0,0,0,0,0,0,0,0,0,0,0],"id":30,"left_children":[1,3,5,7,9,11,13,15,17,19,21,23,25,27,29,-1,-1,-1,-1,-1,-1,-1,-1,-1,-1,-1,-1,-1,-1,-1,-1],"loss_changes":[3.1041364E2,1.2725917E2,3.2997284E1,4.909114E1,7.119147E1,3.1260216E1,8.427765E0,1.9055655E1,5.515486E1,6.205653E1,4.0303013E1,2.6422134E1,1.1598892E0,8.614439E0,3.943222E0,0E0,0E0,0E0,0E0,0E0,0E0,0E0,0E0,0E0,0E0,0E0,0E0,0E0,0E0,0E0,0E0],"parents":[2147483647,0,0,1,1,2,2,3,3,4,4,5,5,6,6,7,7,8,8,9,9,10,10,11,11,12,12,13,13,14,14],"right_children":[2,4,6,8,10,12,14,16,18,20,22,24,26,28,30,-1,-1,-1,-1,-1,-1,-1,-1,-1,-1,-1,-1,-1,-1,-1,-1],"split_conditions":[3.940812E1,2.754242E1,3.1647985E1,2E0,2.226568E1,6.64003E1,4.410758E1,8.062258E0,5E0,7.633065E1,5.134019E1,1.4809203E1,7.0724815E1,7.1151247E0,1.8591745E1,9.67791E-3,-2.5842017E-2,2.2153594E-2,7.4165114E-3,7.109952E-3,-2.1797156E-2,-4.757829E-3,-2.3388539E-2,-7.667607E-3,-3.423603E-2,-3.3257004E-2,-4.6443574E-2,-1.1422324E-2,-3.3782285E-2,-3.167004E-2,-4.7782335E-2],"split_indices":[0,1,1,12,0,0,0,7,11,1,1,8,0,8,8,0,0,0,0,0,0,0,0,0,0,0,0,0,0,0,0],"split_type":[0,0,0,0,0,0,0,0,0,0,0,0,0,0,0,0,0,0,0,0,0,0,0,0,0,0,0,0,0,0,0],"sum_hessian":[7.7400986E3,6.227692E3,1.5124064E3,2.706911E3,3.5207812E3,9.17831E2,5.945754E2,1.6448418E2,2.5424268E3,2.117942E3,1.4028394E3,8.1574365E2,1.0208735E2,1.812181E2,4.1335727E2,5.735887E1,1.0712531E2,1.247265E3,1.2951616E3,1.9133146E3,2.046273E2,9.9326465E2,4.0957465E2,7.087173E2,1.07026375E2,4.9378693E1,5.2708656E1,1.092603E2,7.1957794E1,3.6653925E2,4.6818024E1],"tree_param":{"num_deleted":"0","num_feature":"18","num_nodes":"31","size_leaf_vector":"1"}},{"base_weights":[-4.4959704E-3,1.4388019E-1,-2.690025E-1,2.3264371E-1,-9.2035845E-2,-1.7836547E-1,-4.9324283E-1,3.332731E-1,-2.8203025E-2,-1.3635452E-2,-4.539171E-1,-5.3550553E-2,-4.6477205E-1,-4.3838614E-1,-7.925597E-1,2.5923764E-2,1.3090192E-2,5.9846878E-2,-2.9273632E-3,8.025194E-3,-9.074821E-3,-1.919697E-2,-4.2613205E-2,-1.4911353E-3,-3.0648276E-2,-1.565648E-2,-3.079673E-2,-1.8247796E-2,-3.75114E-2,-4.125017E-2,-2.009485E-2],"categories":[],"categories_nodes":[],"categories_segments":[],"categories_sizes":[],"default_left":[0,0,0,0,0,0,0,0,0,0,0,0,0,0,0,0,0,0,0,0,0,0,0,0,0,0,0,0,0,0,0],"id":31,"left_children":[1,3,5,7,9,11,13,15,17,19,21,23,25,27,29,-1,-1,-1,-1,-1,-1,-1,-1,-1,-1,-1,-1,-1,-1,-1,-1],"loss_changes":[3.0349603E2,1.0376371E2,5.6393784E1,9.450485E1,3.8440376E1,7.077855E1,1.2777771E1,3.425052E1,3.7361366E1,3.2617085E1,6.398308E0,1.8307405E1,1.3584518E1,1.5246719E1,1.2219925E0,0E0,0E0,0E0,0E0,0E0,0E0,0E0,0E0,0E0,0E0,0E0,0E0,0E0,0E0,0E0,0E0],"parents":[2147483647,0,0,1,1,2,2,3,3,4,4,5,5,6,6,7,7,8,8,9,9,10,10,11,11,12,12,13,13,14,14],"right_children":[2,4,6,8,10,12,14,16,18,20,22,24,26,28,30,-1,-1,-1,-1,-1,-1,-1,-1,-1,-1,-1,-1,-1,-1,-1,-1],"split_conditions":[2.915476E1,4.758234E1,5.047938E1,4E0,7.633065E1,4.0853645E1,6.744416E1,1.0392041E1,4.472136E0,1.2987399E1,3.9E1,3E0,5.092646E1,3.6869896E1,3.4695152E1,2.5923764E-2,1.3090192E-2,5.9846878E-2,-2.9273632E-3,8.025194E-3,-9.074821E-3,-1.919697E-2,-4.2613205E-2,-1.4911353E-3,-3.0648276E-2,-1.565648E-2,-3.079673E-2,-1.8247796E-2,-3.75114E-2,-4.125017E-2,-2.009485E-2],"split_indices":[0,1,0,10,1,1,0,0,0,0,5,10,1,1,1,0,0,0,0,0,0,0,0,0,0,0,0,0,0,0,0],"split_type":[0,0,0,0,0,0,0,0,0,0,0,0,0,0,0,0,0,0,0,0,0,0,0,0,0,0,0,0,0,0,0],"sum_hessian":[7.7310938E3,4.953091E3,2.7780032E3,3.5989849E3,1.354106E3,1.9796373E3,7.983659E2,2.5968823E3,1.00210236E3,1.1138348E3,2.40271E2,1.3795999E3,6.000375E2,6.767927E2,1.2157315E2,7.2135126E2,1.8755312E3,2.3290955E1,9.788114E2,5.467152E2,5.671197E2,2.0603978E2,3.4231224E1,1.324475E3,5.512491E1,3.010766E2,2.9896088E2,5.4955725E2,1.2723546E2,1.1122439E2,1.0348764E1],"tree_param":{"num_deleted":"0","num_feature":"18","num_nodes":"31","size_leaf_vector":"1"}},{"base_weights":[4.868439E-4,1.3925616E-1,-1.1183321E-1,-3.7808973E-1,1.6838506E-1,1.13798855E-2,-2.2856042E-1,1.24022715E-1,-6.161925E-1,2.9698426E-1,5.307875E-2,-3.9887944E-1,5.4417893E-2,-5.264565E-1,-1.9381687E-1,1.9649576E-2,-1.5488388E-2,-3.8755506E-2,-2.2554161E-2,2.7077941E-2,8.3906185E-3,-2.4060955E-2,4.884438E-3,6.4267963E-3,-2.2368101E-2,1.940465E-2,-4.309477E-3,-1.6115803E-2,-3.5389822E-2,-6.1897407E-3,-1.7041324E-2],"categories":[],"categories_nodes":[],"categories_segments":[],"categories_sizes":[],"default_left":[0,0,0,0,0,0,0,0,0,0,0,0,0,0,0,0,0,0,0,0,0,0,0,0,0,0,0,0,0,0,0],"id":32,"left_children":[1,3,5,7,9,11,13,15,17,19,21,23,25,27,29,-1,-1,-1,-1,-1,-1,-1,-1,-1,-1,-1,-1,-1,-1,-1,-1],"loss_changes":[1.2001833E2,5.1971222E1,6.1208187E1,2.206378E1,4.834797E1,3.6593098E1,2.2516495E1,7.1211977E0,2.9281197E0,4.8614624E1,4.1064438E1,5.089077E0,8.8025215E1,8.200119E0,2.012046E1,0E0,0E0,0E0,0E0,0E0,0E0,0E0,0E0,0E0,0E0,0E0,0E0,0E0,0E0,0E0,0E0],"parents":[2147483647,0,0,1,1,2,2,3,3,4,4,5,5,6,6,7,7,8,8,9,9,10,10,11,11,12,12,13,13,14,14],"right_children":[2,4,6,8,10,12,14,16,18,20,22,24,26,28,30,-1,-1,-1,-1,-1,-1,-1,-1,-1,-1,-1,-1,-1,-1,-1,-1],"split_conditions":[2.7299572E1,2E0,5E0,8.062258E0,5E0,2E0,3E0,1.5391281E1,1E0,6E0,3E0,1E0,5E0,1.7691807E1,5.092646E1,1.9649576E-2,-1.5488388E-2,-3.8755506E-2,-2.2554161E-2,2.7077941E-2,8.3906185E-3,-2.4060955E-2,4.884438E-3,6.4267963E-3,-2.2368101E-2,1.940465E-2,-4.309477E-3,-1.6115803E-2,-3.5389822E-2,-6.1897407E-3,-1.7041324E-2],"split_indices":[1,12,11,7,11,12,12,1,15,12,12,6,12,7,1,0,0,0,0,0,0,0,0,0,0,0,0,0,0,0,0],"split_type":[0,0,0,0,0,0,0,0,0,0,0,0,0,0,0,0,0,0,0,0,0,0,0,0,0,0,0,0,0,0,0],"sum_hessian":[7.698109E3,3.4434949E3,4.254614E3,1.8291096E2,3.260584E3,2.0702422E3,2.1843716E3,5.8990532E1,1.2392043E2,1.5406959E3,1.7198881E3,1.9577274E2,1.8744695E3,2.2667497E2,1.9576965E3,3.6470997E1,2.2519537E1,6.1261623E1,6.265881E1,5.313823E2,1.00931366E3,1.3177852E2,1.5881095E3,1.6342339E1,1.7943039E2,5.551899E2,1.3192795E3,1.0794032E2,1.1873466E2,1.3273223E3,6.303742E2],"tree_param":{"num_deleted":"0","num_feature":"18","num_nodes":"31","size_leaf_vector":"1"}},{"base_weights":[-4.870001E-3,2.955348E-2,-3.8303384E-1,-2.327645E-2,3.2974038E-1,-5.8367205E-1,-2.8570747E-1,4.3475246E-3,-2.9734582E-1,3.9754275E-2,9.0828776E-1,1.9056348E-2,-6.340681E-1,-2.2599338E-1,-7.780095E-1,5.052959E-3,-3.2924395E-3,-1.1912654E-2,-3.4096424E-2,-1.3540898E-2,8.423697E-3,7.5692356E-2,2.6870025E-2,-2.5971508E-2,-3.428013E-2,-5.1539633E-3,-2.0708453E-2,-2.615554E-2,-4.7476117E-2],"categories":[],"categories_nodes":[],"categories_segments":[],"categories_sizes":[],"default_left":[0,0,0,0,0,0,0,0,0,0,0,0,0,0,0,0,0,0,0,0,0,0,0,0,0,0,0,0,0],"id":33,"left_children":[1,3,5,7,9,11,13,15,17,19,21,-1,23,25,27,-1,-1,-1,-1,-1,-1,-1,-1,-1,-1,-1,-1,-1,-1],"loss_changes":[1.0054897E2,1.1228364E2,1.2417427E1,4.558665E1,1.7772748E2,1.0429863E1,1.2638466E1,3.71469E1,1.2367043E1,2.8302855E1,7.863019E1,0E0,8.2255554E-1,8.981384E0,1.5468616E0,0E0,0E0,0E0,0E0,0E0,0E0,0E0,0E0,0E0,0E0,0E0,0E0,0E0,0E0],"parents":[2147483647,0,0,1,1,2,2,3,3,4,4,5,5,6,6,7,7,8,8,9,9,10,10,12,12,13,13,14,14],"right_children":[2,4,6,8,10,12,14,16,18,20,22,-1,24,26,28,-1,-1,-1,-1,-1,-1,-1,-1,-1,-1,-1,-1,-1,-1],"split_conditions":[2.0518284E1,1E0,2E0,4.8E1,3E0,1.029563E1,5.37106E1,5E0,7E0,2E0,1E0,1.9056348E-2,2.8284271E1,5E0,6.0647926E1,5.052959E-3,-3.2924395E-3,-1.1912654E-2,-3.4096424E-2,-1.3540898E-2,8.423697E-3,7.5692356E-2,2.6870025E-2,-2.5971508E-2,-3.428013E-2,-5.1539633E-3,-2.0708453E-2,-2.615554E-2,-4.7476117E-2],"split_indices":[8,3,12,5,12,7,5,11,11,12,11,0,7,11,5,0,0,0,0,0,0,0,0,0,0,0,0,0,0],"split_type":[0,0,0,0,0,0,0,0,0,0,0,0,0,0,0,0,0,0,0,0,0,0,0,0,0,0,0,0,0],"sum_hessian":[7.72214E3,7.078702E3,6.434379E2,6.020139E3,1.0585626E3,2.0853867E2,4.348993E2,5.469811E3,5.5032855E2,7.058415E2,3.5272116E2,1.002644E1,1.9851222E2,3.8915546E2,4.5743816E1,2.3002478E3,3.169563E3,4.7843457E2,7.189397E1,2.0649954E2,4.9934195E2,1.3280484E2,2.1991634E2,6.499988E1,1.3351234E2,2.3633319E2,1.5282228E2,2.0028246E1,2.571557E1],"tree_param":{"num_deleted":"0","num_feature":"18","num_nodes":"29","size_leaf_vector":"1"}},{"base_weights":[-3.5409722E-4,1.7957701E-1,-2.0261179E-1,3.1020638E-1,7.348255E-3,-8.622741E-2,-4.302059E-1,-2.5818658E-1,3.6808133E-1,9.8866475E-1,-2.2272317E-2,4.4942122E-2,-2.9613322E-1,-3.67306E-1,-7.603622E-1,-8.038035E-3,-3.2637052E-2,2.0748898E-2,-8.236381E-3,3.23273E-2,1.0044769E-1,5.805046E-3,-1.103462E-2,4.9356944E-3,-2.340194E-2,-9.651739E-3,-2.3484448E-2,-1.4592963E-2,-3.147817E-2,-2.938436E-2,-4.1948404E-2],"categories":[],"categories_nodes":[],"categories_segments":[],"categories_sizes":[],"default_left":[0,0,0,0,0,0,0,0,0,0,0,0,0,0,0,0,0,0,0,0,0,0,0,0,0,0,0,0,0,0,0],"id":34,"left_children":[1,3,5,7,9,11,13,15,17,19,21,23,25,27,29,-1,-1,-1,-1,-1,-1,-1,-1,-1,-1,-1,-1,-1,-1,-1,-1],"loss_changes":[2.808833E2,9.1892E1,9.621243E1,7.6503784E1,5.126076E1,6.624349E1,2.5246994E1,8.168824E0,5.2753754E1,1.6737545E1,4.7033077E1,4.0904728E1,1.6464508E1,2.0283691E1,2.1641617E0,0E0,0E0,0E0,0E0,0E0,0E0,0E0,0E0,0E0,0E0,0E0,0E0,0E0,0E0,0E0,0E0],"parents":[2147483647,0,0,1,1,2,2,3,3,4,4,5,5,6,6,7,7,8,8,9,9,10,10,11,11,12,12,13,13,14,14],"right_children":[2,4,6,8,10,12,14,16,18,20,22,24,26,28,30,-1,-1,-1,-1,-1,-1,-1,-1,-1,-1,-1,-1,-1,-1,-1,-1],"split_conditions":[2.3345236E1,3E0,4.2015366E1,2E0,4E0,3.7303947E1,1.3875563E1,6.305108E1,7.134043E1,7E0,3.2005383E1,3E0,5.315482E1,3.7064396E1,4E0,-8.038035E-3,-3.2637052E-2,2.0748898E-2,-8.236381E-3,3.23273E-2,1.0044769E-1,5.805046E-3,-1.103462E-2,4.9356944E-3,-2.340194E-2,-9.651739E-3,-2.3484448E-2,-1.4592963E-2,-3.147817E-2,-2.938436E-2,-4.1948404E-2],"split_indices":[0,10,0,12,0,1,8,1,1,10,1,10,1,1,11,0,0,0,0,0,0,0,0,0,0,0,0,0,0,0,0],"split_type":[0,0,0,0,0,0,0,0,0,0,0,0,0,0,0,0,0,0,0,0,0,0,0,0,0,0,0,0,0,0,0],"sum_hessian":[7.716176E3,4.0835278E3,3.632648E3,2.3217566E3,1.7617712E3,2.404462E3,1.2281862E3,2.142393E2,2.1075173E3,5.067143E1,1.7110997E3,1.4802462E3,9.2421564E2,1.0334166E3,1.9476945E2,1.7294266E2,4.1296658E1,1.9372281E3,1.7028923E2,3.917061E1,1.1500822E1,1.0083302E3,7.027696E2,1.3405359E3,1.3971028E2,5.811208E2,3.4309485E2,8.041811E2,2.292356E2,6.3579483E1,1.3118999E2],"tree_param":{"num_deleted":"0","num_feature":"18","num_nodes":"31","size_leaf_vector":"1"}},{"base_weights":[-4.4426196E-3,1.2415935E-1,-1.0891681E-1,1.5360348E-1,-3.9777043E-1,-7.777025E-2,-4.4953385E-1,2.6573634E-1,5.041027E-2,-5.536369E-1,-3.975638E-2,-1.2985374E-1,2.1096265E-1,1.9684106E-2,-4.7863173E-1,2.5338246E-2,6.634646E-3,-1.6456403E-2,5.892791E-3,-1.9947661E-2,-3.5170376E-2,2.3817543E-2,-1.8227456E-2,-3.9554904E-3,-1.3821351E-2,-6.936176E-3,4.505367E-2,-4.5363274E-3,-2.6704678E-2],"categories":[],"categories_nodes":[],"categories_segments":[],"categories_sizes":[],"default_left":[0,0,0,0,0,0,0,0,0,0,0,0,0,0,0,0,0,0,0,0,0,0,0,0,0,0,0,0,0],"id":35,"left_children":[1,3,5,7,9,11,13,15,17,19,21,23,25,-1,27,-1,-1,-1,-1,-1,-1,-1,-1,-1,-1,-1,-1,-1,-1],"loss_changes":[1.0339129E2,5.3070316E1,4.501053E1,3.7777435E1,1.0272421E1,5.8547577E1,8.911377E0,5.0115425E1,4.3606277E1,2.6951218E0,9.7338915E0,2.450293E1,1.4372827E2,0E0,7.354721E0,0E0,0E0,0E0,0E0,0E0,0E0,0E0,0E0,0E0,0E0,0E0,0E0,0E0,0E0],"parents":[2147483647,0,0,1,1,2,2,3,3,4,4,5,5,6,6,7,7,8,8,9,9,10,10,11,11,12,12,14,14],"right_children":[2,4,6,8,10,12,14,16,18,20,22,24,26,-1,28,-1,-1,-1,-1,-1,-1,-1,-1,-1,-1,-1,-1,-1,-1],"split_conditions":[2.7299572E1,2.3259407E1,2.0880613E1,5E0,1.02E2,1E0,3E0,6E0,4E0,1.4384111E1,1.3E2,5.437733E1,3E0,1.9684106E-2,3.1647985E1,2.5338246E-2,6.634646E-3,-1.6456403E-2,5.892791E-3,-1.9947661E-2,-3.5170376E-2,2.3817543E-2,-1.8227456E-2,-3.9554904E-3,-1.3821351E-2,-6.936176E-3,4.505367E-2,-4.5363274E-3,-2.6704678E-2],"split_indices":[1,8,8,11,6,3,6,12,12,1,6,1,12,0,1,0,0,0,0,0,0,0,0,0,0,0,0,0,0],"split_type":[0,0,0,0,0,0,0,0,0,0,0,0,0,0,0,0,0,0,0,0,0,0,0,0,0,0,0,0,0],"sum_hessian":[7.693325E3,3.448376E3,4.244949E3,3.264896E3,1.8348006E2,3.8904302E3,3.5451883E2,1.5639191E3,1.7009768E3,1.27447556E2,5.6032505E1,3.2963616E3,5.9406866E2,1.1407788E1,3.4311102E2,5.5522845E2,1.00869055E3,2.560755E2,1.4449014E3,6.449776E1,6.2949802E1,2.1461998E1,3.4570507E1,2.4497822E3,8.465793E2,3.9481226E2,1.9925644E2,4.3250286E1,2.9986075E2],"tree_param":{"num_deleted":"0","num_feature":"18","num_nodes":"29","size_leaf_vector":"1"}},{"base_weights":[-8.704476E-3,1.5756407E-1,-1.9952245E-1,2.7710557E-1,-2.3329696E-3,-8.399834E-2,-3.6862653E-1,3.2301402E-1,-2.4279927E-1,1.2722638E-1,-1.7705348E-1,1.5795479E-2,-3.5865492E-1,-2.5646564E-1,-5.4876304E-1,1.8628947E-2,-6.643844E-3,-1.5010132E-3,-2.8269848E-2,4.887379E-3,6.3830696E-2,-2.6206449E-3,-1.8001208E-2,3.6290982E-3,-2.6312036E-2,-1.2900951E-2,-2.5800923E-2,-9.068236E-3,-3.2980446E-2,-2.5588784E-2,-4.2518836E-2],"categories":[],"categories_nodes":[],"categories_segments":[],"categories_sizes":[],"default_left":[0,0,0,0,0,0,0,0,0,0,0,0,0,0,0,0,0,0,0,0,0,0,0,0,0,0,0,0,0,0,0],"id":36,"left_children":[1,3,5,7,9,11,13,15,17,19,21,23,25,27,29,-1,-1,-1,-1,-1,-1,-1,-1,-1,-1,-1,-1,-1,-1,-1,-1],"loss_changes":[2.4447673E2,7.870816E1,7.006113E1,5.631633E1,3.9920097E1,5.8467968E1,2.9275848E1,4.898059E1,1.3144886E1,3.418599E1,1.7105404E1,4.8223774E1,8.86972E0,2.71035E1,5.787628E0,0E0,0E0,0E0,0E0,0E0,0E0,0E0,0E0,0E0,0E0,0E0,0E0,0E0,0E0,0E0,0E0],"parents":[2147483647,0,0,1,1,2,2,3,3,4,4,5,5,6,6,7,7,8,8,9,9,10,10,11,11,12,12,13,13,14,14],"right_children":[2,4,6,8,10,12,14,16,18,20,22,24,26,28,30,-1,-1,-1,-1,-1,-1,-1,-1,-1,-1,-1,-1,-1,-1,-1,-1],"split_conditions":[2.3345236E1,3E0,3.920459E1,7.134043E1,1.1091837E1,4.38614E1,3.1647985E1,2.0518284E1,1.4519633E1,9E0,2.9289183E1,3E0,5.830794E1,6.3840973E1,1.8591745E1,1.8628947E-2,-6.643844E-3,-1.5010132E-3,-2.8269848E-2,4.887379E-3,6.3830696E-2,-2.6206449E-3,-1.8001208E-2,3.6290982E-3,-2.6312036E-2,-1.2900951E-2,-2.5800923E-2,-9.068236E-3,-3.2980446E-2,-2.5588784E-2,-4.2518836E-2],"split_indices":[0,10,0,1,0,1,1,8,0,10,1,10,1,0,8,0,0,0,0,0,0,0,0,0,0,0,0,0,0,0,0],"split_type":[0,0,0,0,0,0,0,0,0,0,0,0,0,0,0,0,0,0,0,0,0,0,0,0,0,0,0,0,0,0,0],"sum_hessian":[7.7036387E3,4.1167217E3,3.5869165E3,2.355203E3,1.761519E3,2.131958E3,1.4549586E3,2.1644565E3,1.9074635E2,1.01163776E3,7.498812E2,1.5644667E3,5.6749133E2,8.9815283E2,5.568058E2,1.9523751E3,2.120815E2,1.1559515E2,7.515119E1,9.873986E2,2.423917E1,4.4680307E2,3.0307816E2,1.4168918E3,1.4757475E2,3.4774432E2,2.1974704E2,7.583339E2,1.3981892E2,4.9838486E2,5.8420895E1],"tree_param":{"num_deleted":"0","num_feature":"18","num_nodes":"31","size_leaf_vector":"1"}},{"base_weights":[-5.6444467E-3,1.1529407E-1,-1.0590057E-1,1.4296773E-1,-3.4974217E-1,3.0784248E-4,-2.091382E-1,2.5483772E-1,3.7889566E-2,-5.2878404E-1,7.3367395E-2,1.0752626E-1,-1.989404E-1,-1.7713168E-1,-4.9784616E-1,2.2239992E-2,8.429515E-3,-1.5982574E-2,4.9681324E-3,-1.7116113E-2,-3.3487163E-2,2.6241159E-2,-4.835855E-3,9.9796755E-3,-1.7784847E-2,-7.0676953E-3,-2.836561E-2,-7.07204E-3,-1.983521E-2,-3.1345945E-2,-1.6538044E-2],"categories":[],"categories_nodes":[],"categories_segments":[],"categories_sizes":[],"default_left":[0,0,0,0,0,0,0,0,0,0,0,0,0,0,0,0,0,0,0,0,0,0,0,0,0,0,0,0,0,0,0],"id":37,"left_children":[1,3,5,7,9,11,13,15,17,19,21,23,25,27,29,-1,-1,-1,-1,-1,-1,-1,-1,-1,-1,-1,-1,-1,-1,-1,-1],"loss_changes":[9.335818E1,4.496271E1,4.6159523E1,3.8718872E1,1.4909821E1,4.437229E1,1.9638214E1,2.6066307E1,3.7397507E1,3.3994026E0,4.6000915E0,5.7661922E1,1.5334734E1,1.5016098E1,4.375286E0,0E0,0E0,0E0,0E0,0E0,0E0,0E0,0E0,0E0,0E0,0E0,0E0,0E0,0E0,0E0,0E0],"parents":[2147483647,0,0,1,1,2,2,3,3,4,4,5,5,6,6,7,7,8,8,9,9,10,10,11,11,12,12,13,13,14,14],"right_children":[2,4,6,8,10,12,14,16,18,20,22,24,26,28,30,-1,-1,-1,-1,-1,-1,-1,-1,-1,-1,-1,-1,-1,-1,-1,-1],"split_conditions":[2.7299572E1,2.267218E1,5E0,5E0,1.0965856E2,1.3E1,1.7E1,5E0,4E0,1.1846436E1,1.2703543E2,2.0880613E1,6.465415E1,6.465415E1,1.3228171E2,2.2239992E-2,8.429515E-3,-1.5982574E-2,4.9681324E-3,-1.7116113E-2,-3.3487163E-2,2.6241159E-2,-4.835855E-3,9.9796755E-3,-1.7784847E-2,-7.0676953E-3,-2.836561E-2,-7.07204E-3,-1.983521E-2,-3.1345945E-2,-1.6538044E-2],"split_indices":[1,8,11,11,7,12,8,12,12,1,7,8,1,1,7,0,0,0,0,0,0,0,0,0,0,0,0,0,0,0,0],"split_type":[0,0,0,0,0,0,0,0,0,0,0,0,0,0,0,0,0,0,0,0,0,0,0,0,0,0,0,0,0,0,0],"sum_hessian":[7.6977456E3,3.488923E3,4.2088228E3,3.2936172E3,1.9530598E2,2.0750537E3,2.1337688E3,1.5945629E3,1.6990542E3,1.370588E2,5.8247177E1,1.3493883E3,7.256654E2,1.9222765E3,2.1149232E2,4.966099E2,1.097953E3,2.4865013E2,1.4504042E3,6.0481712E1,7.6577095E1,1.5368598E1,4.287858E1,1.1261343E3,2.2325403E2,6.287573E2,9.6908066E1,1.6549183E3,2.6735815E2,1.17766235E2,9.372608E1],"tree_param":{"num_deleted":"0","num_feature":"18","num_nodes":"31","size_leaf_vector":"1"}},{"base_weights":[-6.8661557E-3,1.21208124E-1,-2.5369492E-1,-3.163013E-1,1.5467174E-1,-1.3823913E-1,-4.5099798E-1,4.1477767E-1,-3.9400774E-1,7.811501E-1,1.3144213E-1,-6.841564E-2,-5.61844E-1,-2.8898668E-1,-5.6252724E-1,5.139522E-2,-1.3829348E-2,-5.249051E-3,-2.3533018E-2,6.035086E-2,1.97565E-2,8.229787E-3,-1.3939825E-2,5.7772533E-3,-7.8975465E-3,-9.219269E-3,-3.0415148E-2,-1.0013412E-2,-3.221296E-2,-2.2752231E-2,-3.4621313E-2],"categories":[],"categories_nodes":[],"categories_segments":[],"categories_sizes":[],"default_left":[0,0,0,0,0,0,0,0,0,0,0,0,0,0,0,0,0,0,0,0,0,0,0,0,0,0,0,0,0,0,0],"id":38,"left_children":[1,3,5,7,9,11,13,15,17,19,21,23,25,27,29,-1,-1,-1,-1,-1,-1,-1,-1,-1,-1,-1,-1,-1,-1,-1,-1],"loss_changes":[2.4349292E2,7.4294205E1,5.9878067E1,2.0651573E1,6.846351E1,4.9101425E1,1.7380783E1,1.51788E1,7.184269E0,2.7182816E1,6.185212E1,2.3529415E1,4.0081635E0,1.2413113E1,7.6988983E0,0E0,0E0,0E0,0E0,0E0,0E0,0E0,0E0,0E0,0E0,0E0,0E0,0E0,0E0,0E0,0E0],"parents":[2147483647,0,0,1,1,2,2,3,3,4,4,5,5,6,6,7,7,8,8,9,9,10,10,11,11,12,12,13,13,14,14],"right_children":[2,4,6,8,10,12,14,16,18,20,22,24,26,28,30,-1,-1,-1,-1,-1,-1,-1,-1,-1,-1,-1,-1,-1,-1,-1,-1],"split_conditions":[2.9410883E1,2E0,4.552011E1,1E0,5.035506E0,5.092646E1,2.1765543E1,1E0,5.255949E0,5E0,6.87534E1,1.9723219E1,4E0,1.1357556E1,4.2E1,5.139522E-2,-1.3829348E-2,-5.249051E-3,-2.3533018E-2,6.035086E-2,1.97565E-2,8.229787E-3,-1.3939825E-2,5.7772533E-3,-7.8975465E-3,-9.219269E-3,-3.0415148E-2,-1.0013412E-2,-3.221296E-2,-2.2752231E-2,-3.4621313E-2],"split_indices":[0,12,0,6,0,1,1,4,8,12,1,1,6,8,6,0,0,0,0,0,0,0,0,0,0,0,0,0,0,0,0],"split_type":[0,0,0,0,0,0,0,0,0,0,0,0,0,0,0,0,0,0,0,0,0,0,0,0,0,0,0,0,0,0,0],"sum_hessian":[7.700473E3,5.070175E3,2.6302986E3,3.5964603E2,4.710529E3,1.6603895E3,9.6990906E2,3.4137302E1,3.2550873E2,1.6725342E2,4.5432754E3,1.4264302E3,2.3395935E2,3.969201E2,5.7298895E2,1.7834372E1,1.6302929E1,6.872887E1,2.5677988E2,7.851114E1,8.874227E1,4.204116E3,3.3915884E2,4.6688004E2,9.595501E2,2.6185183E1,2.0777417E2,3.188586E2,7.806149E1,3.160128E2,2.5697614E2],"tree_param":{"num_deleted":"0","num_feature":"18","num_nodes":"31","size_leaf_vector":"1"}},{"base_weights":[-5.743281E-3,1.5155508E-1,-1.8700278E-1,2.6749066E-1,-1.8365374E-3,-9.8293714E-2,-4.104647E-1,3.1594178E-1,-1.8874748E-1,8.5474205E-1,-2.8544994E-2,-6.1996765E-2,-5.125941E-1,-3.473419E-1,-7.589127E-1,3.9037224E-2,1.406604E-2,-1.3977433E-2,1.0757178E-2,2.8060645E-2,8.825917E-2,4.686958E-3,-6.9412603E-3,-2.6278652E-3,-3.5391122E-2,-3.5910707E-2,-1.7350098E-2,-1.5029237E-2,-3.5539124E-2,-3.407901E-2,-4.5698386E-2],"categories":[],"categories_nodes":[],"categories_segments":[],"categories_sizes":[],"default_left":[0,0,0,0,0,0,0,0,0,0,0,0,0,0,0,0,0,0,0,0,0,0,0,0,0,0,0,0,0,0,0],"id":39,"left_children":[1,3,5,7,9,11,13,15,17,19,21,23,25,27,29,-1,-1,-1,-1,-1,-1,-1,-1,-1,-1,-1,-1,-1,-1,-1,-1],"loss_changes":[2.1871445E2,7.3037155E1,7.060988E1,5.1765594E1,4.049307E1,3.8353287E1,2.2005722E1,3.3813187E1,8.318425E0,1.3311974E1,2.3159285E1,1.427732E1,6.7471504E0,1.438427E1,1.2289047E0,0E0,0E0,0E0,0E0,0E0,0E0,0E0,0E0,0E0,0E0,0E0,0E0,0E0,0E0,0E0,0E0],"parents":[2147483647,0,0,1,1,2,2,3,3,4,4,5,5,6,6,7,7,8,8,9,9,10,10,11,11,12,12,13,13,14,14],"right_children":[2,4,6,8,10,12,14,16,18,20,22,24,26,28,30,-1,-1,-1,-1,-1,-1,-1,-1,-1,-1,-1,-1,-1,-1,-1,-1],"split_conditions":[2.3056635E1,3E0,4.4407207E1,2.0518284E1,4E0,3E0,1.3875563E1,5.9437237E0,3.8E1,7E0,9.899495E0,1E0,4E0,6.6911476E1,7E0,3.9037224E-2,1.406604E-2,-1.3977433E-2,1.0757178E-2,2.8060645E-2,8.825917E-2,4.686958E-3,-6.9412603E-3,-2.6278652E-3,-3.5391122E-2,-3.5910707E-2,-1.7350098E-2,-1.5029237E-2,-3.5539124E-2,-3.407901E-2,-4.5698386E-2],"split_indices":[0,10,0,8,0,10,8,0,5,10,0,4,10,0,11,0,0,0,0,0,0,0,0,0,0,0,0,0,0,0,0],"split_type":[0,0,0,0,0,0,0,0,0,0,0,0,0,0,0,0,0,0,0,0,0,0,0,0,0,0,0,0,0,0,0],"sum_hessian":[7.669015E3,4.1059795E3,3.563036E3,2.3380806E3,1.7678987E3,2.5515652E3,1.0114707E3,2.1138984E3,2.241822E2,5.251952E1,1.7153792E3,2.3470862E3,2.0447908E2,8.580315E2,1.5343921E2,1.450456E2,1.9688528E3,1.8328473E2,4.0897484E1,4.0937546E1,1.1581974E1,8.1349054E2,9.0188855E2,2.3143408E3,3.2745308E1,8.972636E1,1.1475273E2,7.6184595E2,9.618555E1,1.0597886E2,4.746035E1],"tree_param":{"num_deleted":"0","num_feature":"18","num_nodes":"31","size_leaf_vector":"1"}},{"base_weights":[-3.57605E-3,6.6541314E-2,-3.5445806E-1,1.06870264E-1,-2.0264772E-1,-2.463164E-1,-5.408755E-1,1.7175904E-1,-3.9550774E-2,-7.105591E-2,-4.924043E-1,-1.8731448E-1,-7.4806905E-1,-4.8364806E-1,-7.762551E-1,1.5204388E-2,2.027843E-3,4.2665154E-3,-1.7692504E-2,6.9007906E-3,-1.1430144E-2,-1.8433318E-2,-3.226448E-2,-6.598679E-3,-3.5328977E-2,-3.0326918E-2,-4.464308E-2,-1.8914234E-2,-3.340447E-2,-2.7314225E-2,-4.170834E-2],"categories":[],"categories_nodes":[],"categories_segments":[],"categories_sizes":[],"default_left":[0,0,0,0,0,0,0,0,0,0,0,0,0,0,0,0,0,0,0,0,0,0,0,0,0,0,0,0,0,0,0],"id":40,"left_children":[1,3,5,7,9,11,13,15,17,19,21,23,25,27,29,-1,-1,-1,-1,-1,-1,-1,-1,-1,-1,-1,-1,-1,-1,-1,-1],"loss_changes":[1.8889842E2,6.949186E1,2.5645706E1,5.2890244E1,3.177015E1,2.3872501E1,5.9371185E0,6.695251E1,6.714884E1,1.8964417E1,4.687145E0,2.080132E1,1.2005386E0,7.124771E0,7.429352E-1,0E0,0E0,0E0,0E0,0E0,0E0,0E0,0E0,0E0,0E0,0E0,0E0,0E0,0E0,0E0,0E0],"parents":[2147483647,0,0,1,1,2,2,3,3,4,4,5,5,6,6,7,7,8,8,9,9,10,10,11,11,12,12,13,13,14,14],"right_children":[2,4,6,8,10,12,14,16,18,20,22,24,26,28,30,-1,-1,-1,-1,-1,-1,-1,-1,-1,-1,-1,-1,-1,-1,-1,-1],"split_conditions":[4.0369663E1,5.970645E1,3.1647985E1,3E0,2.013263E1,6.64003E1,4.9524593E1,2.2550127E1,1.5499997E1,5E0,4.7E1,1.6507574E1,7.165539E1,5.648562E1,4.2015366E1,1.5204388E-2,2.027843E-3,4.2665154E-3,-1.7692504E-2,6.9007906E-3,-1.1430144E-2,-1.8433318E-2,-3.226448E-2,-6.598679E-3,-3.5328977E-2,-3.0326918E-2,-4.464308E-2,-1.8914234E-2,-3.340447E-2,-2.7314225E-2,-4.170834E-2],"split_indices":[0,1,1,10,0,0,1,0,0,12,6,8,0,0,0,0,0,0,0,0,0,0,0,0,0,0,0,0,0,0,0],"split_type":[0,0,0,0,0,0,0,0,0,0,0,0,0,0,0,0,0,0,0,0,0,0,0,0,0,0,0,0,0,0,0],"sum_hessian":[7.6759277E3,6.3981787E3,1.2777489E3,5.565046E3,8.331325E2,8.101173E2,4.6763156E2,3.8560183E3,1.7090277E3,5.737923E2,2.5934024E2,7.2610657E2,8.401076E1,3.786305E2,8.900106E1,1.9191112E3,1.9369071E3,1.2235865E3,4.8544122E2,2.466289E2,3.2716336E2,1.4521864E2,1.14121605E2,6.5730786E2,6.879872E1,4.510797E1,3.8902786E1,2.4291472E2,1.3571579E2,2.0002602E1,6.899846E1],"tree_param":{"num_deleted":"0","num_feature":"18","num_nodes":"31","size_leaf_vector":"1"}},{"base_weights":[-8.997657E-3,7.037368E-2,-3.265235E-1,-3.195406E-1,9.690262E-2,-2.6463637E-1,-5.663009E-1,3.0725017E-1,-3.8555163E-1,5.151738E-1,7.356738E-2,-2.3034258E-1,-7.225485E-1,-3.7161604E-1,-6.745276E-1,7.645135E-2,-2.797245E-2,-8.157886E-4,-2.324995E-2,3.291755E-2,1.2116766E-3,7.1189688E-3,-4.2920806E-3,-1.0470234E-2,-2.4442922E-2,-2.8369343E-2,-4.544541E-2,-3.0286727E-2,-1.2756501E-2,-2.9159611E-2,-4.1620526E-2],"categories":[],"categories_nodes":[],"categories_segments":[],"categories_sizes":[],"default_left":[0,0,0,0,0,0,0,0,0,0,0,0,0,0,0,0,0,0,0,0,0,0,0,0,0,0,0,0,0,0,0],"id":41,"left_children":[1,3,5,7,9,11,13,15,17,19,21,23,25,27,29,-1,-1,-1,-1,-1,-1,-1,-1,-1,-1,-1,-1,-1,-1,-1,-1],"loss_changes":[1.9322615E2,6.3479225E1,2.2601929E1,1.6295265E1,5.6024582E1,1.9000717E1,6.3583603E0,4.0892384E1,1.0381912E1,2.1306786E1,5.9701283E1,6.0518913E0,1.929802E0,2.9625034E0,2.4039688E0,0E0,0E0,0E0,0E0,0E0,0E0,0E0,0E0,0E0,0E0,0E0,0E0,0E0,0E0,0E0,0E0],"parents":[2147483647,0,0,1,1,2,2,3,3,4,4,5,5,6,6,7,7,8,8,9,9,10,10,11,11,12,12,13,13,14,14],"right_children":[2,4,6,8,10,12,14,16,18,20,22,24,26,28,30,-1,-1,-1,-1,-1,-1,-1,-1,-1,-1,-1,-1,-1,-1,-1,-1],"split_conditions":[3.739041E1,2E0,1.1801695E1,1E0,5.9437237E0,6.6911476E1,4.410758E1,1E0,5.9437237E0,6E0,3E0,4.4E1,7.165539E1,0E0,1.979899E1,7.645135E-2,-2.797245E-2,-8.157886E-4,-2.324995E-2,3.291755E-2,1.2116766E-3,7.1189688E-3,-4.2920806E-3,-1.0470234E-2,-2.4442922E-2,-2.8369343E-2,-4.544541E-2,-3.0286727E-2,-1.2756501E-2,-2.9159611E-2,-4.1620526E-2],"split_indices":[0,12,8,6,0,0,0,3,0,10,10,12,0,13,8,0,0,0,0,0,0,0,0,0,0,0,0,0,0,0,0],"split_type":[0,0,0,0,0,0,0,0,0,0,0,0,0,0,0,0,0,0,0,0,0,0,0,0,0,0,0,0,0,0,0],"sum_hessian":[7.6650464E3,6.132816E3,1.53223E3,3.8997897E2,5.742837E3,1.2195618E3,3.1266827E2,3.68095E1,3.5316946E2,3.0234756E2,5.4404897E3,1.1359888E3,8.357304E1,1.132967E2,1.9937157E2,1.4958486E1,2.1851015E1,6.2748375E1,2.9042108E2,2.338166E2,6.8530975E1,3.8001765E3,1.6403131E3,1.0525499E3,8.3438835E1,4.7810753E1,3.5762283E1,3.6246624E1,7.705007E1,1.2927805E2,7.009352E1],"tree_param":{"num_deleted":"0","num_feature":"18","num_nodes":"31","size_leaf_vector":"1"}},{"base_weights":[2.6595455E-3,7.823375E-2,-3.0069098E-1,7.1215075E-1,6.2179923E-2,-2.5166506E-1,-6.681202E-1,6.139492E-1,7.2104536E-2,-3.5752076E-1,8.86889E-2,-2.0207632E-1,-6.455956E-1,-5.7760125E-1,-4.636581E-2,4.009586E-2,-8.231026E-3,-4.3654293E-4,-2.1203171E-2,9.1288565E-3,-1.7289375E-4,-7.023928E-3,-1.5299901E-2,-2.3576323E-2,-3.8734864E-2,-3.5561E-2,-2.1817157E-2],"categories":[],"categories_nodes":[],"categories_segments":[],"categories_sizes":[],"default_left":[0,0,0,0,0,0,0,0,0,0,0,0,0,0,0,0,0,0,0,0,0,0,0,0,0,0,0],"id":42,"left_children":[1,3,5,7,9,11,13,15,-1,17,19,21,23,25,-1,-1,-1,-1,-1,-1,-1,-1,-1,-1,-1,-1,-1],"loss_changes":[1.7617575E2,6.2563545E1,2.7440704E1,9.9997635E0,6.679967E1,2.6316277E1,3.6834564E0,1.9974968E1,0E0,8.275639E0,4.8842144E1,7.6637917E0,3.0261497E0,2.2553291E0,0E0,0E0,0E0,0E0,0E0,0E0,0E0,0E0,0E0,0E0,0E0,0E0,0E0],"parents":[2147483647,0,0,1,1,2,2,3,3,4,4,5,5,6,6,7,7,9,9,10,10,11,11,12,12,13,13],"right_children":[2,4,6,8,10,12,14,16,-1,18,20,22,24,26,-1,-1,-1,-1,-1,-1,-1,-1,-1,-1,-1,-1,-1],"split_conditions":[3.7148876E1,4.472136E0,6.3840973E1,7E0,2E0,1.6070158E1,7.165539E1,6E0,7.2104536E-2,1E0,5E0,5.08475E1,5E0,1E0,-4.636581E-2,4.009586E-2,-8.231026E-3,-4.3654293E-4,-2.1203171E-2,9.1288565E-3,-1.7289375E-4,-7.023928E-3,-1.5299901E-2,-2.3576323E-2,-3.8734864E-2,-3.5561E-2,-2.1817157E-2],"split_indices":[0,0,0,10,12,8,0,10,0,3,11,0,11,15,0,0,0,0,0,0,0,0,0,0,0,0,0],"split_type":[0,0,0,0,0,0,0,0,0,0,0,0,0,0,0,0,0,0,0,0,0,0,0,0,0,0,0],"sum_hessian":[7.6826895E3,6.1510186E3,1.531671E3,1.5085489E2,6.0001636E3,1.3528463E3,1.7882474E2,1.345892E2,1.626569E1,3.5572342E2,5.6444404E3,1.2029319E3,1.4991443E2,1.349312E2,4.389354E1,1.0839074E2,2.6198465E1,5.7173603E1,2.985498E2,2.795316E3,2.8491245E3,7.567397E2,4.461922E2,6.58204E1,8.409403E1,6.7267105E1,6.766409E1],"tree_param":{"num_deleted":"0","num_feature":"18","num_nodes":"27","size_leaf_vector":"1"}},{"base_weights":[-4.418937E-3,9.635481E-2,-2.0536219E-1,1.5033916E-1,-1.6633958E-1,-1.2885454E-1,-4.202148E-1,3.3964768E-1,9.0056896E-2,-1.62608E-2,-2.9716527E-1,-3.828475E-2,-4.218082E-1,-3.5984722E-1,-7.634347E-1,-1.2175403E-2,2.1998232E-2,-1.015979E-2,6.5539638E-3,-1.7440535E-2,1.7974438E-2,-6.828292E-3,-2.1598116E-2,-3.299369E-2,-1.0065906E-3,-1.5011004E-2,-2.8930215E-2,-1.6291004E-2,-4.256907E-2,-2.5724156E-2,-4.342023E-2],"categories":[],"categories_nodes":[],"categories_segments":[],"categories_sizes":[],"default_left":[0,0,0,0,0,0,0,0,0,0,0,0,0,0,0,0,0,0,0,0,0,0,0,0,0,0,0,0,0,0,0],"id":43,"left_children":[1,3,5,7,9,11,13,15,17,19,21,23,25,27,29,-1,-1,-1,-1,-1,-1,-1,-1,-1,-1,-1,-1,-1,-1,-1,-1],"loss_changes":[1.5489856E2,7.2272255E1,4.194287E1,4.8202858E1,1.7056044E1,5.00101E1,1.3616409E1,5.9804474E1,3.860797E1,5.0825928E1,9.989937E0,1.6249859E1,8.312935E0,9.290443E0,2.1505585E0,0E0,0E0,0E0,0E0,0E0,0E0,0E0,0E0,0E0,0E0,0E0,0E0,0E0,0E0,0E0,0E0],"parents":[2147483647,0,0,1,1,2,2,3,3,4,4,5,5,6,6,7,7,8,8,9,9,10,10,11,11,12,12,13,13,14,14],"right_children":[2,4,6,8,10,12,14,16,18,20,22,24,26,28,30,-1,-1,-1,-1,-1,-1,-1,-1,-1,-1,-1,-1,-1,-1,-1,-1],"split_conditions":[2.915476E1,5.642691E1,5.08475E1,1E0,7E0,4.3602818E1,1.3875563E1,2E0,3E0,3E0,1.2987399E1,2E0,3.6921738E1,7.165539E1,4E0,-1.2175403E-2,2.1998232E-2,-1.015979E-2,6.5539638E-3,-1.7440535E-2,1.7974438E-2,-6.828292E-3,-2.1598116E-2,-3.299369E-2,-1.0065906E-3,-1.5011004E-2,-2.8930215E-2,-1.6291004E-2,-4.256907E-2,-2.5724156E-2,-4.342023E-2],"split_indices":[0,1,0,11,12,1,8,12,12,12,0,12,0,0,11,0,0,0,0,0,0,0,0,0,0,0,0,0,0,0,0],"split_type":[0,0,0,0,0,0,0,0,0,0,0,0,0,0,0,0,0,0,0,0,0,0,0,0,0,0,0,0,0,0,0],"sum_hessian":[7.647408E3,5.0935137E3,2.5538945E3,4.225575E3,8.679384E2,1.8844526E3,6.694419E2,1.0194602E3,3.206115E3,4.0474875E2,4.6318964E2,1.4402992E3,4.4415338E2,5.7105054E2,9.839135E1,1.4942218E2,8.70038E2,3.929706E2,2.8131445E3,2.1475536E2,1.899934E2,2.1228401E2,2.5090562E2,3.9865982E1,1.4004332E3,2.5180496E2,1.9234842E2,5.356334E2,3.5417118E1,3.093222E1,6.745913E1],"tree_param":{"num_deleted":"0","num_feature":"18","num_nodes":"31","size_leaf_vector":"1"}},{"base_weights":[-7.231417E-3,5.420959E-2,-3.129062E-1,1.23624764E-1,-8.4894896E-2,-1.9455656E-1,-5.129645E-1,1.7918031E-1,-6.122669E-2,3.5267064E-1,-1.3099349E-1,-1.4190274E-1,-7.652192E-1,-4.553257E-1,-7.4767E-1,1.2982966E-2,1.5386946E-3,2.8031275E-2,-4.9237274E-3,2.808932E-2,-6.615184E-3,-4.453523E-3,-2.3243105E-2,-3.5310087E-3,-2.3356803E-2,-2.8191224E-2,-4.5480553E-2,-1.7040124E-2,-3.4479205E-2,-3.9283555E-2,-2.1146188E-2],"categories":[],"categories_nodes":[],"categories_segments":[],"categories_sizes":[],"default_left":[0,0,0,0,0,0,0,0,0,0,0,0,0,0,0,0,0,0,0,0,0,0,0,0,0,0,0,0,0,0,0],"id":44,"left_children":[1,3,5,7,9,11,13,15,17,19,21,23,25,27,29,-1,-1,-1,-1,-1,-1,-1,-1,-1,-1,-1,-1,-1,-1,-1,-1],"loss_changes":[1.4353792E2,6.145848E1,3.0185104E1,4.3612137E1,4.2789864E1,2.408802E1,6.0829697E0,3.898555E1,2.2798143E1,2.0584644E1,2.6801758E1,1.7087534E1,1.4586563E0,1.0060524E1,8.037834E-1,0E0,0E0,0E0,0E0,0E0,0E0,0E0,0E0,0E0,0E0,0E0,0E0,0E0,0E0,0E0,0E0],"parents":[2147483647,0,0,1,1,2,2,3,3,4,4,5,5,6,6,7,7,8,8,9,9,10,10,11,11,12,12,13,13,14,14],"right_children":[2,4,6,8,10,12,14,16,18,20,22,24,26,28,30,-1,-1,-1,-1,-1,-1,-1,-1,-1,-1,-1,-1,-1,-1,-1,-1],"split_conditions":[3.940812E1,4.1358173E1,3.1647985E1,4E0,5.9437237E0,6.6911476E1,4.9524593E1,2.6182241E1,5.6341834E0,6E0,7.633065E1,1.1801695E1,7.0724815E1,5.648562E1,6.87575E1,1.2982966E-2,1.5386946E-3,2.8031275E-2,-4.9237274E-3,2.808932E-2,-6.615184E-3,-4.453523E-3,-2.3243105E-2,-3.5310087E-3,-2.3356803E-2,-2.8191224E-2,-4.5480553E-2,-1.7040124E-2,-3.4479205E-2,-3.9283555E-2,-2.1146188E-2],"split_indices":[0,1,1,10,0,0,1,0,0,10,1,8,0,0,5,0,0,0,0,0,0,0,0,0,0,0,0,0,0,0,0],"split_type":[0,0,0,0,0,0,0,0,0,0,0,0,0,0,0,0,0,0,0,0,0,0,0,0,0,0,0,0,0,0,0],"sum_hessian":[7.64083E3,6.3627354E3,1.278095E3,4.244686E3,2.118049E3,8.0427673E2,4.7381818E2,3.2638071E3,9.80879E2,2.0123987E2,1.9168092E3,7.3747974E2,6.6797005E1,3.8276022E2,9.105796E1,2.1157253E3,1.1480818E3,5.463855E1,9.262405E2,1.4049956E2,6.0740314E1,1.704097E3,2.1271227E2,6.0589966E2,1.3158011E2,2.9940886E1,3.685612E1,2.587288E2,1.2403141E2,8.024816E1,1.0809799E1],"tree_param":{"num_deleted":"0","num_feature":"18","num_nodes":"31","size_leaf_vector":"1"}},{"base_weights":[-8.184936E-3,9.238137E-2,-1.6620424E-1,1.2271836E-1,-3.4425783E-1,-1.03154466E-1,-3.9496914E-1,2.3450589E-1,2.4596117E-3,1.555361E-1,-3.8739684E-1,-1.345315E-4,-3.4168336E-1,-3.422629E-1,-7.0244336E-1,1.9349633E-2,4.401773E-3,-1.7642463E-2,2.0965333E-3,-1.039976E-2,2.5012556E-2,1.8773064E-2,-2.0867238E-2,1.538688E-3,-2.6997814E-2,-1.1358655E-2,-2.3737082E-2,-1.36070475E-2,-2.8999357E-2,-3.7839945E-2,-1.4437762E-2],"categories":[],"categories_nodes":[],"categories_segments":[],"categories_sizes":[],"default_left":[0,0,0,0,0,0,0,0,0,0,0,0,0,0,0,0,0,0,0,0,0,0,0,0,0,0,0,0,0,0,0],"id":45,"left_children":[1,3,5,7,9,11,13,15,17,19,21,23,25,27,29,-1,-1,-1,-1,-1,-1,-1,-1,-1,-1,-1,-1,-1,-1,-1,-1],"loss_changes":[1.2158154E2,6.197362E1,4.287565E1,5.877906E1,