{"learner":{"attributes":{"scikit_learn":"{\"_estimator_type\": \"classifier\"}"},"feature_names":["distance","angle","is_behind_net","is_rush","is_rebound","pre_shot_lateral_movement","pre_shot_north_south_movement","pre_shot_distance","pre_shot_speed","rebound_angle_change","shot_type_encoded","prior_event_encoded","seconds_since_prior","score_state","period_cat","is_home","game_strength_encoded","is_empty_net"],"feature_types":["float","float","float","float","float","float","float","float","float","float","float","float","float","float","float","float","float","float"],"gradient_booster":{"model":{"cats":{"enc":[],"feature_segments":[],"sorted_idx":[]},"gbtree_model_param":{"num_parallel_tree":"1","num_trees":"300"},"iteration_indptr":[0,1,2,3,4,5,6,7,8,9,10,11,12,13,14,15,16,17,18,19,20,21,22,23,24,25,26,27,28,29,30,31,32,33,34,35,36,37,38,39,40,41,42,43,44,45,46,47,48,49,50,51,52,53,54,55,56,57,58,59,60,61,62,63,64,65,66,67,68,69,70,71,72,73,74,75,76,77,78,79,80,81,82,83,84,85,86,87,88,89,90,91,92,93,94,95,96,97,98,99,100,101,102,103,104,105,106,107,108,109,110,111,112,113,114,115,116,117,118,119,120,121,122,123,124,125,126,127,128,129,130,131,132,133,134,135,136,137,138,139,140,141,142,143,144,145,146,147,148,149,150,151,152,153,154,155,156,157,158,159,160,161,162,163,164,165,166,167,168,169,170,171,172,173,174,175,176,177,178,179,180,181,182,183,184,185,186,187,188,189,190,191,192,193,194,195,196,197,198,199,200,201,202,203,204,205,206,207,208,209,210,211,212,213,214,215,216,217,218,219,220,221,222,223,224,225,226,227,228,229,230,231,232,233,234,235,236,237,238,239,240,241,242,243,244,245,246,247,248,249,250,251,252,253,254,255,256,257,258,259,260,261,262,263,264,265,266,267,268,269,270,271,272,273,274,275,276,277,278,279,280,281,282,283,284,285,286,287,288,289,290,291,292,293,294,295,296,297,298,299,300],"tree_info":[0,0,0,0,0,0,0,0,0,0,0,0,0,0,0,0,0,0,0,0,0,0,0,0,0,0,0,0,0,0,0,0,0,0,0,0,0,0,0,0,0,0,0,0,0,0,0,0,0,0,0,0,0,0,0,0,0,0,0,0,0,0,0,0,0,0,0,0,0,0,0,0,0,0,0,0,0,0,0,0,0,0,0,0,0,0,0,0,0,0,0,0,0,0,0,0,0,0,0,0,0,0,0,0,0,0,0,0,0,0,0,0,0,0,0,0,0,0,0,0,0,0,0,0,0,0,0,0,0,0,0,0,0,0,0,0,0,0,0,0,0,0,0,0,0,0,0,0,0,0,0,0,0,0,0,0,0,0,0,0,0,0,0,0,0,0,0,0,0,0,0,0,0,0,0,0,0,0,0,0,0,0,0,0,0,0,0,0,0,0,0,0,0,0,0,0,0,0,0,0,0,0,0,0,0,0,0,0,0,0,0,0,0,0,0,0,0,0,0,0,0,0,0,0,0,0,0,0,0,0,0,0,0,0,0,0,0,0,0,0,0,0,0,0,0,0,0,0,0,0,0,0,0,0,0,0,0,0,0,0,0,0,0,0,0,0,0,0,0,0,0,0,0,0,0,0,0,0,0,0,0,0,0,0,0,0,0,0,0,0,0,0,0,0,0,0,0,0,0,0],"trees":[{"base_weights":[-5.2990224E-3,3.407793E-1,-5.5404866E-1,1.7131729E0,2.54901E-1,-4.1185847E-1,-7.81862E-1,2.8865838E-3,2.3026426E0,-6.395304E-1,3.467889E-1,-1.8731375E-1,-5.6635064E-1,-1.226925E-2,-8.168928E-1,1.5773284E-1,8.8708244E-2,-4.2004216E-2,-2.6418542E-2,1.3494611E-2,5.4352153E-2,1.5666775E-2,-1.872695E-2,-2.5102964E-2,-4.5842562E-2,-2.0547962E-2,-4.2032503E-2],"categories":[],"categories_nodes":[],"categories_segments":[],"categories_sizes":[],"default_left":[0,0,0,0,0,0,0,0,0,0,0,0,0,0,0,0,0,0,0,0,0,0,0,0,0,0,0],"id":0,"left_children":[1,3,5,7,9,11,13,-1,15,17,19,21,23,-1,25,-1,-1,-1,-1,-1,-1,-1,-1,-1,-1,-1,-1],"loss_changes":[2.3956058E2,9.0736855E1,1.5481262E1,4.4152145E1,6.015294E1,1.0387539E1,3.30204E0,0E0,9.460037E0,1.0784492E0,3.7384865E1,1.181425E1,3.5666695E0,0E0,1.3375473E0,0E0,0E0,0E0,0E0,0E0,0E0,0E0,0E0,0E0,0E0,0E0,0E0],"parents":[2147483647,0,0,1,1,2,2,3,3,4,4,5,5,6,6,8,8,9,9,10,10,11,11,12,12,14,14],"right_children":[2,4,6,8,10,12,14,-1,16,18,20,22,24,-1,26,-1,-1,-1,-1,-1,-1,-1,-1,-1,-1,-1,-1],"split_conditions":[3.417172E1,6.210702E0,4.7132122E1,2E0,2E0,1.8635728E0,1.0763706E0,2.8865838E-3,6E0,2E0,1E0,2.0818783E1,1.5061856E1,-1.226925E-2,2.0524626E0,1.5773284E-1,8.8708244E-2,-4.2004216E-2,-2.6418542E-2,1.3494611E-2,5.4352153E-2,1.5666775E-2,-1.872695E-2,-2.5102964E-2,-4.5842562E-2,-2.0547962E-2,-4.2032503E-2],"split_indices":[0,0,0,12,12,8,1,0,12,14,3,1,8,0,5,0,0,0,0,0,0,0,0,0,0,0,0],"split_type":[0,0,0,0,0,0,0,0,0,0,0,0,0,0,0,0,0,0,0,0,0,0,0,0,0,0,0],"sum_hessian":[1.2594462E3,7.725827E2,4.8686346E2,4.4381844E1,7.2820087E2,3.0149353E2,1.8536995E2,1.1942102E1,3.243974E1,6.728572E1,6.6091516E2,1.2378791E2,1.7770561E2,1.1852982E1,1.7351697E2,1.0516179E1,2.1923561E1,2.16562E1,4.5629524E1,5.99957E2,6.095819E1,3.3509182E1,9.0278725E1,1.5221724E2,2.5488367E1,1.06053E1,1.6291167E2],"tree_param":{"num_deleted":"0","num_feature":"18","num_nodes":"27","size_leaf_vector":"1"}},{"base_weights":[-1.3937867E-2,3.8585857E-1,-3.9764726E-1,1.0869241E0,2.2359452E-1,-2.1493039E-1,-6.5641046E-1,-1.4688672E-2,1.4576433E0,-5.8343345E-1,3.0399746E-1,-4.578377E-2,-4.468234E-1,-7.058765E-1,-3.392766E-1,2.9259894E-2,-1.7594714E-2,1.2237592E-1,6.296037E-2,-1.1763651E-2,-3.8335923E-2,9.815652E-3,6.3060634E-2,-2.4268491E-2,4.1030088E-4,-9.555487E-3,-2.8456623E-2,-2.8011147E-2,-4.0480226E-2,-2.6552653E-2,-6.674435E-3],"categories":[],"categories_nodes":[],"categories_segments":[],"categories_sizes":[],"default_left":[0,0,0,0,0,0,0,0,0,0,0,0,0,0,0,0,0,0,0,0,0,0,0,0,0,0,0,0,0,0,0],"id":1,"left_children":[1,3,5,7,9,11,13,15,17,19,21,23,25,27,29,-1,-1,-1,-1,-1,-1,-1,-1,-1,-1,-1,-1,-1,-1,-1,-1],"loss_changes":[1.943169E2,7.0327385E1,3.0417633E1,4.7532593E1,3.294676E1,1.4897091E1,3.9492111E0,6.331696E0,1.4018036E1,2.761261E0,4.715975E1,5.2496066E0,4.9045563E0,3.0222397E0,1.4269724E0,0E0,0E0,0E0,0E0,0E0,0E0,0E0,0E0,0E0,0E0,0E0,0E0,0E0,0E0,0E0,0E0],"parents":[2147483647,0,0,1,1,2,2,3,3,4,4,5,5,6,6,7,7,8,8,9,9,10,10,11,11,12,12,13,13,14,14],"right_children":[2,4,6,8,10,12,14,16,18,20,22,24,26,28,30,-1,-1,-1,-1,-1,-1,-1,-1,-1,-1,-1,-1,-1,-1,-1,-1],"split_conditions":[2.794371E1,7.784882E0,4.2495613E1,2E0,2E0,3.1019707E0,2E0,5.8717203E0,4.804095E0,1.6246096E0,1E0,2.999423E-1,3.259157E1,4.917169E1,6E0,2.9259894E-2,-1.7594714E-2,1.2237592E-1,6.296037E-2,-1.1763651E-2,-3.8335923E-2,9.815652E-3,6.3060634E-2,-2.4268491E-2,4.1030088E-4,-9.555487E-3,-2.8456623E-2,-2.8011147E-2,-4.0480226E-2,-2.6552653E-2,-6.674435E-3],"split_indices":[0,0,0,12,12,8,13,0,0,9,3,8,0,0,11,0,0,0,0,0,0,0,0,0,0,0,0,0,0,0,0],"split_type":[0,0,0,0,0,0,0,0,0,0,0,0,0,0,0,0,0,0,0,0,0,0,0,0,0,0,0,0,0,0,0],"sum_hessian":[1.2646865E3,6.1935724E2,6.4532935E2,1.1533805E2,5.0401917E2,3.7931763E2,2.6601172E2,2.9282843E1,8.605521E1,4.5098267E1,4.589209E2,2.200251E2,1.5929254E2,2.2905782E2,3.695392E1,1.0272572E1,1.9010271E1,1.2477675E1,7.357753E1,1.6341082E1,2.8757187E1,4.1359726E2,4.5323624E1,2.319345E1,1.9683165E2,5.2368122E1,1.0692442E2,9.7936874E1,1.3112093E2,1.8310001E1,1.8643915E1],"tree_param":{"num_deleted":"0","num_feature":"18","num_nodes":"31","size_leaf_vector":"1"}},{"base_weights":[3.1515487E-2,1.9320996E-1,-1.3849261E-1,-4.1626316E-1,2.667853E-1,-1.721148E-1,2.802434E-1,-1.8734562E-1,-6.415119E-1,1.7130116E-1,1.1958679E0,-2.519492E-1,-5.0275014E-3,7.596993E-1,-1.8191338E-2,6.607853E-3,-2.1392742E-2,-4.1861486E-2,-2.3169382E-2,9.71179E-3,-3.909991E-2,9.912387E-2,4.5322552E-2,-2.9882079E-3,-1.7925007E-2,2.8970772E-2,-5.5414843E-3,5.417512E-3,5.8893878E-2],"categories":[],"categories_nodes":[],"categories_segments":[],"categories_sizes":[],"default_left":[0,0,0,0,0,0,0,0,0,0,0,0,0,0,0,0,0,0,0,0,0,0,0,0,0,0,0,0,0],"id":2,"left_children":[1,3,5,7,9,11,13,15,17,19,21,23,25,27,-1,-1,-1,-1,-1,-1,-1,-1,-1,-1,-1,-1,-1,-1,-1],"loss_changes":[3.458549E1,2.9023312E1,8.684344E0,3.481061E0,5.088604E1,7.581312E0,1.4473071E1,2.8268223E0,8.2489586E-1,1.1595488E1,1.0383812E1,7.8548565E0,1.1491824E1,7.13902E0,0E0,0E0,0E0,0E0,0E0,0E0,0E0,0E0,0E0,0E0,0E0,0E0,0E0,0E0,0E0],"parents":[2147483647,0,0,1,1,2,2,3,3,4,4,5,5,6,6,7,7,8,8,9,9,10,10,11,11,12,12,13,13],"right_children":[2,4,6,8,10,12,14,16,18,20,22,24,26,28,-1,-1,-1,-1,-1,-1,-1,-1,-1,-1,-1,-1,-1,-1,-1],"split_conditions":[3.3522076E1,2E0,1E0,1.0103252E1,1E0,5.8E1,2.816587E1,2.5253164E1,1.3E1,6.5E1,3.516378E0,4.1109608E1,8.718549E0,3.2E1,-1.8191338E-2,6.607853E-3,-2.1392742E-2,-4.1861486E-2,-2.3169382E-2,9.71179E-3,-3.909991E-2,9.912387E-2,4.5322552E-2,-2.9882079E-3,-1.7925007E-2,2.8970772E-2,-5.5414843E-3,5.417512E-3,5.8893878E-2],"split_indices":[7,12,3,7,3,6,8,1,6,12,8,7,1,6,0,0,0,0,0,0,0,0,0,0,0,0,0,0,0],"split_type":[0,0,0,0,0,0,0,0,0,0,0,0,0,0,0,0,0,0,0,0,0,0,0,0,0,0,0,0,0],"sum_hessian":[1.2561671E3,6.437556E2,6.1241156E2,6.884115E1,5.749144E2,5.6743835E2,4.4973198E1,3.5050987E1,3.3790165E1,5.224095E2,5.250495E1,3.8363126E2,1.8380707E2,2.5678324E1,1.9294874E1,1.5246887E1,1.98041E1,1.4336921E1,1.9453245E1,5.109141E2,1.1495402E1,1.254872E1,3.9956234E1,1.3738748E2,2.4624379E2,2.748817E1,1.5631891E2,1.053236E1,1.5145965E1],"tree_param":{"num_deleted":"0","num_feature":"18","num_nodes":"29","size_leaf_vector":"1"}},{"base_weights":[-1.59891E-2,2.9217172E-1,-4.8256597E-1,1.280592E0,1.9153012E-1,-2.4046935E-1,-5.68875E-1,1.04055576E-1,1.0033526E0,2.2518392E-1,-5.4637307E-1,-9.240615E-2,-6.8139005E-1,-5.22016E-1,-4.5673143E-2,7.15362E-2,2.9942384E-3,1.6400354E-2,3.1208901E-3,-1.4130011E-2,-3.7242945E-2,-2.9995402E-2,-5.4367114E-4,-4.202359E-2,-1.4467944E-2,-1.9986285E-2,-3.2487687E-2],"categories":[],"categories_nodes":[],"categories_segments":[],"categories_sizes":[],"default_left":[0,0,0,0,0,0,0,0,0,0,0,0,0,0,0,0,0,0,0,0,0,0,0,0,0,0,0],"id":3,"left_children":[1,3,5,7,9,11,13,-1,15,17,19,21,23,25,-1,-1,-1,-1,-1,-1,-1,-1,-1,-1,-1,-1,-1],"loss_changes":[1.819822E2,7.558356E1,1.0382446E1,1.3506775E1,1.7332808E1,8.687721E0,5.5038757E0,0E0,2.1737354E1,1.1083847E1,1.3873692E0,4.1933837E0,1.8484669E0,4.8700256E0,0E0,0E0,0E0,0E0,0E0,0E0,0E0,0E0,0E0,0E0,0E0,0E0,0E0],"parents":[2147483647,0,0,1,1,2,2,3,3,4,4,5,5,6,6,8,8,9,9,10,10,11,11,12,12,13,13],"right_children":[2,4,6,8,10,12,14,-1,16,18,20,22,24,26,-1,-1,-1,-1,-1,-1,-1,-1,-1,-1,-1,-1,-1],"split_conditions":[3.2984295E1,6.7437396E0,1.2706282E0,4.804095E0,2.5147202E1,4.8177204E1,1.5061856E1,1.04055576E-1,3.225023E0,2.202396E1,1.262601E1,2.999423E-1,5.60357E1,2.5E1,-4.5673143E-2,7.15362E-2,2.9942384E-3,1.6400354E-2,3.1208901E-3,-1.4130011E-2,-3.7242945E-2,-2.9995402E-2,-5.4367114E-4,-4.202359E-2,-1.4467944E-2,-1.9986285E-2,-3.2487687E-2],"split_indices":[0,0,8,0,8,0,8,0,9,0,0,8,0,5,0,0,0,0,0,0,0,0,0,0,0,0,0],"split_type":[0,0,0,0,0,0,0,0,0,0,0,0,0,0,0,0,0,0,0,0,0,0,0,0,0,0,0],"sum_hessian":[1.263712E3,7.612812E2,5.0243088E2,6.926752E1,6.920137E2,1.3304002E2,3.6939087E2,1.6144432E1,5.3123085E1,6.624939E2,2.9519745E1,1.0050092E2,3.2539097E1,3.27386E2,4.200488E1,3.6206047E1,1.6917036E1,4.0538654E2,2.5710736E2,1.3715996E1,1.5803749E1,1.3031051E1,8.746987E1,2.233281E1,1.0206288E1,1.6936902E2,1.5801697E2],"tree_param":{"num_deleted":"0","num_feature":"18","num_nodes":"27","size_leaf_vector":"1"}},{"base_weights":[1.3287003E-2,3.4397766E-1,-4.228125E-1,1.5135522E0,2.6904503E-1,-1.6179718E-1,-5.7820207E-1,9.779429E-2,1.0692083E0,3.4445414E-1,-4.839271E-1,2.9582667E-1,-2.4574141E-1,-4.4208738E-1,-7.735047E-1,8.673711E-2,1.637963E-2,1.9004922E-2,-2.6454285E-2,-1.1721328E-2,-3.5388064E-2,-5.047713E-3,4.032524E-2,-2.9204679E-3,-2.1846924E-2,-2.4502547E-2,2.0944031E-2,-3.477207E-2,-5.0174512E-2],"categories":[],"categories_nodes":[],"categories_segments":[],"categories_sizes":[],"default_left":[0,0,0,0,0,0,0,0,0,0,0,0,0,0,0,0,0,0,0,0,0,0,0,0,0,0,0,0,0],"id":4,"left_children":[1,3,5,7,9,11,13,-1,15,17,19,21,23,25,27,-1,-1,-1,-1,-1,-1,-1,-1,-1,-1,-1,-1,-1,-1],"loss_changes":[1.8195657E2,6.247889E1,2.1976547E1,6.35804E0,3.852609E1,7.926533E0,8.715065E0,0E0,1.1105295E1,1.9339401E1,3.2917786E0,6.594591E0,6.181773E0,8.592575E0,1.7903519E0,0E0,0E0,0E0,0E0,0E0,0E0,0E0,0E0,0E0,0E0,0E0,0E0,0E0,0E0],"parents":[2147483647,0,0,1,1,2,2,3,3,4,4,5,5,6,6,8,8,9,9,10,10,11,11,12,12,13,13,14,14],"right_children":[2,4,6,8,10,12,14,-1,16,18,20,22,24,26,28,-1,-1,-1,-1,-1,-1,-1,-1,-1,-1,-1,-1,-1,-1],"split_conditions":[3.0924116E1,5.8717203E0,3.8600517E1,4.804095E0,6.8705376E1,1.6968983E1,4.4777225E1,9.779429E-2,3.7006006E0,2.5147202E1,7.561747E1,9.218994E0,2.2779567E0,3.694188E1,1.0044222E1,8.673711E-2,1.637963E-2,1.9004922E-2,-2.6454285E-2,-1.1721328E-2,-3.5388064E-2,-5.047713E-3,4.032524E-2,-2.9204679E-3,-2.1846924E-2,-2.4502547E-2,2.0944031E-2,-3.477207E-2,-5.0174512E-2],"split_indices":[0,0,0,0,1,1,7,0,8,8,1,1,8,5,8,0,0,0,0,0,0,0,0,0,0,0,0,0,0],"split_type":[0,0,0,0,0,0,0,0,0,0,0,0,0,0,0,0,0,0,0,0,0,0,0,0,0,0,0,0,0],"sum_hessian":[1.2597035E3,7.1655615E2,5.431474E2,4.198836E1,6.745678E2,2.0344774E2,3.3969965E2,1.9337053E1,2.2651306E1,6.1365375E2,6.0914043E1,3.11436E1,1.7230414E2,2.0210655E2,1.3759308E2,1.1232238E1,1.1419068E1,5.9013837E2,2.3515379E1,2.9773655E1,3.1140388E1,1.7977758E1,1.3165843E1,8.769114E1,8.461299E1,1.9184964E2,1.0256915E1,1.0572949E2,3.186359E1],"tree_param":{"num_deleted":"0","num_feature":"18","num_nodes":"29","size_leaf_vector":"1"}},{"base_weights":[-1.1151629E-2,3.3978817E-1,-3.754231E-1,9.222518E-2,2.896798E-1,-1.7123547E-1,-5.7844317E-1,-4.8000604E-1,3.8424706E-1,-5.940644E-1,-9.179391E-2,-4.3176135E-1,-7.5379306E-1,-1.3668996E-2,-3.362043E-2,2.3658814E-2,-2.1563737E-2,-1.4654345E-2,-3.8561005E-2,1.4268607E-2,-7.943067E-3,-1.5055579E-2,-3.1033585E-2,-4.2796873E-2,-2.5963787E-2],"categories":[],"categories_nodes":[],"categories_segments":[],"categories_sizes":[],"default_left":[0,0,0,0,0,0,0,0,0,0,0,0,0,0,0,0,0,0,0,0,0,0,0,0,0],"id":5,"left_children":[1,3,5,-1,7,9,11,13,15,17,19,21,23,-1,-1,-1,-1,-1,-1,-1,-1,-1,-1,-1,-1],"loss_changes":[1.6235857E2,4.823919E1,2.5733894E1,0E0,4.5837418E1,1.0429348E1,7.700859E0,2.5622673E0,4.0754845E1,2.3963604E0,6.7215686E0,4.064659E0,2.9282913E0,0E0,0E0,0E0,0E0,0E0,0E0,0E0,0E0,0E0,0E0,0E0,0E0],"parents":[2147483647,0,0,1,1,2,2,4,4,5,5,6,6,7,7,8,8,9,9,10,10,11,11,12,12],"right_children":[2,4,6,-1,8,10,12,14,16,18,20,22,24,-1,-1,-1,-1,-1,-1,-1,-1,-1,-1,-1,-1],"split_conditions":[2.7694145E1,4.804095E0,3.956008E1,9.222518E-2,2E0,6E0,4.282927E1,1.1836752E1,6.7901695E1,2.8209267E1,1.7725204E1,4.917169E1,1E0,-1.3668996E-2,-3.362043E-2,2.3658814E-2,-2.1563737E-2,-1.4654345E-2,-3.8561005E-2,1.4268607E-2,-7.943067E-3,-1.5055579E-2,-3.1033585E-2,-4.2796873E-2,-2.5963787E-2],"split_indices":[0,0,0,0,12,12,7,9,1,1,1,0,13,0,0,0,0,0,0,0,0,0,0,0,0],"split_type":[0,0,0,0,0,0,0,0,0,0,0,0,0,0,0,0,0,0,0,0,0,0,0,0,0],"sum_hessian":[1.2680422E3,6.458736E2,6.221686E2,1.9660929E1,6.262127E2,3.111114E2,3.110572E2,6.807471E1,5.58138E2,4.8182304E1,2.629291E2,1.7125938E2,1.3979779E2,3.3991364E1,3.4083344E1,5.0363815E2,5.4499832E1,1.8835777E1,2.9346529E1,3.9203873E1,2.2372522E2,1.0277469E2,6.8484695E1,9.553681E1,4.426098E1],"tree_param":{"num_deleted":"0","num_feature":"18","num_nodes":"25","size_leaf_vector":"1"}},{"base_weights":[-1.5882956E-2,7.1415156E-2,-2.7185908E-1,-5.055082E-1,1.24240085E-1,2.3060715E-2,-3.0948183E-1,-2.252104E-1,-7.155942E-1,5.29049E-1,6.8529524E-2,-1.1428202E-1,-4.5644435E-1,-2.089156E-2,4.2173523E-3,-4.199717E-2,-1.9850386E-2,5.7694938E-2,-6.3270056E-3,2.271819E-2,2.213437E-3,7.5548193E-3,-1.270623E-2,-7.981888E-3,-2.7287653E-2],"categories":[],"categories_nodes":[],"categories_segments":[],"categories_sizes":[],"default_left":[0,0,0,0,0,0,0,0,0,0,0,0,0,0,0,0,0,0,0,0,0,0,0,0,0],"id":6,"left_children":[1,3,5,7,9,-1,11,13,15,17,19,21,23,-1,-1,-1,-1,-1,-1,-1,-1,-1,-1,-1,-1],"loss_changes":[2.8058224E1,2.8601753E1,8.949171E0,4.476074E0,1.9329113E1,0E0,8.677694E0,2.133882E0,1.4315262E0,4.2638535E1,7.0561886E0,4.93856E0,4.505905E0,0E0,0E0,0E0,0E0,0E0,0E0,0E0,0E0,0E0,0E0,0E0,0E0],"parents":[2147483647,0,0,1,1,2,2,3,3,4,4,6,6,7,7,8,8,9,9,10,10,11,11,12,12],"right_children":[2,4,6,8,10,-1,12,14,16,18,20,22,24,-1,-1,-1,-1,-1,-1,-1,-1,-1,-1,-1,-1],"split_conditions":[2.9760191E1,2E0,2E0,1.0103252E1,4E0,2.3060715E-2,5E0,4E0,1.7483229E1,3E0,1.0763706E0,1E1,2.1801409E1,-2.089156E-2,4.2173523E-3,-4.199717E-2,-1.9850386E-2,5.7694938E-2,-6.3270056E-3,2.271819E-2,2.213437E-3,7.5548193E-3,-1.270623E-2,-7.981888E-3,-2.7287653E-2],"split_indices":[5,12,6,7,12,0,11,5,5,11,1,12,1,0,0,0,0,0,0,0,0,0,0,0,0],"split_type":[0,0,0,0,0,0,0,0,0,0,0,0,0,0,0,0,0,0,0,0,0,0,0,0,0],"sum_hessian":[1.2537443E3,9.354421E2,3.1830222E2,7.774849E1,8.576936E2,1.4988808E1,3.0331342E2,3.4196007E1,4.3552486E1,1.02730194E2,7.549634E2,1.3104E2,1.7227342E2,2.0863815E1,1.33321905E1,3.0148571E1,1.3403915E1,5.2209038E1,5.0521156E1,4.3614044E1,7.1134937E2,4.519439E1,8.58456E1,4.0491695E1,1.3178172E2],"tree_param":{"num_deleted":"0","num_feature":"18","num_nodes":"25","size_leaf_vector":"1"}},{"base_weights":[-7.2242636E-3,2.8501615E-1,-4.1631234E-1,7.9033446E-1,1.8308817E-1,-2.9660675E-1,-6.7810243E-1,-1.3615736E-1,1.0489327E0,-5.2946997E-1,2.402913E-1,2.1705296E-2,-4.0961146E-1,-7.3677397E-1,-3.103379E-1,2.1962345E-2,-2.4292618E-2,6.2793784E-2,-7.276991E-3,-1.8750472E-2,-3.766565E-2,3.4041543E-2,8.166811E-3,3.716247E-2,-7.6851174E-3,-4.2700652E-2,-1.767015E-2,-3.0546118E-2,-4.1617364E-2,-3.0079661E-2,-4.4747858E-4],"categories":[],"categories_nodes":[],"categories_segments":[],"categories_sizes":[],"default_left":[0,0,0,0,0,0,0,0,0,0,0,0,0,0,0,0,0,0,0,0,0,0,0,0,0,0,0,0,0,0,0],"id":7,"left_children":[1,3,5,7,9,11,13,15,17,19,21,23,25,27,29,-1,-1,-1,-1,-1,-1,-1,-1,-1,-1,-1,-1,-1,-1,-1,-1],"loss_changes":[1.5096982E2,3.7795128E1,1.6288605E1,2.9693832E1,2.5165154E1,1.30613365E1,3.3171844E0,5.8070493E0,2.4046593E1,1.30657E0,1.9189354E1,1.2266876E1,6.388672E0,1.1873779E0,2.130978E0,0E0,0E0,0E0,0E0,0E0,0E0,0E0,0E0,0E0,0E0,0E0,0E0,0E0,0E0,0E0,0E0],"parents":[2147483647,0,0,1,1,2,2,3,3,4,4,5,5,6,6,7,7,8,8,9,9,10,10,11,11,12,12,13,13,14,14],"right_children":[2,4,6,8,10,12,14,16,18,20,22,24,26,28,30,-1,-1,-1,-1,-1,-1,-1,-1,-1,-1,-1,-1,-1,-1,-1,-1],"split_conditions":[3.0924116E1,7.6491685E0,4.7132122E1,2E0,2E0,2.0818783E1,2E0,2.6646948E1,6.5556046E1,1.262601E1,6.9850955E0,9.724514E-1,5E0,1.3E1,6E0,2.1962345E-2,-2.4292618E-2,6.2793784E-2,-7.276991E-3,-1.8750472E-2,-3.766565E-2,3.4041543E-2,8.166811E-3,3.716247E-2,-7.6851174E-3,-4.2700652E-2,-1.767015E-2,-3.0546118E-2,-4.1617364E-2,-3.0079661E-2,-4.4747858E-4],"split_indices":[0,0,0,12,12,1,13,1,1,0,1,8,12,12,11,0,0,0,0,0,0,0,0,0,0,0,0,0,0,0,0],"split_type":[0,0,0,0,0,0,0,0,0,0,0,0,0,0,0,0,0,0,0,0,0,0,0,0,0,0,0,0,0,0,0],"sum_hessian":[1.2608031E3,7.356091E2,5.2519403E2,1.2234037E2,6.1326874E2,3.6186252E2,1.6333151E2,2.679918E1,9.554119E1,4.4960197E1,5.6830853E2,9.5019424E1,2.6684308E2,1.399941E2,2.3337423E1,1.0033504E1,1.6765676E1,8.138908E1,1.4152109E1,2.8186043E1,1.6774155E1,8.334453E1,4.84964E2,1.7948895E1,7.707053E1,2.8367464E1,2.3847563E2,6.36161E1,7.6378E1,1.1361671E1,1.1975753E1],"tree_param":{"num_deleted":"0","num_feature":"18","num_nodes":"31","size_leaf_vector":"1"}},{"base_weights":[-8.7102473E-4,6.527218E-2,-3.6606213E-1,-4.0141538E-1,1.031671E-1,-2.035178E-1,-4.5091954E-1,-1.5435416E-1,-5.771559E-1,4.082141E-2,7.2486866E-1,1.7105171E-2,-3.368659E-1,-2.8570855E-1,-6.60609E-1,-2.3752045E-2,1.6232375E-3,-1.0173207E-2,-3.389103E-2,7.6581226E-3,-3.2628437E-3,5.219037E-2,5.967714E-3,-2.3361528E-2,8.982836E-3,-2.6744021E-2,-9.548907E-3,-3.886077E-2,-2.423667E-2],"categories":[],"categories_nodes":[],"categories_segments":[],"categories_sizes":[],"default_left":[0,0,0,0,0,0,0,0,0,0,0,0,0,0,0,0,0,0,0,0,0,0,0,0,0,0,0,0,0],"id":8,"left_children":[1,3,5,7,9,11,13,15,17,19,21,-1,23,25,27,-1,-1,-1,-1,-1,-1,-1,-1,-1,-1,-1,-1,-1,-1],"loss_changes":[3.0442318E1,1.891221E1,2.573885E0,3.3992205E0,3.8254242E1,5.0707474E0,4.181492E0,2.0978737E0,1.6143808E0,1.0720258E1,1.724907E1,0E0,3.803399E0,1.604917E0,7.477226E-1,0E0,0E0,0E0,0E0,0E0,0E0,0E0,0E0,0E0,0E0,0E0,0E0,0E0,0E0],"parents":[2147483647,0,0,1,1,2,2,3,3,4,4,5,5,6,6,7,7,8,8,9,9,10,10,12,12,13,13,14,14],"right_children":[2,4,6,8,10,12,14,16,18,20,22,-1,24,26,28,-1,-1,-1,-1,-1,-1,-1,-1,-1,-1,-1,-1,-1,-1],"split_conditions":[3.7097805E1,2E0,1E1,1.0044222E1,1E0,1E0,2.795828E0,0E0,5.1363263E0,1.7E1,3E0,1.7105171E-2,5.2E1,4.1E1,1.6E1,-2.3752045E-2,1.6232375E-3,-1.0173207E-2,-3.389103E-2,7.6581226E-3,-3.2628437E-3,5.219037E-2,5.967714E-3,-2.3361528E-2,8.982836E-3,-2.6744021E-2,-9.548907E-3,-3.886077E-2,-2.423667E-2],"split_indices":[5,12,12,8,3,15,8,13,5,6,11,0,5,5,12,0,0,0,0,0,0,0,0,0,0,0,0,0,0],"split_type":[0,0,0,0,0,0,0,0,0,0,0,0,0,0,0,0,0,0,0,0,0,0,0,0,0,0,0,0,0],"sum_hessian":[1.258306E3,1.0660457E3,1.9226031E2,7.934123E1,9.867044E2,6.710982E1,1.25150505E2,3.3759468E1,4.5581764E1,8.977424E2,8.896205E1,1.2872764E1,5.4237053E1,7.132064E1,5.3829865E1,1.1859345E1,2.1900122E1,1.031419E1,3.5267574E1,4.357851E2,4.619573E2,5.77958E1,3.1166252E1,4.338307E1,1.0853983E1,1.8365925E1,5.2954716E1,3.0313042E1,2.3516823E1],"tree_param":{"num_deleted":"0","num_feature":"18","num_nodes":"29","size_leaf_vector":"1"}},{"base_weights":[8.406934E-3,2.3640953E-1,-4.1618267E-1,7.3503095E-1,1.4168963E-1,-3.60289E-1,-8.742131E-1,-8.630947E-2,9.554057E-1,1.9476755E-1,-5.2243584E-1,-2.5505918E-1,-6.04096E-1,-3.2792278E-2,-4.9182307E-2,1.2782945E-2,-2.921847E-2,5.5752248E-2,-1.3662641E-3,-2.7493317E-2,1.2250143E-2,-1.6730616E-2,-4.825164E-2,-1.9251794E-3,-1.8163359E-2,-2.1732619E-2,-4.2497452E-2],"categories":[],"categories_nodes":[],"categories_segments":[],"categories_sizes":[],"default_left":[0,0,0,0,0,0,0,0,0,0,0,0,0,0,0,0,0,0,0,0,0,0,0,0,0,0,0],"id":9,"left_children":[1,3,5,7,9,11,13,15,17,19,21,23,25,-1,-1,-1,-1,-1,-1,-1,-1,-1,-1,-1,-1,-1,-1],"loss_changes":[1.2166954E2,3.8514748E1,1.0926788E1,2.3666275E1,2.4367865E1,9.930126E0,4.7937393E-1,5.000325E0,1.6160225E1,2.4006886E1,3.9347897E0,6.4602604E0,4.5366898E0,0E0,0E0,0E0,0E0,0E0,0E0,0E0,0E0,0E0,0E0,0E0,0E0,0E0,0E0],"parents":[2147483647,0,0,1,1,2,2,3,3,4,4,5,5,6,6,7,7,8,8,9,9,10,10,11,11,12,12],"right_children":[2,4,6,8,10,12,14,16,18,20,22,24,26,-1,-1,-1,-1,-1,-1,-1,-1,-1,-1,-1,-1,-1,-1],"split_conditions":[3.3970577E1,7.784882E0,1.2684198E1,2E0,6.8705376E1,4.917169E1,2.9E1,6.636183E0,6.5556046E1,2E0,2.1E1,2.2070805E1,2.5E1,-3.2792278E-2,-4.9182307E-2,1.2782945E-2,-2.921847E-2,5.5752248E-2,-1.3662641E-3,-2.7493317E-2,1.2250143E-2,-1.6730616E-2,-4.825164E-2,-1.9251794E-3,-1.8163359E-2,-2.1732619E-2,-4.2497452E-2],"split_indices":[0,0,8,12,1,0,6,0,1,12,12,1,5,0,0,0,0,0,0,0,0,0,0,0,0,0,0],"split_type":[0,0,0,0,0,0,0,0,0,0,0,0,0,0,0,0,0,0,0,0,0,0,0,0,0,0,0],"sum_hessian":[1.2548025E3,8.166881E2,4.381144E2,1.292954E2,6.873927E2,3.92058E2,4.6056416E1,2.7481125E1,1.0181428E2,6.371754E2,5.0217293E1,2.7528717E2,1.1677084E2,1.7710064E1,2.8346352E1,1.6582357E1,1.0898768E1,8.747053E1,1.434375E1,3.964057E1,5.9753485E2,3.648871E1,1.3728581E1,9.217467E1,1.8311249E2,7.076621E1,4.6004635E1],"tree_param":{"num_deleted":"0","num_feature":"18","num_nodes":"27","size_leaf_vector":"1"}},{"base_weights":[-8.223255E-3,2.1074854E-1,-4.2893556E-1,4.5140877E-1,3.9721716E-2,-2.9920727E-1,-6.057315E-1,-2.4066947E-1,5.8113974E-1,5.635149E-1,-3.9371986E-2,-1.8412992E-1,-5.925124E-1,-4.5088384E-1,-7.643897E-1,1.8963762E-2,-2.4294754E-2,2.2794526E-2,5.4846555E-2,4.747371E-2,-2.7465334E-3,6.749245E-4,-3.1838216E-2,1.173737E-2,-1.6009163E-2,-2.5063222E-2,-4.9875367E-2,-2.8619846E-2,-9.404906E-3,-2.8796231E-2,-4.32153E-2],"categories":[],"categories_nodes":[],"categories_segments":[],"categories_sizes":[],"default_left":[0,0,0,0,0,0,0,0,0,0,0,0,0,0,0,0,0,0,0,0,0,0,0,0,0,0,0,0,0,0,0],"id":10,"left_children":[1,3,5,7,9,11,13,15,17,19,21,23,25,27,29,-1,-1,-1,-1,-1,-1,-1,-1,-1,-1,-1,-1,-1,-1,-1,-1],"loss_changes":[1.1550962E2,3.392476E1,9.662674E0,3.0890282E1,2.003938E1,8.313204E0,4.0940704E0,8.511261E0,1.815197E1,1.5198149E1,1.3296737E1,1.0371239E1,2.081787E0,2.8898487E0,1.1555634E0,0E0,0E0,0E0,0E0,0E0,0E0,0E0,0E0,0E0,0E0,0E0,0E0,0E0,0E0,0E0,0E0],"parents":[2147483647,0,0,1,1,2,2,3,3,4,4,5,5,6,6,7,7,8,8,9,9,10,10,11,11,12,12,13,13,14,14],"right_children":[2,4,6,8,10,12,14,16,18,20,22,24,26,28,30,-1,-1,-1,-1,-1,-1,-1,-1,-1,-1,-1,-1,-1,-1,-1,-1],"split_conditions":[3.3970577E1,1.3216752E1,4.529256E1,2E0,8.130102E0,3.9986885E1,4.282927E1,6.4695783E0,1E0,3E0,6.7901695E1,1.0420982E0,7.190778E1,3.6619667E1,2.6636242E1,1.8963762E-2,-2.4294754E-2,2.2794526E-2,5.4846555E-2,4.747371E-2,-2.7465334E-3,6.749245E-4,-3.1838216E-2,1.173737E-2,-1.6009163E-2,-2.5063222E-2,-4.9875367E-2,-2.8619846E-2,-9.404906E-3,-2.8796231E-2,-4.32153E-2],"split_indices":[0,0,0,12,1,1,7,0,3,10,1,8,7,7,5,0,0,0,0,0,0,0,0,0,0,0,0,0,0,0,0],"split_type":[0,0,0,0,0,0,0,0,0,0,0,0,0,0,0,0,0,0,0,0,0,0,0,0,0,0,0,0,0,0,0],"sum_hessian":[1.2518663E3,8.2366516E2,4.282011E2,3.414935E2,4.8217166E2,2.4852919E2,1.7967194E2,5.377323E1,2.8772028E2,6.2453377E1,4.197183E2,1.7966571E2,6.886348E1,9.287214E1,8.679979E1,1.5086654E1,3.868658E1,2.3302007E2,5.470021E1,3.812505E1,2.4328331E1,3.8649048E2,3.3227818E1,4.3871105E1,1.357946E2,5.8027267E1,1.0836218E1,6.2700844E1,3.0171297E1,3.2417343E1,5.4382442E1],"tree_param":{"num_deleted":"0","num_feature":"18","num_nodes":"31","size_leaf_vector":"1"}},{"base_weights":[5.468276E-3,2.4906258E-1,-4.3624964E-1,8.1651765E-1,1.7971233E-1,-2.8665665E-1,-6.192813E-1,9.5720965E-1,1.6766271E-3,3.428605E-1,-2.6790217E-2,8.60999E-2,-4.1471145E-1,-2.0839368E-1,-6.745091E-1,3.95818E-2,8.362932E-2,2.0296467E-2,-1.5717587E-2,2.7913996E-3,-2.1771366E-2,-6.1324886E-3,1.692198E-2,5.505541E-3,-2.3632143E-2,7.158795E-3,-3.2103766E-2,-1.7829498E-2,-3.5926726E-2],"categories":[],"categories_nodes":[],"categories_segments":[],"categories_sizes":[],"default_left":[0,0,0,0,0,0,0,0,0,0,0,0,0,0,0,0,0,0,0,0,0,0,0,0,0,0,0,0,0],"id":11,"left_children":[1,3,5,7,9,11,13,15,-1,17,19,21,23,25,27,-1,-1,-1,-1,-1,-1,-1,-1,-1,-1,-1,-1,-1,-1],"loss_changes":[1.3476413E2,3.1621311E1,1.2011887E1,9.621265E0,2.4287401E1,1.18179E1,4.383301E0,7.4702606E0,0E0,1.681705E1,1.0793376E1,3.4097204E0,5.6430397E0,3.9139984E0,2.1971893E0,0E0,0E0,0E0,0E0,0E0,0E0,0E0,0E0,0E0,0E0,0E0,0E0,0E0,0E0],"parents":[2147483647,0,0,1,1,2,2,3,3,4,4,5,5,6,6,7,7,9,9,10,10,11,11,12,12,13,13,14,14],"right_children":[2,4,6,8,10,12,14,16,-1,18,20,22,24,26,28,-1,-1,-1,-1,-1,-1,-1,-1,-1,-1,-1,-1,-1,-1],"split_conditions":[3.2984295E1,6.7437396E0,4.3745605E1,2.3305502E1,3.7512936E1,2.0818783E1,2.7785542E0,2E0,1.6766271E-3,1.6246096E0,6.8705376E1,6E0,2.0524626E0,5.3619617E1,1.4E1,3.95818E-2,8.362932E-2,2.0296467E-2,-1.5717587E-2,2.7913996E-3,-2.1771366E-2,-6.1324886E-3,1.692198E-2,5.505541E-3,-2.3632143E-2,7.158795E-3,-3.2103766E-2,-1.7829498E-2,-3.5926726E-2],"split_indices":[0,0,0,9,1,1,1,13,0,9,1,11,5,0,6,0,0,0,0,0,0,0,0,0,0,0,0,0,0],"split_type":[0,0,0,0,0,0,0,0,0,0,0,0,0,0,0,0,0,0,0,0,0,0,0,0,0,0,0,0,0],"sum_hessian":[1.2504453E3,8.062555E2,4.441898E2,8.663065E1,7.196248E2,2.458341E2,1.9835568E2,7.324669E1,1.33839655E1,4.0164404E2,3.179808E2,6.294224E1,1.8289188E2,2.4067797E1,1.7428789E2,6.1190723E1,1.2055962E1,3.6682437E2,3.4819668E1,2.6522168E2,5.2759117E1,3.4727577E1,2.8214664E1,1.8091702E1,1.6480017E2,1.36622095E1,1.0405586E1,2.2306465E1,1.5198143E2],"tree_param":{"num_deleted":"0","num_feature":"18","num_nodes":"29","size_leaf_vector":"1"}},{"base_weights":[6.696179E-3,2.7968556E-1,-3.1288037E-1,-2.9544675E-1,3.4099832E-1,-2.1240278E-1,-6.066733E-1,1.5074076E-2,-5.018826E-1,2.5361452E-1,8.7489396E-1,-1.6445135E-1,-7.6669145E-1,-5.1456857E-1,-4.605415E-2,-1.5313195E-2,-3.410849E-2,3.921875E-2,9.458519E-3,2.6408328E-2,7.843279E-2,-2.7619384E-3,-1.3050181E-2,-4.6683356E-2,-2.474107E-2,-2.9947398E-2,-8.761027E-4],"categories":[],"categories_nodes":[],"categories_segments":[],"categories_sizes":[],"default_left":[0,0,0,0,0,0,0,0,0,0,0,0,0,0,0,0,0,0,0,0,0,0,0,0,0,0,0],"id":12,"left_children":[1,3,5,7,9,11,13,-1,15,17,19,21,23,25,-1,-1,-1,-1,-1,-1,-1,-1,-1,-1,-1,-1,-1],"loss_changes":[1.1005831E2,2.4091896E1,1.7027657E1,8.29395E0,2.848288E1,1.1425556E1,3.7995949E0,0E0,1.5358915E0,1.798478E1,1.988987E1,4.217016E0,1.0965195E0,4.871546E0,0E0,0E0,0E0,0E0,0E0,0E0,0E0,0E0,0E0,0E0,0E0,0E0,0E0],"parents":[2147483647,0,0,1,1,2,2,3,3,4,4,5,5,6,6,8,8,9,9,10,10,11,11,12,12,13,13],"right_children":[2,4,6,8,10,12,14,-1,16,18,20,22,24,26,-1,-1,-1,-1,-1,-1,-1,-1,-1,-1,-1,-1,-1],"split_conditions":[2.7694145E1,2E0,4.7132122E1,6.4695783E0,1E0,1.5061856E1,8.411897E0,1.5074076E-2,1.1836752E1,6.8894773E0,3E0,1.9135375E0,4E0,5.44675E0,-4.605415E-2,-1.5313195E-2,-3.410849E-2,3.921875E-2,9.458519E-3,2.6408328E-2,7.843279E-2,-2.7619384E-3,-1.3050181E-2,-4.6683356E-2,-2.474107E-2,-2.9947398E-2,-8.761027E-4],"split_indices":[0,12,0,0,3,8,8,0,9,0,12,8,12,8,0,0,0,0,0,0,0,0,0,0,0,0,0],"split_type":[0,0,0,0,0,0,0,0,0,0,0,0,0,0,0,0,0,0,0,0,0,0,0,0,0,0,0],"sum_hessian":[1.2595404E3,6.793497E2,5.8019073E2,6.507817E1,6.142715E2,4.3361633E2,1.4657442E2,1.6604456E1,4.8473717E1,5.291409E2,8.513058E1,4.002845E2,3.333186E1,1.15404015E2,3.1170393E1,2.4542686E1,2.3931032E1,5.6081738E1,4.7305917E2,5.7936466E1,2.7194109E1,1.8856558E2,2.1171889E2,1.9141436E1,1.4190424E1,9.848077E1,1.6923254E1],"tree_param":{"num_deleted":"0","num_feature":"18","num_nodes":"27","size_leaf_vector":"1"}},{"base_weights":[-4.534925E-3,2.5270304E-1,-3.149719E-1,1.2454019E0,2.1548273E-1,-1.7933816E-1,-5.848093E-1,8.3206914E-2,3.2383777E-2,-4.5187423E-1,2.839756E-1,-5.6458676E-1,-1.0664845E-1,-4.225484E-1,-8.027117E-1,-1.547306E-2,-3.8210966E-2,1.0477199E-2,3.7614565E-2,-3.7958425E-2,-1.8206641E-2,-2.4880652E-4,-1.1694009E-2,-2.716435E-2,-7.261029E-3,-4.7844943E-2,-3.383967E-2],"categories":[],"categories_nodes":[],"categories_segments":[],"categories_sizes":[],"default_left":[0,0,0,0,0,0,0,0,0,0,0,0,0,0,0,0,0,0,0,0,0,0,0,0,0,0,0],"id":13,"left_children":[1,3,5,7,9,11,13,-1,-1,15,17,19,21,23,25,-1,-1,-1,-1,-1,-1,-1,-1,-1,-1,-1,-1],"loss_changes":[1.01051575E2,2.5300533E1,2.0881378E1,5.129238E0,3.0671839E1,1.0666324E1,6.42704E0,0E0,0E0,2.5473309E0,2.0987988E1,2.0860043E0,4.1832657E0,3.6646366E0,9.166069E-1,0E0,0E0,0E0,0E0,0E0,0E0,0E0,0E0,0E0,0E0,0E0,0E0],"parents":[2147483647,0,0,1,1,2,2,3,3,4,4,5,5,6,6,9,9,10,10,11,11,12,12,13,13,14,14],"right_children":[2,4,6,8,10,12,14,-1,-1,16,18,20,22,24,26,-1,-1,-1,-1,-1,-1,-1,-1,-1,-1,-1,-1],"split_conditions":[2.7694145E1,4.804095E0,4.3745605E1,6E0,2E0,6E0,4.4777225E1,8.3206914E-2,3.2383777E-2,1.1269179E1,1E0,2.2538359E1,2.0561297E0,3.7903587E1,5E0,-1.547306E-2,-3.8210966E-2,1.0477199E-2,3.7614565E-2,-3.7958425E-2,-1.8206641E-2,-2.4880652E-4,-1.1694009E-2,-2.716435E-2,-7.261029E-3,-4.7844943E-2,-3.383967E-2],"split_indices":[0,0,0,12,12,12,7,0,0,5,3,5,8,7,11,0,0,0,0,0,0,0,0,0,0,0,0],"split_type":[0,0,0,0,0,0,0,0,0,0,0,0,0,0,0,0,0,0,0,0,0,0,0,0,0,0,0],"sum_hessian":[1.263423E3,6.910133E2,5.7240967E2,2.3799492E1,6.672138E2,3.820413E2,1.903684E2,1.2946043E1,1.085345E1,6.1583237E1,6.0563055E2,5.9568222E1,3.2247305E2,1.10800224E2,7.956816E1,4.366503E1,1.7918205E1,5.2382416E2,8.180641E1,2.8812513E1,3.0755709E1,1.7981775E2,1.426553E2,7.6524994E1,3.4275238E1,3.2802322E1,4.676584E1],"tree_param":{"num_deleted":"0","num_feature":"18","num_nodes":"27","size_leaf_vector":"1"}},{"base_weights":[1.1888974E-2,2.6826033E-1,-3.0667993E-1,3.2722327E-1,-2.5856414E-1,-2.0515051E-1,-6.906043E-1,9.932249E-1,2.7475074E-1,1.2257927E-2,-3.6337623E-1,1.0189704E-1,-2.568799E-1,-5.742554E-1,-4.2750023E-2,3.1179497E-2,6.214599E-2,2.1332098E-2,1.6605956E-3,-9.353015E-3,-2.9516578E-2,-8.2302184E-5,2.9764224E-2,-8.416452E-3,-2.3578925E-2,-3.2590564E-2,-5.2903243E-3],"categories":[],"categories_nodes":[],"categories_segments":[],"categories_sizes":[],"default_left":[0,0,0,0,0,0,0,0,0,0,0,0,0,0,0,0,0,0,0,0,0,0,0,0,0,0,0],"id":14,"left_children":[1,3,5,7,9,11,13,15,17,-1,19,21,23,25,-1,-1,-1,-1,-1,-1,-1,-1,-1,-1,-1,-1,-1],"loss_changes":[1.0269355E2,2.1725773E1,2.1714195E1,2.1638733E1,3.8209276E0,7.0919933E0,1.7439232E0,3.4160347E0,2.1359684E1,0E0,2.2470016E0,3.314293E0,7.1640854E0,2.5274582E0,0E0,0E0,0E0,0E0,0E0,0E0,0E0,0E0,0E0,0E0,0E0,0E0,0E0],"parents":[2147483647,0,0,1,1,2,2,3,3,4,4,5,5,6,6,7,7,8,8,10,10,11,11,12,12,13,13],"right_children":[2,4,6,8,10,12,14,16,18,-1,20,22,24,26,-1,-1,-1,-1,-1,-1,-1,-1,-1,-1,-1,-1,-1],"split_conditions":[2.794371E1,6.689693E1,4.917169E1,5.8717203E0,6.210702E0,1.1309933E1,2.5E1,1.5E1,3E0,1.2257927E-2,7.561747E1,9.555698E0,3.992493E1,2E0,-4.2750023E-2,3.1179497E-2,6.214599E-2,2.1332098E-2,1.6605956E-3,-9.353015E-3,-2.9516578E-2,-8.2302184E-5,2.9764224E-2,-8.416452E-3,-2.3578925E-2,-3.2590564E-2,-5.2903243E-3],"split_indices":[0,1,0,0,0,1,5,6,10,0,1,1,0,13,0,0,0,0,0,0,0,0,0,0,0,0,0],"split_type":[0,0,0,0,0,0,0,0,0,0,0,0,0,0,0,0,0,0,0,0,0,0,0,0,0,0,0],"sum_hessian":[1.2553835E3,6.9568353E2,5.597E2,6.2599963E2,6.968389E1,4.4385596E2,1.1584407E2,4.4409428E1,5.815902E2,1.17715E1,5.7912388E1,6.3856472E1,3.7999948E2,7.046595E1,4.537812E1,1.9314571E1,2.5094856E1,3.5658566E2,2.2500456E2,3.361891E1,2.4293478E1,5.3603764E1,1.0252709E1,2.703002E2,1.09699295E2,6.0120964E1,1.0344989E1],"tree_param":{"num_deleted":"0","num_feature":"18","num_nodes":"27","size_leaf_vector":"1"}},{"base_weights":[1.1973146E-2,1.9202961E-1,-3.7527668E-1,1.2221622E0,1.5961E-1,-2.3396103E-1,-5.8342546E-1,7.87537E-2,3.541341E-2,-4.8964253E-1,2.1280473E-1,-3.6972653E-2,-3.9181966E-1,-4.2737517E-1,-7.81778E-1,-1.7772404E-2,-4.0235274E-2,1.9558651E-2,1.6355444E-3,1.847978E-2,-9.543133E-3,-1.4028147E-2,-3.4357052E-2,-3.0986656E-2,-5.8318805E-3,-2.6966462E-2,-4.336291E-2],"categories":[],"categories_nodes":[],"categories_segments":[],"categories_sizes":[],"default_left":[0,0,0,0,0,0,0,0,0,0,0,0,0,0,0,0,0,0,0,0,0,0,0,0,0,0,0],"id":15,"left_children":[1,3,5,7,9,11,13,-1,-1,15,17,19,21,23,25,-1,-1,-1,-1,-1,-1,-1,-1,-1,-1,-1,-1],"loss_changes":[8.7544556E1,2.8425714E1,1.1585342E1,3.5993614E0,2.8838888E1,7.4183655E0,4.633106E0,0E0,0E0,2.3906355E0,2.4712082E1,6.7926297E0,4.163599E0,5.428095E0,9.716873E-1,0E0,0E0,0E0,0E0,0E0,0E0,0E0,0E0,0E0,0E0,0E0,0E0],"parents":[2147483647,0,0,1,1,2,2,3,3,4,4,5,5,6,6,9,9,10,10,11,11,12,12,13,13,14,14],"right_children":[2,4,6,8,10,12,14,-1,-1,16,18,20,22,24,26,-1,-1,-1,-1,-1,-1,-1,-1,-1,-1,-1,-1],"split_conditions":[3.3805515E1,4.804095E0,4.529256E1,6E0,2E0,1.8381802E0,4.4553337E1,7.87537E-2,3.541341E-2,1.262601E1,1.7989796E1,2.0818783E1,3.9986885E1,3.6619667E1,1.2528808E1,-1.7772404E-2,-4.0235274E-2,1.9558651E-2,1.6355444E-3,1.847978E-2,-9.543133E-3,-1.4028147E-2,-3.4357052E-2,-3.0986656E-2,-5.8318805E-3,-2.6966462E-2,-4.336291E-2],"split_indices":[0,0,0,12,12,8,7,0,0,0,0,1,1,7,1,0,0,0,0,0,0,0,0,0,0,0,0],"split_type":[0,0,0,0,0,0,0,0,0,0,0,0,0,0,0,0,0,0,0,0,0,0,0,0,0,0,0],"sum_hessian":[1.2535026E3,8.5599945E2,3.975031E2,2.499776E1,8.3100165E2,2.3802682E2,1.594763E2,1.3595917E1,1.1401845E1,6.2308537E1,7.686931E2,1.064386E2,1.3158823E2,9.102143E1,6.8454865E1,4.5189285E1,1.7119253E1,3.8560785E2,3.830853E2,2.884092E1,7.759768E1,9.699661E1,3.459161E1,5.5605312E1,3.5416115E1,1.9749239E1,4.8705627E1],"tree_param":{"num_deleted":"0","num_feature":"18","num_nodes":"27","size_leaf_vector":"1"}},{"base_weights":[-2.6069192E-2,1.3458495E-1,-3.7802893E-1,1.7693596E-1,-3.397485E-1,-3.2200834E-1,-7.211777E-1,5.3912425E-1,1.0710496E-1,-1.1288168E-1,-6.428257E-1,-2.2291769E-1,-4.7523203E-1,-2.0985888E-2,-8.1926566E-1,-8.535176E-3,3.0786622E-2,1.0371865E-2,-7.4780807E-3,3.1459504E-3,-2.7011668E-2,-4.180391E-2,-1.5186848E-2,-2.3158358E-3,-2.3312887E-2,-2.7825458E-2,-8.098741E-3,-2.6633313E-2,-4.4956263E-2],"categories":[],"categories_nodes":[],"categories_segments":[],"categories_sizes":[],"default_left":[0,0,0,0,0,0,0,0,0,0,0,0,0,0,0,0,0,0,0,0,0,0,0,0,0,0,0,0,0],"id":16,"left_children":[1,3,5,7,9,11,13,15,17,19,21,23,25,-1,27,-1,-1,-1,-1,-1,-1,-1,-1,-1,-1,-1,-1,-1,-1],"loss_changes":[7.053258E1,1.7267538E1,7.2825317E0,1.9847712E1,4.7785788E0,5.023823E0,1.2545471E0,7.009346E0,1.7054634E1,3.1565623E0,1.7113361E0,8.876519E0,3.265667E0,0E0,4.3050385E-1,0E0,0E0,0E0,0E0,0E0,0E0,0E0,0E0,0E0,0E0,0E0,0E0,0E0,0E0],"parents":[2147483647,0,0,1,1,2,2,3,3,4,4,5,5,6,6,7,7,8,8,9,9,10,10,11,11,12,12,14,14],"right_children":[2,4,6,8,10,12,14,16,18,20,22,24,26,-1,28,-1,-1,-1,-1,-1,-1,-1,-1,-1,-1,-1,-1,-1,-1],"split_conditions":[3.3805515E1,6.7901695E1,1.0307764E1,7.784882E0,1.6432676E1,4.529256E1,4.0012497E1,1.0277313E0,3E0,8.0254036E1,5.2115164E0,3.5095818E1,5.2115164E0,-2.0985888E-2,3.8387096E1,-8.535176E-3,3.0786622E-2,1.0371865E-2,-7.4780807E-3,3.1459504E-3,-2.7011668E-2,-4.180391E-2,-1.5186848E-2,-2.3158358E-3,-2.3312887E-2,-2.7825458E-2,-8.098741E-3,-2.6633313E-2,-4.4956263E-2],"split_indices":[0,1,8,0,5,0,7,5,10,1,8,1,8,0,0,0,0,0,0,0,0,0,0,0,0,0,0,0,0],"split_type":[0,0,0,0,0,0,0,0,0,0,0,0,0,0,0,0,0,0,0,0,0,0,0,0,0,0,0,0,0],"sum_hessian":[1.2454977E3,8.555805E2,3.8991724E2,7.860268E2,6.955368E1,3.3686148E2,5.3055756E1,1.2596602E2,6.600608E2,4.056295E1,2.899073E1,2.0605765E2,1.3080383E2,1.4321033E1,3.8734722E1,1.2150938E1,1.1381508E2,4.746927E2,1.853681E2,2.9344292E1,1.1218661E1,1.7532816E1,1.1457914E1,1.2009242E2,8.5965225E1,1.032407E2,2.7563139E1,1.0112632E1,2.8622091E1],"tree_param":{"num_deleted":"0","num_feature":"18","num_nodes":"29","size_leaf_vector":"1"}},{"base_weights":[-2.9205743E-2,9.064667E-2,-4.5996162E-1,5.2190053E-1,4.1712146E-2,-3.9446756E-1,-7.564334E-1,-4.220177E-2,6.750623E-1,-5.801317E-1,7.904914E-2,-2.8479436E-1,-4.992132E-1,-2.067445E-2,-4.5587607E-2,1.7347759E-2,-2.14096E-2,4.258856E-2,-3.2877189E-3,-2.1126201E-2,-3.922736E-2,7.492219E-3,-3.5715357E-3,5.618412E-3,-1.9033408E-2,-7.379929E-3,-3.2717254E-2],"categories":[],"categories_nodes":[],"categories_segments":[],"categories_sizes":[],"default_left":[0,0,0,0,0,0,0,0,0,0,0,0,0,0,0,0,0,0,0,0,0,0,0,0,0,0,0],"id":17,"left_children":[1,3,5,7,9,11,13,15,17,19,21,23,25,-1,-1,-1,-1,-1,-1,-1,-1,-1,-1,-1,-1,-1,-1],"loss_changes":[6.4362206E1,2.056463E1,4.9705696E0,8.610014E0,2.041218E1,2.4350739E0,2.1802483E0,3.4758098E0,1.0289677E1,1.2731018E0,8.835663E0,4.3045454E0,6.0902557E0,0E0,0E0,0E0,0E0,0E0,0E0,0E0,0E0,0E0,0E0,0E0,0E0,0E0,0E0],"parents":[2147483647,0,0,1,1,2,2,3,3,4,4,5,5,6,6,7,7,8,8,9,9,10,10,11,11,12,12],"right_children":[2,4,6,8,10,12,14,16,18,20,22,24,26,-1,-1,-1,-1,-1,-1,-1,-1,-1,-1,-1,-1,-1,-1],"split_conditions":[3.8600517E1,6.8894773E0,8.555882E0,2E0,2E0,1.9E1,2.6E1,4.108169E0,2.5E1,1.2051189E1,2.794371E1,1.9135375E0,4.2495613E1,-2.067445E-2,-4.5587607E-2,1.7347759E-2,-2.14096E-2,4.258856E-2,-3.2877189E-3,-2.1126201E-2,-3.922736E-2,7.492219E-3,-3.5715357E-3,5.618412E-3,-1.9033408E-2,-7.379929E-3,-3.2717254E-2],"split_indices":[0,0,8,12,12,12,6,5,5,0,0,8,0,0,0,0,0,0,0,0,0,0,0,0,0,0,0],"split_type":[0,0,0,0,0,0,0,0,0,0,0,0,0,0,0,0,0,0,0,0,0,0,0,0,0,0,0],"sum_hessian":[1.2448666E3,9.745108E2,2.7035583E2,9.832444E1,8.7618634E2,2.2334653E2,4.700929E1,2.1150517E1,7.717393E1,4.8805073E1,8.273813E2,1.1092361E2,1.1242292E2,1.5795325E1,3.1213963E1,1.0582413E1,1.0568103E1,6.2189842E1,1.498408E1,2.9289429E1,1.9515644E1,5.626699E2,2.6471133E2,2.153629E1,8.938732E1,3.501378E1,7.740915E1],"tree_param":{"num_deleted":"0","num_feature":"18","num_nodes":"27","size_leaf_vector":"1"}},{"base_weights":[-2.1759912E-3,2.5619417E-1,-1.6521068E-1,-2.8681347E-1,3.3014736E-1,-5.2706797E-2,-4.0336582E-1,3.33459E-3,-4.682228E-1,5.128531E-1,1.4849648E-1,1.1342521E-1,-2.542848E-1,2.008161E-1,-4.713725E-1,-4.9626427E-3,-3.0638738E-2,3.0955633E-2,-6.6731027E-3,1.6708693E-2,-5.614501E-3,9.047023E-3,-1.7911265E-2,-5.6800963E-3,-1.8921362E-2,4.513218E-2,-1.5323839E-2,-1.9759899E-2,-4.3401156E-2],"categories":[],"categories_nodes":[],"categories_segments":[],"categories_sizes":[],"default_left":[0,0,0,0,0,0,0,0,0,0,0,0,0,0,0,0,0,0,0,0,0,0,0,0,0,0,0,0,0],"id":18,"left_children":[1,3,5,7,9,11,13,-1,15,17,19,21,23,25,27,-1,-1,-1,-1,-1,-1,-1,-1,-1,-1,-1,-1,-1,-1],"loss_changes":[5.3173325E1,1.9706509E1,2.0715324E1,3.8196769E0,1.420496E1,1.7670137E1,1.0291088E1,0E0,2.028078E0,1.4787807E1,1.05539E1,9.282729E0,4.119046E0,9.465094E0,6.405426E0,0E0,0E0,0E0,0E0,0E0,0E0,0E0,0E0,0E0,0E0,0E0,0E0,0E0,0E0],"parents":[2147483647,0,0,1,1,2,2,3,3,4,4,5,5,6,6,8,8,9,9,10,10,11,11,12,12,13,13,14,14],"right_children":[2,4,6,8,10,12,14,-1,16,18,20,22,24,26,28,-1,-1,-1,-1,-1,-1,-1,-1,-1,-1,-1,-1,-1,-1],"split_conditions":[1.7989796E1,2E0,3.956008E1,6.7437396E0,3E0,3.81382E1,2.7785542E0,3.33459E-3,1.6246096E0,6.689693E1,1E1,3E0,5E0,5.0396976E1,5.1E1,-4.9626427E-3,-3.0638738E-2,3.0955633E-2,-6.6731027E-3,1.6708693E-2,-5.614501E-3,9.047023E-3,-1.7911265E-2,-5.6800963E-3,-1.8921362E-2,4.513218E-2,-1.5323839E-2,-1.9759899E-2,-4.3401156E-2],"split_indices":[0,12,0,0,10,1,1,0,9,1,0,10,11,0,6,0,0,0,0,0,0,0,0,0,0,0,0,0,0],"split_type":[0,0,0,0,0,0,0,0,0,0,0,0,0,0,0,0,0,0,0,0,0,0,0,0,0,0,0,0,0],"sum_hessian":[1.2603209E3,4.8737662E2,7.7294434E2,5.8075317E1,4.293013E2,5.2578577E2,2.4715854E2,1.9909946E1,3.816537E1,2.1312022E2,2.1618108E2,2.884746E2,2.3731119E2,2.480794E1,2.223506E2,1.1217989E1,2.6947382E1,1.8306491E2,3.0055313E1,1.2611036E2,9.007071E1,2.5289052E2,3.5584095E1,1.1214236E2,1.2516882E2,1.0081329E1,1.472661E1,1.8820352E2,3.414708E1],"tree_param":{"num_deleted":"0","num_feature":"18","num_nodes":"29","size_leaf_vector":"1"}},{"base_weights":[-4.5722374E-3,1.4420012E-1,-3.1917992E-1,1.861169E-1,-2.9669997E-1,-2.6582673E-1,-8.2792753E-1,7.389307E-1,1.4917207E-1,-1.4312184E-1,-4.50012E-2,-1.4774196E-1,-4.2890254E-1,-2.948537E-2,-4.696845E-2,4.8574623E-2,2.4488417E-2,-1.734184E-2,9.22825E-3,-2.5000213E-2,2.165565E-3,1.3190095E-3,-1.846654E-2,-2.3721969E-2,9.759351E-3],"categories":[],"categories_nodes":[],"categories_segments":[],"categories_sizes":[],"default_left":[0,0,0,0,0,0,0,0,0,0,0,0,0,0,0,0,0,0,0,0,0,0,0,0,0],"id":19,"left_children":[1,3,5,7,9,11,13,15,17,19,-1,21,23,-1,-1,-1,-1,-1,-1,-1,-1,-1,-1,-1,-1],"loss_changes":[5.8482834E1,1.5733839E1,1.0668705E1,1.5724636E1,6.731316E0,6.956789E0,4.4434547E-1,2.3239098E0,1.2844288E1,4.027324E0,0E0,8.226913E0,4.4289017E0,0E0,0E0,0E0,0E0,0E0,0E0,0E0,0E0,0E0,0E0,0E0,0E0],"parents":[2147483647,0,0,1,1,2,2,3,3,4,4,5,5,6,6,7,7,8,8,9,9,11,11,12,12],"right_children":[2,4,6,8,10,12,14,16,18,20,-1,22,24,-1,-1,-1,-1,-1,-1,-1,-1,-1,-1,-1,-1],"split_conditions":[3.2984295E1,6.689693E1,1.3437097E1,5.8717203E0,2.6E1,4.3745605E1,4.4553337E1,4.804095E0,2E0,3E0,-4.50012E-2,2.236068E0,3E0,-2.948537E-2,-4.696845E-2,4.8574623E-2,2.4488417E-2,-1.734184E-2,9.22825E-3,-2.5000213E-2,2.165565E-3,1.3190095E-3,-1.846654E-2,-2.3721969E-2,9.759351E-3],"split_indices":[0,1,8,0,12,0,7,0,12,12,0,8,13,0,0,0,0,0,0,0,0,0,0,0,0],"split_type":[0,0,0,0,0,0,0,0,0,0,0,0,0,0,0,0,0,0,0,0,0,0,0,0,0],"sum_hessian":[1.2475183E3,8.47359E2,4.0015927E2,7.743214E2,7.303759E1,3.6355518E2,3.6604115E1,4.731628E1,7.270051E2,5.920419E1,1.3833402E1,2.1197093E2,1.5158423E2,1.3671401E1,2.2932713E1,2.2973955E1,2.4342325E1,4.783459E1,6.7917053E2,1.9738163E1,3.9466026E1,1.1919205E2,9.277889E1,1.4149948E2,1.0084754E1],"tree_param":{"num_deleted":"0","num_feature":"18","num_nodes":"25","size_leaf_vector":"1"}},{"base_weights":[2.3852948E-3,1.5845631E-1,-2.0719306E-1,6.4678025E-1,9.704414E-2,-1.5766606E-1,-8.3937263E-1,9.6019936E-1,2.2283657E-1,7.612663E-2,7.1743906E-2,-7.692774E-2,-4.5735115E-1,-4.6917375E-2,-3.2291934E-2,6.0965605E-2,8.010331E-3,2.7944336E-2,-2.5837261E-2,5.107473E-3,-3.1066135E-2,2.2632515E-2,-5.4441304E-3,-1.6071238E-2,-3.387815E-2],"categories":[],"categories_nodes":[],"categories_segments":[],"categories_sizes":[],"default_left":[0,0,0,0,0,0,0,0,0,0,0,0,0,0,0,0,0,0,0,0,0,0,0,0,0],"id":20,"left_children":[1,3,5,7,9,11,13,15,17,-1,19,21,23,-1,-1,-1,-1,-1,-1,-1,-1,-1,-1,-1,-1],"loss_changes":[4.091506E1,2.1437971E1,1.6584665E1,1.040461E1,2.2901705E1,1.1974797E1,1.3257027E-1,9.266342E0,9.054874E0,0E0,1.3296518E1,6.6866493E0,2.929388E0,0E0,0E0,0E0,0E0,0E0,0E0,0E0,0E0,0E0,0E0,0E0,0E0],"parents":[2147483647,0,0,1,1,2,2,3,3,4,4,5,5,6,6,7,7,8,8,10,10,11,11,12,12],"right_children":[2,4,6,8,10,12,14,16,18,-1,20,22,24,-1,-1,-1,-1,-1,-1,-1,-1,-1,-1,-1,-1],"split_conditions":[2.7694145E1,1E0,1.5061856E1,1.32E2,3.6851838E0,4.7729183E1,4E0,3E0,3.7512936E1,7.612663E-2,7.561747E1,3.921923E0,2.5E1,-4.6917375E-2,-3.2291934E-2,6.0965605E-2,8.010331E-3,2.7944336E-2,-2.5837261E-2,5.107473E-3,-3.1066135E-2,2.2632515E-2,-5.4441304E-3,-1.6071238E-2,-3.387815E-2],"split_indices":[0,15,8,6,0,0,12,10,1,0,1,1,5,0,0,0,0,0,0,0,0,0,0,0,0],"split_type":[0,0,0,0,0,0,0,0,0,0,0,0,0,0,0,0,0,0,0,0,0,0,0,0,0],"sum_hessian":[1.2488728E3,7.159532E2,5.329197E2,7.891582E1,6.3703735E2,4.9536087E2,3.755878E1,4.464506E1,3.4270752E1,1.0077252E1,6.2696014E2,3.9121906E2,1.0414183E2,2.2303892E1,1.5254889E1,3.3326622E1,1.1318442E1,2.3731834E1,1.05389185E1,6.014275E2,2.5532639E1,2.151371E1,3.6970535E2,6.591514E1,3.8226692E1],"tree_param":{"num_deleted":"0","num_feature":"18","num_nodes":"25","size_leaf_vector":"1"}},{"base_weights":[1.4550722E-2,2.592916E-1,-1.5723166E-1,-2.486342E-1,3.271475E-1,-9.2011705E-2,-5.7029366E-1,1.1167934E-2,-4.6353185E-1,2.479972E-1,7.023886E-1,-7.451058E-2,-3.835965E-2,-6.253758E-1,-1.1875103E-2,-6.871166E-3,-3.7796624E-2,2.3451237E-2,7.276173E-3,2.0845184E-2,6.666632E-2,-2.9038046E-3,-2.7922228E-2,-3.9481774E-2,-2.4485053E-2],"categories":[],"categories_nodes":[],"categories_segments":[],"categories_sizes":[],"default_left":[0,0,0,0,0,0,0,0,0,0,0,0,0,0,0,0,0,0,0,0,0,0,0,0,0],"id":21,"left_children":[1,3,5,7,9,11,13,-1,15,17,19,21,-1,23,-1,-1,-1,-1,-1,-1,-1,-1,-1,-1,-1],"loss_changes":[5.2265575E1,1.7751446E1,1.9627522E1,6.2895784E0,1.3271122E1,7.411911E0,1.6739807E0,0E0,3.9232035E0,8.434101E0,1.354948E1,4.876524E0,0E0,1.50074E0,0E0,0E0,0E0,0E0,0E0,0E0,0E0,0E0,0E0,0E0,0E0],"parents":[2147483647,0,0,1,1,2,2,3,3,4,4,5,5,6,6,8,8,9,9,10,10,11,11,13,13],"right_children":[2,4,6,8,10,12,14,-1,16,18,20,22,-1,24,-1,-1,-1,-1,-1,-1,-1,-1,-1,-1,-1],"split_conditions":[1.8945189E1,2E0,4.917169E1,6.4695783E0,1E0,2.5147202E1,2E0,1.1167934E-2,1.1734059E1,1.13072405E1,3E0,1.4262187E2,-3.835965E-2,2.4523232E0,-1.1875103E-2,-6.871166E-3,-3.7796624E-2,2.3451237E-2,7.276173E-3,2.0845184E-2,6.666632E-2,-2.9038046E-3,-2.7922228E-2,-3.9481774E-2,-2.4485053E-2],"split_indices":[0,12,0,0,3,8,13,0,9,5,12,7,0,8,0,0,0,0,0,0,0,0,0,0,0],"split_type":[0,0,0,0,0,0,0,0,0,0,0,0,0,0,0,0,0,0,0,0,0,0,0,0,0],"sum_hessian":[1.2412007E3,5.1168546E2,7.2951514E2,5.9988213E1,4.5169727E2,6.310923E2,9.842285E1,1.8755339E1,4.1232872E1,3.7438782E2,7.730945E1,6.162296E2,1.4862701E1,8.369144E1,1.4731415E1,2.0187803E1,2.104507E1,1.1745971E2,2.569281E2,5.436934E1,2.294011E1,5.970729E2,1.9156706E1,3.567732E1,4.801412E1],"tree_param":{"num_deleted":"0","num_feature":"18","num_nodes":"25","size_leaf_vector":"1"}},{"base_weights":[-3.8276326E-3,1.5005296E-1,-2.1812032E-1,2.704403E-1,-4.4375442E-2,-1.3231407E-1,-4.5749027E-1,3.3051297E-1,-2.2970685E-1,3.915594E-1,-1.7696023E-1,-4.6808118E-1,-7.373011E-2,-3.686709E-1,-7.7862054E-1,3.555885E-2,1.3428743E-2,5.8087423E-3,-2.5479708E-2,2.680029E-2,-1.6207706E-2,-6.4005316E-3,-3.974026E-2,-7.5552426E-3,-3.845344E-2,-1.032058E-3,-2.0735335E-2,-2.3647835E-2,1.0850366E-2,-2.7274424E-2,-4.635592E-2],"categories":[],"categories_nodes":[],"categories_segments":[],"categories_sizes":[],"default_left":[0,0,0,0,0,0,0,0,0,0,0,0,0,0,0,0,0,0,0,0,0,0,0,0,0,0,0,0,0,0,0],"id":22,"left_children":[1,3,5,7,9,11,13,15,17,19,21,23,25,27,29,-1,-1,-1,-1,-1,-1,-1,-1,-1,-1,-1,-1,-1,-1,-1,-1],"loss_changes":[4.1002823E1,1.6952534E1,1.0613701E1,1.3509792E1,1.6115482E1,7.5183234E0,3.6127834E0,9.230309E0,4.757787E0,6.899391E0,6.3572426E0,5.3080244E0,5.930954E0,6.760373E0,4.886837E-1,0E0,0E0,0E0,0E0,0E0,0E0,0E0,0E0,0E0,0E0,0E0,0E0,0E0,0E0,0E0,0E0],"parents":[2147483647,0,0,1,1,2,2,3,3,4,4,5,5,6,6,7,7,8,8,9,9,10,10,11,11,12,12,13,13,14,14],"right_children":[2,4,6,8,10,12,14,16,18,20,22,24,26,28,30,-1,-1,-1,-1,-1,-1,-1,-1,-1,-1,-1,-1,-1,-1,-1,-1],"split_conditions":[2.794371E1,3E0,4.529256E1,6.7901695E1,7.094494E0,6E0,8.411897E0,1E0,8E0,1.0267177E1,2.2472204E1,3.075972E1,5.0194427E1,5.44675E0,4.4553337E1,3.555885E-2,1.3428743E-2,5.8087423E-3,-2.5479708E-2,2.680029E-2,-1.6207706E-2,-6.4005316E-3,-3.974026E-2,-7.5552426E-3,-3.845344E-2,-1.032058E-3,-2.0735335E-2,-2.3647835E-2,1.0850366E-2,-2.7274424E-2,-4.635592E-2],"split_indices":[0,10,0,1,0,12,8,15,12,9,0,1,1,8,7,0,0,0,0,0,0,0,0,0,0,0,0,0,0,0,0],"split_type":[0,0,0,0,0,0,0,0,0,0,0,0,0,0,0,0,0,0,0,0,0,0,0,0,0,0,0,0,0,0,0],"sum_hessian":[1.2414409E3,7.2274646E2,5.186944E2,4.4612262E2,2.7662384E2,3.8296634E2,1.3572807E2,3.9858746E2,4.7535145E1,6.4056076E1,2.1256776E2,5.5854256E1,3.271121E2,1.08004E2,2.7724083E1,5.4311775E1,3.442757E2,2.152263E1,2.6012512E1,5.3508083E1,1.0547995E1,1.9808167E2,1.4486095E1,2.793615E1,2.7918108E1,2.8396085E2,4.315125E1,9.184292E1,1.6161077E1,1.260633E1,1.5117754E1],"tree_param":{"num_deleted":"0","num_feature":"18","num_nodes":"31","size_leaf_vector":"1"}},{"base_weights":[-3.0395947E-2,4.8464842E-2,-3.7954065E-1,-4.223665E-1,8.217143E-2,1.6035472E-1,-4.434714E-1,-2.0715894E-1,-7.9113567E-1,2.262603E-1,-4.165269E-2,3.7981026E-2,-1.5717827E-2,-3.801759E-1,-4.3335963E-2,1.3392273E-3,-4.1976787E-2,-4.6015974E-2,-2.9890848E-2,1.5011634E-2,-1.5539102E-3,8.293964E-4,-1.6044486E-2,-3.5561573E-2,-1.6562305E-2],"categories":[],"categories_nodes":[],"categories_segments":[],"categories_sizes":[],"default_left":[0,0,0,0,0,0,0,0,0,0,0,0,0,0,0,0,0,0,0,0,0,0,0,0,0],"id":23,"left_children":[1,3,5,7,9,11,13,15,17,19,21,-1,-1,23,-1,-1,-1,-1,-1,-1,-1,-1,-1,-1,-1],"loss_changes":[3.436092E1,1.6196152E1,8.007286E0,5.2482805E0,1.6979733E1,7.373018E0,5.185135E0,6.5938754E0,6.85873E-2,8.38064E0,8.338412E0,0E0,0E0,2.6939259E0,0E0,0E0,0E0,0E0,0E0,0E0,0E0,0E0,0E0,0E0,0E0],"parents":[2147483647,0,0,1,1,2,2,3,3,4,4,5,5,6,6,7,7,8,8,9,9,10,10,13,13],"right_children":[2,4,6,8,10,12,14,16,18,20,22,-1,-1,24,-1,-1,-1,-1,-1,-1,-1,-1,-1,-1,-1],"split_conditions":[3.956008E1,2E0,2.7785542E0,1.0198039E1,1.7989796E1,5.0396976E1,5.9E1,9.243381E0,2.8010742E1,2.5655783E1,5.249647E1,3.7981026E-2,-1.5717827E-2,6.7939043E0,-4.3335963E-2,1.3392273E-3,-4.1976787E-2,-4.6015974E-2,-2.9890848E-2,1.5011634E-2,-1.5539102E-3,8.293964E-4,-1.6044486E-2,-3.5561573E-2,-1.6562305E-2],"split_indices":[0,12,1,0,0,0,6,5,1,5,1,0,0,1,0,0,0,0,0,0,0,0,0,0,0],"split_type":[0,0,0,0,0,0,0,0,0,0,0,0,0,0,0,0,0,0,0,0,0,0,0,0,0],"sum_hessian":[1.2462848E3,1.01735706E3,2.2892773E2,6.719609E1,9.50161E2,2.4078289E1,2.0484944E2,4.3419155E1,2.3776937E1,4.387634E2,5.1139758E2,1.0377621E1,1.3700669E1,1.7985141E2,2.4998034E1,3.239317E1,1.1025987E1,1.199844E1,1.1778498E1,3.4067044E2,9.8092964E1,4.239208E2,8.74768E1,2.1416063E1,1.5843535E2],"tree_param":{"num_deleted":"0","num_feature":"18","num_nodes":"25","size_leaf_vector":"1"}},{"base_weights":[-1.023218E-2,1.0331388E-1,-2.9240748E-1,4.209596E-1,6.1636753E-2,-2.549026E-1,-7.77456E-1,5.2546585E-1,-7.6286197E-3,1.4954805E-1,-1.4608273E-1,-1.6552259E-1,-4.643545E-1,-2.9473824E-2,-4.8041724E-2,-5.0214133E-3,3.20049E-2,2.746336E-2,3.9379685E-3,-1.2965247E-3,-1.9033933E-2,3.8285844E-3,-1.3801557E-2,-2.9486162E-3,-2.7359664E-2],"categories":[],"categories_nodes":[],"categories_segments":[],"categories_sizes":[],"default_left":[0,0,0,0,0,0,0,0,0,0,0,0,0,0,0,0,0,0,0,0,0,0,0,0,0],"id":24,"left_children":[1,3,5,7,9,11,13,15,-1,17,19,21,23,-1,-1,-1,-1,-1,-1,-1,-1,-1,-1,-1,-1],"loss_changes":[3.984275E1,1.1713865E1,6.2926903E0,6.234892E0,1.435854E1,6.15123E0,2.9956055E-1,6.3123093E0,0E0,1.5579663E1,6.585123E0,6.3010335E0,3.2906399E0,0E0,0E0,0E0,0E0,0E0,0E0,0E0,0E0,0E0,0E0,0E0,0E0],"parents":[2147483647,0,0,1,1,2,2,3,3,4,4,5,5,6,6,7,7,9,9,10,10,11,11,12,12],"right_children":[2,4,6,8,10,12,14,16,-1,18,20,22,24,-1,-1,-1,-1,-1,-1,-1,-1,-1,-1,-1,-1],"split_conditions":[3.3805515E1,6.7437396E0,1.5061856E1,6.5556046E1,3E0,4.7729183E1,2.2033546E1,-1E0,-7.6286197E-3,1.159847E1,1.3216752E1,2.1047287E1,3.1492457E0,-2.9473824E-2,-4.8041724E-2,-5.0214133E-3,3.20049E-2,2.746336E-2,3.9379685E-3,-1.2965247E-3,-1.9033933E-2,3.8285844E-3,-1.3801557E-2,-2.9486162E-3,-2.7359664E-2],"split_indices":[0,0,8,1,10,0,8,13,0,1,0,1,1,0,0,0,0,0,0,0,0,0,0,0,0],"split_type":[0,0,0,0,0,0,0,0,0,0,0,0,0,0,0,0,0,0,0,0,0,0,0,0,0],"sum_hessian":[1.2415928E3,8.857891E2,3.5580365E2,1.01685326E2,7.841038E2,3.316828E2,2.4120846E1,8.608343E1,1.5601903E1,5.5113275E2,2.3297107E2,2.3373195E2,9.7950836E1,1.3992156E1,1.0128691E1,1.3344741E1,7.2738686E1,8.19019E1,4.6923083E2,1.547988E2,7.8172264E1,7.334971E1,1.6038225E2,1.6910261E1,8.104057E1],"tree_param":{"num_deleted":"0","num_feature":"18","num_nodes":"25","size_leaf_vector":"1"}},{"base_weights":[-1.1518749E-2,6.712539E-2,-3.4127882E-1,2.0021372E-1,-5.7893593E-2,-2.6567832E-1,-6.94942E-1,3.1123108E-1,1.5404167E-2,-1.52901085E-2,-4.937332E-1,-3.0400437E-1,1.1868431E-2,-2.408499E-2,-4.3452047E-2,2.231898E-2,6.588018E-3,9.096228E-3,-1.379809E-2,1.9315183E-3,-1.6367242E-2,-1.3742757E-2,-3.26797E-2,-6.6898786E-3,-1.9561563E-2],"categories":[],"categories_nodes":[],"categories_segments":[],"categories_sizes":[],"default_left":[0,0,0,0,0,0,0,0,0,0,0,0,0,0,0,0,0,0,0,0,0,0,0,0,0],"id":25,"left_children":[1,3,5,7,9,11,13,15,17,19,21,23,-1,-1,-1,-1,-1,-1,-1,-1,-1,-1,-1,-1,-1],"loss_changes":[3.214617E1,1.6666477E1,6.197199E0,9.947374E0,9.590644E0,3.8947678E0,1.1190357E0,7.2900314E0,8.933305E0,7.9531713E0,1.4297972E0,2.6894073E0,0E0,0E0,0E0,0E0,0E0,0E0,0E0,0E0,0E0,0E0,0E0,0E0,0E0],"parents":[2147483647,0,0,1,1,2,2,3,3,4,4,5,5,6,6,7,7,8,8,9,9,10,10,11,11],"right_children":[2,4,6,8,10,12,14,16,18,20,22,24,-1,-1,-1,-1,-1,-1,-1,-1,-1,-1,-1,-1,-1],"split_conditions":[3.895339E1,3.1900194E1,8.411897E0,3.6055512E0,3.5383614E1,6.606815E0,4E0,1.8945189E1,3E0,6.7901695E1,5E0,4.32106E1,1.1868431E-2,-2.408499E-2,-4.3452047E-2,2.231898E-2,6.588018E-3,9.096228E-3,-1.379809E-2,1.9315183E-3,-1.6367242E-2,-1.3742757E-2,-3.26797E-2,-6.6898786E-3,-1.9561563E-2],"split_indices":[0,1,8,8,0,8,12,0,10,1,11,0,0,0,0,0,0,0,0,0,0,0,0,0,0],"split_type":[0,0,0,0,0,0,0,0,0,0,0,0,0,0,0,0,0,0,0,0,0,0,0,0,0],"sum_hessian":[1.237669E3,9.9998096E2,2.37688E2,4.840677E2,5.1591327E2,1.9726997E2,4.0418026E1,3.0198032E2,1.8208737E2,4.7091614E2,4.4997147E1,1.8367206E2,1.3597907E1,1.9859844E1,2.0558184E1,1.7141267E2,1.3056766E2,1.1610633E2,6.598104E1,4.0228143E2,6.86347E1,2.0140514E1,2.4856632E1,6.309261E1,1.2057946E2],"tree_param":{"num_deleted":"0","num_feature":"18","num_nodes":"25","size_leaf_vector":"1"}},{"base_weights":[3.1025635E-2,1.2463385E-1,-2.0904794E-1,1.6335574E-1,-3.623316E-1,-1.2675415E-1,-4.4824702E-1,-2.5666317E-1,1.9483662E-1,-5.983081E-2,-5.69015E-1,-2.9898563E-2,-4.3398464E-1,-2.7416995E-1,-7.242571E-1,-3.4662632E-3,-2.9542819E-2,2.2259044E-2,5.8050095E-3,1.8831674E-2,-2.487502E-2,-8.431177E-3,-3.9189026E-2,8.6191914E-4,-3.4156304E-2,-2.977234E-2,-9.154971E-3,-6.555428E-3,-2.9503172E-2,-4.7994945E-2,-2.886912E-2],"categories":[],"categories_nodes":[],"categories_segments":[],"categories_sizes":[],"default_left":[0,0,0,0,0,0,0,0,0,0,0,0,0,0,0,0,0,0,0,0,0,0,0,0,0,0,0,0,0,0,0],"id":26,"left_children":[1,3,5,7,9,11,13,15,17,19,21,23,25,27,29,-1,-1,-1,-1,-1,-1,-1,-1,-1,-1,-1,-1,-1,-1,-1,-1],"loss_changes":[2.7908623E1,1.6903206E1,6.8019867E0,1.1000633E1,4.09927E0,7.742854E0,4.067812E0,3.6012843E0,1.5145672E1,5.527008E0,3.235014E0,6.1466126E0,2.4186497E0,2.4562068E0,6.132946E-1,0E0,0E0,0E0,0E0,0E0,0E0,0E0,0E0,0E0,0E0,0E0,0E0,0E0,0E0,0E0,0E0],"parents":[2147483647,0,0,1,1,2,2,3,3,4,4,5,5,6,6,7,7,8,8,9,9,10,10,11,11,12,12,13,13,14,14],"right_children":[2,4,6,8,10,12,14,16,18,20,22,24,26,28,30,-1,-1,-1,-1,-1,-1,-1,-1,-1,-1,-1,-1,-1,-1,-1,-1],"split_conditions":[3.3805515E1,6.7901695E1,4.917169E1,2E0,7E0,3.9986885E1,2.5E1,1.0198039E1,9.23583E0,2.0304221E-1,1.1269179E1,1.5061856E1,4.7754833E1,2.4E1,2E0,-3.4662632E-3,-2.9542819E-2,2.2259044E-2,5.8050095E-3,1.8831674E-2,-2.487502E-2,-8.431177E-3,-3.9189026E-2,8.6191914E-4,-3.4156304E-2,-2.977234E-2,-9.154971E-3,-6.555428E-3,-2.9503172E-2,-4.7994945E-2,-2.886912E-2],"split_indices":[0,1,0,12,12,1,5,0,0,9,5,8,1,12,14,0,0,0,0,0,0,0,0,0,0,0,0,0,0,0,0],"split_type":[0,0,0,0,0,0,0,0,0,0,0,0,0,0,0,0,0,0,0,0,0,0,0,0,0,0,0,0,0,0,0],"sum_hessian":[1.2397219E3,8.922869E2,3.4743494E2,8.2717706E2,6.510986E1,2.5963895E2,8.779599E1,5.7176277E1,7.700008E2,2.6952219E1,3.8157642E1,1.9824026E2,6.139868E1,5.5062134E1,3.273386E1,3.7411846E1,1.9764431E1,1.8311824E2,5.8688257E2,1.3564516E1,1.3387703E1,1.3944951E1,2.421269E1,1.8580609E2,1.2434171E1,3.6521297E1,2.487738E1,3.8872604E1,1.618953E1,1.0443347E1,2.2290512E1],"tree_param":{"num_deleted":"0","num_feature":"18","num_nodes":"31","size_leaf_vector":"1"}},{"base_weights":[-7.1510244E-3,1.2857307E-1,-2.0540376E-1,1.4474542E-1,-4.4338852E-2,1.9731845E-1,-2.3405345E-1,6.562773E-1,1.1162947E-1,3.9049873E-1,-1.2169594E-2,-1.5396255E-1,-4.125495E-1,6.44283E-3,4.1496273E-2,1.06783835E-2,-2.9153428E-3,-1.349367E-4,3.5256762E-2,4.1556647E-3,-1.01963645E-2,-1.2364671E-2,-3.2081738E-2],"categories":[],"categories_nodes":[],"categories_segments":[],"categories_sizes":[],"default_left":[0,0,0,0,0,0,0,0,0,0,0,0,0,0,0,0,0,0,0,0,0,0,0],"id":27,"left_children":[1,3,5,7,-1,9,11,13,15,17,-1,19,21,-1,-1,-1,-1,-1,-1,-1,-1,-1,-1],"loss_changes":[3.35985E1,1.2300153E1,5.900795E0,1.230114E1,0E0,3.0104096E0,6.7153473E0,3.9421158E0,1.1918187E1,2.994747E0,0E0,3.9130473E0,5.378811E0,0E0,0E0,0E0,0E0,0E0,0E0,0E0,0E0,0E0,0E0],"parents":[2147483647,0,0,1,1,2,2,3,3,5,5,6,6,7,7,8,8,9,9,11,11,12,12],"right_children":[2,4,6,8,-1,10,12,14,16,18,-1,20,22,-1,-1,-1,-1,-1,-1,-1,-1,-1,-1],"split_conditions":[2.7694145E1,1E0,2.7785542E0,5.3851647E0,-4.4338852E-2,5.239832E1,4.2495613E1,2E0,3E0,4.1005325E1,-1.2169594E-2,1.8434948E1,4.428318E1,6.44283E-3,4.1496273E-2,1.06783835E-2,-2.9153428E-3,-1.349367E-4,3.5256762E-2,4.1556647E-3,-1.01963645E-2,-1.2364671E-2,-3.2081738E-2],"split_indices":[0,2,1,0,0,0,0,14,10,0,0,1,7,0,0,0,0,0,0,0,0,0,0],"split_type":[0,0,0,0,0,0,0,0,0,0,0,0,0,0,0,0,0,0,0,0,0,0,0],"sum_hessian":[1.2466771E3,7.402514E2,5.064257E2,7.294896E2,1.0761767E1,3.3243416E1,4.7318228E2,4.3210655E1,6.86279E2,2.3191586E1,1.0051829E1,3.2791147E2,1.4527083E2,1.1134362E1,3.2076294E1,4.2880112E2,2.5747787E2,1.0749495E1,1.2442091E1,5.6963585E1,2.7094788E2,8.560042E1,5.9670406E1],"tree_param":{"num_deleted":"0","num_feature":"18","num_nodes":"23","size_leaf_vector":"1"}},{"base_weights":[3.8499248E-3,1.12565674E-1,-2.121891E-1,-2.7964875E-1,1.4584273E-1,-7.49398E-3,-3.2371798E-1,7.917242E-2,-4.55364E-1,3.417861E-1,7.313986E-2,-2.8864874E-2,6.9369376E-2,-2.7376044E-1,-7.5998163E-1,1.4082411E-2,-7.2433813E-3,-1.1508324E-2,-3.311929E-2,3.130787E-2,1.1513493E-2,7.4671083E-3,-6.98116E-3,1.3197842E-2,-1.539377E-2,-1.5326812E-2,1.1100325E-2,-2.9494137E-2,-4.490586E-2],"categories":[],"categories_nodes":[],"categories_segments":[],"categories_sizes":[],"default_left":[0,0,0,0,0,0,0,0,0,0,0,0,0,0,0,0,0,0,0,0,0,0,0,0,0,0,0,0,0],"id":28,"left_children":[1,3,5,7,9,11,13,15,17,19,21,-1,23,25,27,-1,-1,-1,-1,-1,-1,-1,-1,-1,-1,-1,-1,-1,-1],"loss_changes":[2.9031982E1,1.0772891E1,9.444492E0,4.1123567E0,1.0782064E1,6.4768176E0,5.6293507E0,1.0435189E0,1.8777428E0,6.357769E0,9.012455E0,0E0,9.652982E0,3.9984035E0,1.0359764E-1,0E0,0E0,0E0,0E0,0E0,0E0,0E0,0E0,0E0,0E0,0E0,0E0,0E0,0E0],"parents":[2147483647,0,0,1,1,2,2,3,3,4,4,5,5,6,6,7,7,8,8,9,9,10,10,12,12,13,13,14,14],"right_children":[2,4,6,8,10,12,14,16,18,20,22,-1,24,26,28,-1,-1,-1,-1,-1,-1,-1,-1,-1,-1,-1,-1,-1,-1],"split_conditions":[3.115281E1,2E0,1.5245242E0,6.7437396E0,9.23583E0,2.999423E-1,1.5061856E1,1.519393E1,7E0,7.190857E0,3E0,-2.8864874E-2,4.2495613E1,5.3E1,6E0,1.4082411E-2,-7.2433813E-3,-1.1508324E-2,-3.311929E-2,3.130787E-2,1.1513493E-2,7.4671083E-3,-6.98116E-3,1.3197842E-2,-1.539377E-2,-1.5326812E-2,1.1100325E-2,-2.9494137E-2,-4.490586E-2],"split_indices":[0,12,8,0,0,8,8,9,5,5,10,0,0,5,11,0,0,0,0,0,0,0,0,0,0,0,0,0,0],"split_type":[0,0,0,0,0,0,0,0,0,0,0,0,0,0,0,0,0,0,0,0,0,0,0,0,0,0,0,0,0],"sum_hessian":[1.2340786E3,8.2127386E2,4.1280472E2,6.365158E1,7.5762225E2,1.4596828E2,2.6683646E2,2.1104448E1,4.254713E1,2.0403127E2,5.53591E2,1.6576044E1,1.2939224E2,2.4088022E2,2.5956234E1,1.0950668E1,1.015378E1,2.1390467E1,2.1156664E1,5.617292E1,1.4785835E2,4.0782443E2,1.4576656E2,8.555977E1,4.383247E1,2.2630086E2,1.4579351E1,1.399421E1,1.1962023E1],"tree_param":{"num_deleted":"0","num_feature":"18","num_nodes":"29","size_leaf_vector":"1"}},{"base_weights":[-9.121371E-3,5.1008403E-2,-2.738973E-1,5.2278906E-2,3.9358143E-2,-2.0439275E-1,-6.257744E-1,5.061441E-2,-4.1517068E-2,-2.756817E-1,2.1261466E-1,-1.7663414E-2,-8.136398E-1,3.4070692E-3,-2.476626E-2,-1.650821E-2,1.3069013E-2,3.288008E-2,-2.9109572E-3,-2.9925128E-2,-4.7634352E-2],"categories":[],"categories_nodes":[],"categories_segments":[],"categories_sizes":[],"default_left":[0,0,0,0,0,0,0,0,0,0,0,0,0,0,0,0,0,0,0,0,0],"id":29,"left_children":[1,3,5,-1,7,9,11,13,-1,15,17,-1,19,-1,-1,-1,-1,-1,-1,-1,-1],"loss_changes":[1.9823341E1,1.1717447E1,5.5076294E0,0E0,9.871725E0,5.822974E0,1.6335058E0,9.527904E0,0E0,4.9444056E0,3.5180516E0,0E0,7.126808E-2,0E0,0E0,0E0,0E0,0E0,0E0,0E0,0E0],"parents":[2147483647,0,0,1,1,2,2,4,4,5,5,6,6,7,7,9,9,10,10,12,12],"right_children":[2,4,6,-1,8,10,12,14,-1,16,18,-1,20,-1,-1,-1,-1,-1,-1,-1,-1],"split_conditions":[3.8600517E1,3.6851838E0,8.555882E0,5.2278906E-2,1E0,2E0,4.4553337E1,2.5147202E1,-4.1517068E-2,6.2816796E0,1.2316614E1,-1.7663414E-2,1.3772668E1,3.4070692E-3,-2.476626E-2,-1.650821E-2,1.3069013E-2,3.288008E-2,-2.9109572E-3,-2.9925128E-2,-4.7634352E-2],"split_indices":[0,0,8,0,2,13,7,8,0,8,5,0,8,0,0,0,0,0,0,0,0],"split_type":[0,0,0,0,0,0,0,0,0,0,0,0,0,0,0,0,0,0,0,0,0],"sum_hessian":[1.2432355E3,1.0138098E3,2.2942564E2,1.0710604E1,1.00309924E3,1.9290327E2,3.6522373E1,9.9121204E2,1.1887165E1,1.6502974E2,2.7873539E1,1.607924E1,2.044313E1,9.612277E2,2.9984304E1,1.5017992E2,1.4849823E1,1.0005758E1,1.786778E1,1.010804E1,1.0335092E1],"tree_param":{"num_deleted":"0","num_feature":"18","num_nodes":"21","size_leaf_vector":"1"}},{"base_weights":[1.444026E-2,1.6076536E-1,-9.9888854E-2,-3.4413892E-1,2.2028281E-1,-5.368651E-2,-4.149121E-1,2.2473535E-2,-5.1952016E-1,4.6685445E-1,1.486457E-1,2.3506159E-1,-1.0836501E-1,-3.026872E-1,-7.120854E-1,-1.778345E-2,-3.416361E-2,8.5749915E-3,4.3190412E-2,1.3241266E-2,-5.618088E-3,2.5577873E-2,-8.324684E-4,-3.15584E-2,-3.9094123E-3,-2.6574833E-2,-5.2263676E-3,-2.5399525E-2,-4.1228455E-2],"categories":[],"categories_nodes":[],"categories_segments":[],"categories_sizes":[],"default_left":[0,0,0,0,0,0,0,0,0,0,0,0,0,0,0,0,0,0,0,0,0,0,0,0,0,0,0,0,0],"id":30,"left_children":[1,3,5,7,9,11,13,-1,15,17,19,21,23,25,27,-1,-1,-1,-1,-1,-1,-1,-1,-1,-1,-1,-1,-1,-1],"loss_changes":[2.0828415E1,1.6485325E1,1.0151673E1,8.302268E0,8.56975E0,9.668209E0,2.7612295E0,0E0,1.0433407E0,1.2706284E1,1.1566449E1,6.7981296E0,8.062857E0,2.9609528E0,1.2586021E-1,0E0,0E0,0E0,0E0,0E0,0E0,0E0,0E0,0E0,0E0,0E0,0E0,0E0,0E0],"parents":[2147483647,0,0,1,1,2,2,3,3,4,4,5,5,6,6,8,8,9,9,10,10,11,11,12,12,13,13,14,14],"right_children":[2,4,6,8,10,12,14,-1,16,18,20,22,24,26,28,-1,-1,-1,-1,-1,-1,-1,-1,-1,-1,-1,-1,-1,-1],"split_conditions":[1.9186197E1,2E0,4.8507732E1,5.3851647E0,5E0,1.159847E1,5.878991E1,2.2473535E-2,3.0465546E1,3E0,4.4522564E1,1.987616E0,3E0,2.4523232E0,4.6736153E1,-1.778345E-2,-3.416361E-2,8.5749915E-3,4.3190412E-2,1.3241266E-2,-5.618088E-3,2.5577873E-2,-8.324684E-4,-3.15584E-2,-3.9094123E-3,-2.6574833E-2,-5.2263676E-3,-2.5399525E-2,-4.1228455E-2],"split_indices":[0,12,0,0,12,1,0,0,1,12,1,8,12,8,7,0,0,0,0,0,0,0,0,0,0,0,0,0,0],"split_type":[0,0,0,0,0,0,0,0,0,0,0,0,0,0,0,0,0,0,0,0,0,0,0,0,0,0,0,0,0],"sum_hessian":[1.243072E3,5.450627E2,6.9800934E2,5.6971786E1,4.8809088E2,6.097516E2,8.825775E1,1.0028675E1,4.6943115E1,1.0864003E2,3.7945087E2,9.655605E1,5.1319556E2,6.552962E1,2.2728132E1,2.5049973E1,2.189314E1,6.3112804E1,4.5527225E1,2.6256384E2,1.16887024E2,4.552075E1,5.1035305E1,2.6918869E1,4.862767E2,2.9632114E1,3.5897503E1,1.0035478E1,1.2692656E1],"tree_param":{"num_deleted":"0","num_feature":"18","num_nodes":"29","size_leaf_vector":"1"}},{"base_weights":[-1.2957149E-2,9.492069E-2,-1.8552355E-1,5.5039108E-2,7.958682E-2,-9.8099545E-2,-3.1493357E-1,1.0360917E-1,-5.224462E-1,9.507364E-2,-1.7229754E-1,-2.0258306E-1,-6.3271195E-1,9.559794E-3,-2.2790662E-3,-8.231265E-3,-3.7767198E-2,-1.4252736E-2,1.4330446E-2,-6.948584E-3,-3.551617E-2,2.4084167E-3,-1.7634843E-2,-3.7487585E-2,-1.4052759E-2],"categories":[],"categories_nodes":[],"categories_segments":[],"categories_sizes":[],"default_left":[0,0,0,0,0,0,0,0,0,0,0,0,0,0,0,0,0,0,0,0,0,0,0,0,0],"id":31,"left_children":[1,3,5,-1,7,9,11,13,15,17,19,21,23,-1,-1,-1,-1,-1,-1,-1,-1,-1,-1,-1,-1],"loss_changes":[2.3007257E1,1.1643026E1,5.347311E0,0E0,1.09039135E1,4.103676E0,6.698591E0,9.446592E0,2.288382E0,5.8903556E0,3.6018023E0,5.389833E0,1.8255234E0,0E0,0E0,0E0,0E0,0E0,0E0,0E0,0E0,0E0,0E0,0E0,0E0],"parents":[2147483647,0,0,1,1,2,2,4,4,5,5,6,6,7,7,8,8,9,9,10,10,11,11,12,12],"right_children":[2,4,6,-1,8,10,12,14,16,18,20,22,24,-1,-1,-1,-1,-1,-1,-1,-1,-1,-1,-1,-1],"split_conditions":[2.8494171E1,3.6851838E0,2.5E1,5.5039108E-2,7.561747E1,2.0818783E1,3.536246E1,3E0,9.220238E0,3E0,4.741308E1,4.2495613E1,4.2E1,9.559794E-3,-2.2790662E-3,-8.231265E-3,-3.7767198E-2,-1.4252736E-2,1.4330446E-2,-6.948584E-3,-3.551617E-2,2.4084167E-3,-1.7634843E-2,-3.7487585E-2,-1.4052759E-2],"split_indices":[0,0,6,0,1,1,1,10,5,11,0,0,5,0,0,0,0,0,0,0,0,0,0,0,0],"split_type":[0,0,0,0,0,0,0,0,0,0,0,0,0,0,0,0,0,0,0,0,0,0,0,0,0],"sum_hessian":[1.2339341E3,7.595564E2,4.7437772E2,1.0342286E1,7.492141E2,2.8416544E2,1.9021228E2,7.212622E2,2.7951939E1,7.878048E1,2.0538495E2,1.4173824E2,4.847405E1,4.5428128E2,2.669809E2,1.1693327E1,1.6258612E1,2.623172E1,5.254876E1,1.9459015E2,1.0794808E1,5.333167E1,8.840657E1,3.5520065E1,1.2953981E1],"tree_param":{"num_deleted":"0","num_feature":"18","num_nodes":"25","size_leaf_vector":"1"}},{"base_weights":[-7.7912943E-3,3.0097177E-2,-2.535032E-1,-2.9462337E-1,5.2313033E-2,-2.2673378E-2,-3.7417105E-1,6.6916406E-4,-4.1757917E-1,1.985777E-2,3.22233E-1,3.506792E-1,-3.1869805E-1,-5.853848E-1,-3.006159E-1,-2.7561277E-2,-8.3188707E-4,2.2374433E-3,-1.2275562E-2,6.6492893E-3,3.414587E-2,2.8770749E-2,8.206799E-3,-2.7453784E-2,8.802502E-3,-1.5068454E-2,-3.697539E-2,-5.392254E-3,-2.1815792E-2],"categories":[],"categories_nodes":[],"categories_segments":[],"categories_sizes":[],"default_left":[0,0,0,0,0,0,0,0,0,0,0,0,0,0,0,0,0,0,0,0,0,0,0,0,0,0,0,0,0],"id":32,"left_children":[1,3,5,7,9,11,13,-1,15,17,19,21,23,25,27,-1,-1,-1,-1,-1,-1,-1,-1,-1,-1,-1,-1,-1,-1],"loss_changes":[1.1484563E1,7.727076E0,4.581976E0,2.603672E0,8.7661085E0,6.482416E0,1.504446E0,0E0,2.619751E0,5.922573E0,7.241375E0,9.941888E-1,3.8208346E0,9.538908E-1,2.105338E0,0E0,0E0,0E0,0E0,0E0,0E0,0E0,0E0,0E0,0E0,0E0,0E0,0E0,0E0],"parents":[2147483647,0,0,1,1,2,2,3,3,4,4,5,5,6,6,8,8,9,9,10,10,11,11,12,12,13,13,14,14],"right_children":[2,4,6,8,10,12,14,-1,16,18,20,22,24,26,28,-1,-1,-1,-1,-1,-1,-1,-1,-1,-1,-1,-1,-1,-1],"split_conditions":[3.7097805E1,2E0,1E1,2.0524626E0,1E0,5E0,4.1E1,6.6916406E-4,2.8653097E1,6.036478E1,3E0,1.9E1,2.1E1,4.0853397E1,4.5199673E1,-2.7561277E-2,-8.3188707E-4,2.2374433E-3,-1.2275562E-2,6.6492893E-3,3.414587E-2,2.8770749E-2,8.206799E-3,-2.7453784E-2,8.802502E-3,-1.5068454E-2,-3.697539E-2,-5.392254E-3,-2.1815792E-2],"split_indices":[5,12,12,5,3,11,5,0,7,1,12,6,6,7,5,0,0,0,0,0,0,0,0,0,0,0,0,0,0],"split_type":[0,0,0,0,0,0,0,0,0,0,0,0,0,0,0,0,0,0,0,0,0,0,0,0,0,0,0,0,0],"sum_hessian":[1.2317998E3,1.0679939E3,1.6380583E2,6.760314E1,1.0003908E3,5.664173E1,1.0716409E2,1.9541773E1,4.8061367E1,8.939728E2,1.06418015E2,2.4967527E1,3.1674204E1,2.5882893E1,8.1281204E1,3.5764957E1,1.2296409E1,8.1807074E2,7.590208E1,7.069422E1,3.572379E1,1.0378969E1,1.4588559E1,2.153616E1,1.0138043E1,1.0144371E1,1.5738522E1,3.4320858E1,4.6960342E1],"tree_param":{"num_deleted":"0","num_feature":"18","num_nodes":"29","size_leaf_vector":"1"}},{"base_weights":[2.5142173E-3,3.5178147E-2,-2.1369645E-1,-3.9478436E-1,5.4429732E-2,-2.628439E-1,1.274863E-1,-1.8658845E-1,-4.4493295E-2,7.9538755E-2,-2.7121967E-1,-4.7048503E-1,-1.3627762E-1,2.2342633E-2,-1.008334E-2,-2.5394721E-2,-1.1876591E-3,3.1465206E-3,2.3860313E-2,-2.5607033E-2,3.5074179E-3,-6.3277385E-3,-2.9056264E-2,1.7612617E-2,-1.0367313E-2],"categories":[],"categories_nodes":[],"categories_segments":[],"categories_sizes":[],"default_left":[0,0,0,0,0,0,0,0,0,0,0,0,0,0,0,0,0,0,0,0,0,0,0,0,0],"id":33,"left_children":[1,3,5,7,9,11,13,15,-1,17,19,21,23,-1,-1,-1,-1,-1,-1,-1,-1,-1,-1,-1,-1],"loss_changes":[8.712789E0,8.89261E0,2.7486486E0,4.580616E0,8.416379E0,3.6640148E0,2.304088E0,1.7502546E0,0E0,6.270417E0,6.098926E0,1.9552431E0,3.18195E0,0E0,0E0,0E0,0E0,0E0,0E0,0E0,0E0,0E0,0E0,0E0,0E0],"parents":[2147483647,0,0,1,1,2,2,3,3,4,4,5,5,6,6,7,7,9,9,10,10,11,11,12,12],"right_children":[2,4,6,8,10,12,14,16,-1,18,20,22,24,-1,-1,-1,-1,-1,-1,-1,-1,-1,-1,-1,-1],"split_conditions":[3.7097805E1,2.640609E-1,1.463284E1,4.7E1,1.67093E1,4.2081768E1,2.132602E1,3.083194E0,-4.4493295E-2,5.4E1,5.2046307E1,1.564301E0,4.31731E1,2.2342633E-2,-1.008334E-2,-2.5394721E-2,-1.1876591E-3,3.1465206E-3,2.3860313E-2,-2.5607033E-2,3.5074179E-3,-6.3277385E-3,-2.9056264E-2,1.7612617E-2,-1.0367313E-2],"split_indices":[5,8,8,12,8,5,8,7,0,12,7,8,5,0,0,0,0,0,0,0,0,0,0,0,0],"split_type":[0,0,0,0,0,0,0,0,0,0,0,0,0,0,0,0,0,0,0,0,0,0,0,0,0],"sum_hessian":[1.2316415E3,1.0707202E3,1.6092128E2,4.505097E1,1.0256692E3,1.4085997E2,2.0061302E1,3.2683506E1,1.2367462E1,9.529484E2,7.2720825E1,5.231543E1,8.854455E1,1.0000533E1,1.0060769E1,1.0279994E1,2.2403513E1,9.1585645E2,3.7091953E1,4.2339447E1,3.0381382E1,1.3255121E1,3.906031E1,1.0742623E1,7.780192E1],"tree_param":{"num_deleted":"0","num_feature":"18","num_nodes":"25","size_leaf_vector":"1"}},{"base_weights":[-1.7086973E-2,1.2652361E-1,-1.547431E-1,1.6828457E-1,-2.6090097E-1,-1.0477857E-1,-4.366968E-1,2.9161534E-1,2.2591973E-2,-1.4527908E-1,-3.7043847E-2,2.6753116E-2,-2.9777518E-1,-2.634064E-1,-7.2738326E-1,-1.3621149E-2,1.6688993E-2,7.833637E-3,-1.6667647E-2,-2.462972E-2,3.597807E-3,-2.2931362E-3,1.7903842E-2,-1.0460153E-2,-2.7130065E-2,-5.6206784E-3,-3.0534191E-2,-4.208222E-2,-2.0398792E-2],"categories":[],"categories_nodes":[],"categories_segments":[],"categories_sizes":[],"default_left":[0,0,0,0,0,0,0,0,0,0,0,0,0,0,0,0,0,0,0,0,0,0,0,0,0,0,0,0,0],"id":34,"left_children":[1,3,5,7,9,11,13,15,17,19,-1,21,23,25,27,-1,-1,-1,-1,-1,-1,-1,-1,-1,-1,-1,-1,-1,-1],"loss_changes":[2.430399E1,9.779836E0,8.796531E0,9.764813E0,3.1635385E0,1.3576166E1,4.5519333E0,7.093006E0,1.2002089E1,3.7132688E0,0E0,7.686062E0,4.5858574E0,3.1071525E0,9.194927E-1,0E0,0E0,0E0,0E0,0E0,0E0,0E0,0E0,0E0,0E0,0E0,0E0,0E0,0E0],"parents":[2147483647,0,0,1,1,2,2,3,3,4,4,5,5,6,6,7,7,8,8,9,9,11,11,12,12,13,13,14,14],"right_children":[2,4,6,8,10,12,14,16,18,20,-1,22,24,26,28,-1,-1,-1,-1,-1,-1,-1,-1,-1,-1,-1,-1,-1,-1],"split_conditions":[2.202396E1,6.689693E1,4.7729183E1,3E0,2.4E1,3.7630363E1,2.5E1,1.0284252E0,1.2206555E1,3E0,-3.7043847E-2,4.6E1,3.522783E1,2.4E1,6.2816796E0,-1.3621149E-2,1.6688993E-2,7.833637E-3,-1.6667647E-2,-2.462972E-2,3.597807E-3,-2.2931362E-3,1.7903842E-2,-1.0460153E-2,-2.7130065E-2,-5.6206784E-3,-3.0534191E-2,-4.208222E-2,-2.0398792E-2],"split_indices":[0,1,0,10,12,1,5,5,0,12,0,6,0,12,8,0,0,0,0,0,0,0,0,0,0,0,0,0,0],"split_type":[0,0,0,0,0,0,0,0,0,0,0,0,0,0,0,0,0,0,0,0,0,0,0,0,0,0,0,0,0],"sum_hessian":[1.2274163E3,6.0075543E2,6.266609E2,5.4281085E2,5.7944584E1,5.334931E2,9.316777E1,2.9342282E2,2.4938802E2,4.7745743E1,1.019884E1,3.1778E2,2.1571309E2,5.956483E1,3.360294E1,2.0029213E1,2.7339362E2,1.8155716E2,6.7830864E1,1.788449E1,2.9861254E1,2.6135968E2,5.6420322E1,1.5976756E2,5.5945526E1,4.2437237E1,1.7127598E1,2.3545155E1,1.0057786E1],"tree_param":{"num_deleted":"0","num_feature":"18","num_nodes":"29","size_leaf_vector":"1"}},{"base_weights":[5.1707323E-3,1.582622E-2,-3.593011E-2,2.55104E-2,-3.867057E-2,4.1064736E-2,-4.7602466E-1,6.056026E-4,1.24005955E-2,-1.2229378E-2,-3.250741E-2],"categories":[],"categories_nodes":[],"categories_segments":[],"categories_sizes":[],"default_left":[0,0,0,0,0,0,0,0,0,0,0],"id":35,"left_children":[1,3,-1,5,-1,7,9,-1,-1,-1,-1],"loss_changes":[9.613768E0,9.405581E0,0E0,9.490765E0,0E0,7.058161E0,1.3159151E0,0E0,0E0,0E0,0E0],"parents":[2147483647,0,0,1,1,3,3,5,5,6,6],"right_children":[2,4,-1,6,-1,8,10,-1,-1,-1,-1],"split_conditions":[8.0254036E1,7.4E1,-3.593011E-2,2.5147202E1,-3.867057E-2,1E0,3.226604E1,6.056026E-4,1.24005955E-2,-1.2229378E-2,-3.250741E-2],"split_indices":[1,12,0,8,0,3,8,0,0,0,0],"split_type":[0,0,0,0,0,0,0,0,0,0,0],"sum_hessian":[1.2440992E3,1.2270132E3,1.7086126E1,1.2130958E3,1.3917371E1,1.1774957E3,3.560009E1,1.0339067E3,1.4358891E2,1.631698E1,1.9283112E1],"tree_param":{"num_deleted":"0","num_feature":"18","num_nodes":"11","size_leaf_vector":"1"}},{"base_weights":[7.1355244E-3,1.0430819E-1,-1.4756678E-1,1.1962048E-1,-4.4462908E-2,-1.0047539E-1,-4.8424548E-1,4.245477E-1,8.0468565E-2,-7.454474E-2,-4.535087E-1,-4.623818E-2,-3.2981995E-1,4.155397E-2,6.978744E-3,5.8002807E-3,-1.1862684E-2,-7.699759E-4,-1.0757154E-2,-9.710687E-3,-3.7996713E-2,-5.159111E-3,-3.0035166E-2],"categories":[],"categories_nodes":[],"categories_segments":[],"categories_sizes":[],"default_left":[0,0,0,0,0,0,0,0,0,0,0,0,0,0,0,0,0,0,0,0,0,0,0],"id":36,"left_children":[1,3,5,7,-1,9,11,13,15,17,19,-1,21,-1,-1,-1,-1,-1,-1,-1,-1,-1,-1],"loss_changes":[1.8606918E1,1.1671697E1,7.522587E0,8.914103E0,0E0,3.8129048E0,3.6634226E0,9.737483E0,7.541373E0,3.2618427E0,2.1213017E0,0E0,2.6852283E0,0E0,0E0,0E0,0E0,0E0,0E0,0E0,0E0,0E0,0E0],"parents":[2147483647,0,0,1,1,2,2,3,3,5,5,6,6,7,7,8,8,9,9,10,10,12,12],"right_children":[2,4,6,8,-1,10,12,14,16,18,20,-1,22,-1,-1,-1,-1,-1,-1,-1,-1,-1,-1],"split_conditions":[2.8092237E1,1E0,1.0307764E1,1E0,-4.4462908E-2,5.2863403E1,1.1718677E1,1.3036628E1,6.475823E1,4.3745605E1,4.162932E1,-4.623818E-2,3.8600517E1,4.155397E-2,6.978744E-3,5.8002807E-3,-1.1862684E-2,-7.699759E-4,-1.0757154E-2,-9.710687E-3,-3.7996713E-2,-5.159111E-3,-3.0035166E-2],"split_indices":[0,2,8,15,0,1,5,0,1,0,7,0,0,0,0,0,0,0,0,0,0,0,0],"split_type":[0,0,0,0,0,0,0,0,0,0,0,0,0,0,0,0,0,0,0,0,0,0,0],"sum_hessian":[1.2357278E3,7.5918756E2,4.7654028E2,7.485312E2,1.065634E1,4.192044E2,5.7335873E1,8.405344E1,6.644778E2,3.916486E2,2.7555822E1,1.3587481E1,4.374839E1,3.3849148E1,5.020429E1,5.9820386E2,6.627387E1,2.7646017E2,1.1518843E2,1.5810718E1,1.1745105E1,2.4571375E1,1.9177015E1],"tree_param":{"num_deleted":"0","num_feature":"18","num_nodes":"23","size_leaf_vector":"1"}},{"base_weights":[5.628403E-3,-3.517453E-1,2.7089277E-2,-4.274657E-1,2.3276545E-3,1.9671004E-1,-1.4947575E-2,-2.8448597E-1,-3.696822E-2,-1.6742205E-2,2.4163705E-1,6.957791E-2,-8.8648416E-2,-7.366899E-3,-2.9952375E-2,4.7696304E-2,9.657316E-3,-1.09322114E-4,1.887991E-2,-1.3293071E-3,-1.522358E-2],"categories":[],"categories_nodes":[],"categories_segments":[],"categories_sizes":[],"default_left":[0,0,0,0,0,0,0,0,0,0,0,0,0,0,0,0,0,0,0,0,0],"id":37,"left_children":[1,3,5,7,-1,9,11,13,-1,-1,15,17,19,-1,-1,-1,-1,-1,-1,-1,-1],"loss_changes":[9.47207E0,2.1299906E0,8.308448E0,2.4157276E0,0E0,5.607296E0,5.8271255E0,1.7237904E0,0E0,0E0,7.2057447E0,9.634121E0,6.683837E0,0E0,0E0,0E0,0E0,0E0,0E0,0E0,0E0],"parents":[2147483647,0,0,1,1,2,2,3,3,5,5,6,6,7,7,10,10,11,11,12,12],"right_children":[2,4,6,8,-1,10,12,14,-1,-1,16,18,20,-1,-1,-1,-1,-1,-1,-1,-1],"split_conditions":[2E0,4E0,9.962629E0,4E0,2.3276545E-3,4.705918E-1,5E0,3.2418198E1,-3.696822E-2,-1.6742205E-2,6.6884E-1,9.352966E0,4.789871E0,-7.366899E-3,-2.9952375E-2,4.7696304E-2,9.657316E-3,-1.09322114E-4,1.887991E-2,-1.3293071E-3,-1.522358E-2],"split_indices":[12,10,1,11,0,8,11,9,0,0,8,8,8,0,0,0,0,0,0,0,0],"split_type":[0,0,0,0,0,0,0,0,0,0,0,0,0,0,0,0,0,0,0,0,0],"sum_hessian":[1.23278E3,6.89648E1,1.1638152E3,5.7886738E1,1.1078063E1,2.30412E2,9.334032E2,4.1002563E1,1.6884172E1,1.7453838E1,2.1295818E2,4.3479947E2,4.9860373E2,2.9575928E1,1.1426638E1,1.2383433E1,2.0057474E2,3.5344476E2,8.1354706E1,3.8811908E2,1.1048463E2],"tree_param":{"num_deleted":"0","num_feature":"18","num_nodes":"21","size_leaf_vector":"1"}},{"base_weights":[-2.7380288E-2,4.005535E-2,-2.1588516E-1,7.0023894E-2,-2.0682994E-1,-1.6935174E-1,-6.239748E-1,3.4799996E-1,4.0589634E-2,-3.7676033E-2,-1.3492513E-1,-1.1103192E-1,-4.1792747E-1,-4.2160224E-2,-1.4441693E-2,3.879777E-3,2.9171033E-2,-1.112575E-2,4.594359E-3,3.6367483E-2,-1.3327534E-2,-1.1301305E-2,1.3848644E-3,7.6312497E-3,-3.2961097E-2],"categories":[],"categories_nodes":[],"categories_segments":[],"categories_sizes":[],"default_left":[0,0,0,0,0,0,0,0,0,0,0,0,0,0,0,0,0,0,0,0,0,0,0,0,0],"id":38,"left_children":[1,3,5,7,9,11,13,15,17,-1,19,21,23,-1,-1,-1,-1,-1,-1,-1,-1,-1,-1,-1,-1],"loss_changes":[1.5668077E1,6.733595E0,6.0609055E0,6.61806E0,3.7725282E0,4.199234E0,2.1711874E0,4.8870316E0,9.928319E0,0E0,1.0217726E1,3.8122344E0,7.712702E0,0E0,0E0,0E0,0E0,0E0,0E0,0E0,0E0,0E0,0E0,0E0,0E0],"parents":[2147483647,0,0,1,1,2,2,3,3,4,4,5,5,6,6,7,7,8,8,10,10,11,11,12,12],"right_children":[2,4,6,8,10,12,14,16,18,-1,20,22,24,-1,-1,-1,-1,-1,-1,-1,-1,-1,-1,-1,-1],"split_conditions":[3.3805515E1,3.7E1,1.1607998E1,3.6698296E0,1.1871979E0,3.9986885E1,3.1813171E1,1.2E1,3E0,-3.7676033E-2,1.6996732E0,6E0,1.1E1,-4.2160224E-2,-1.4441693E-2,3.879777E-3,2.9171033E-2,-1.112575E-2,4.594359E-3,3.6367483E-2,-1.3327534E-2,-1.1301305E-2,1.3848644E-3,7.6312497E-3,-3.2961097E-2],"split_indices":[0,5,8,1,8,1,5,6,12,0,8,11,12,0,0,0,0,0,0,0,0,0,0,0,0],"split_type":[0,0,0,0,0,0,0,0,0,0,0,0,0,0,0,0,0,0,0,0,0,0,0,0,0],"sum_hessian":[1.2308671E3,9.0713617E2,3.2373093E2,8.095804E2,9.755578E1,2.9186526E2,3.1865662E1,7.648031E1,7.331001E2,1.0237891E1,8.731789E1,2.3757341E2,5.4291836E1,1.8347696E1,1.3517965E1,3.6214222E1,4.0266087E1,1.1906731E2,6.140328E2,1.0964422E1,7.635347E1,1.2955476E2,1.0801865E2,1.6245657E1,3.804618E1],"tree_param":{"num_deleted":"0","num_feature":"18","num_nodes":"25","size_leaf_vector":"1"}},{"base_weights":[1.31993005E-2,3.113462E-1,-3.5101492E-2,5.4383267E-2,2.4436474E-1,-7.7333567E-3,-3.126763E-1,5.535692E-2,1.6559958E-1,1.6830347E-2,-2.9938325E-1,-2.1096209E-1,-4.4683304E-2,1.6383095E-2,-1.9724076E-3,1.2954229E-3,-3.0362535E-2,1.0455524E-3,-2.5889236E-2,-1.9308558E-2,2.4443228E-2],"categories":[],"categories_nodes":[],"categories_segments":[],"categories_sizes":[],"default_left":[0,0,0,0,0,0,0,0,0,0,0,0,0,0,0,0,0,0,0,0,0],"id":39,"left_children":[1,3,5,-1,7,9,11,-1,13,15,17,19,-1,-1,-1,-1,-1,-1,-1,-1,-1],"loss_changes":[1.7674238E1,8.631472E0,8.023134E0,0E0,1.0608404E1,6.901553E0,5.413047E0,0E0,4.8876686E0,5.0513716E0,5.2456393E0,1.0240358E1,0E0,0E0,0E0,0E0,0E0,0E0,0E0,0E0,0E0],"parents":[2147483647,0,0,1,1,2,2,4,4,5,5,6,6,8,8,9,9,10,10,11,11],"right_children":[2,4,6,-1,8,10,12,-1,14,16,18,20,-1,-1,-1,-1,-1,-1,-1,-1,-1],"split_conditions":[7.784882E0,1E0,4.7132122E1,5.4383267E-2,3.6851838E0,1.3200378E2,1.0307764E1,5.535692E-2,2.6E1,3.226604E1,1.7445932E1,5.44675E0,-4.4683304E-2,1.6383095E-2,-1.9724076E-3,1.2954229E-3,-3.0362535E-2,1.0455524E-3,-2.5889236E-2,-1.9308558E-2,2.4443228E-2],"split_indices":[0,15,0,0,0,7,8,0,7,8,5,8,0,0,0,0,0,0,0,0,0],"split_type":[0,0,0,0,0,0,0,0,0,0,0,0,0,0,0,0,0,0,0,0,0],"sum_hessian":[1.2255563E3,1.7010443E2,1.0554518E3,1.2300671E1,1.5780376E2,9.6166235E2,9.378947E1,1.2108967E1,1.456948E2,8.878288E2,7.383354E1,8.097604E1,1.2813419E1,8.1043205E1,6.465159E1,8.76044E2,1.1784769E1,3.030067E1,4.3532867E1,6.51206E1,1.5855448E1],"tree_param":{"num_deleted":"0","num_feature":"18","num_nodes":"21","size_leaf_vector":"1"}},{"base_weights":[-9.026909E-6,4.1720144E-2,-2.1908128E-1,-3.2271665E-1,6.582289E-2,-1.472216E-1,-7.7908444E-1,6.078014E-3,-4.9208066E-1,1.1789185E-1,-9.2998005E-2,-3.1348306E-1,2.679368E-2,-4.8114035E-2,-2.5596483E-2,-3.0563584E-2,-4.8894095E-3,1.5722355E-2,3.2003857E-3,-6.741756E-4,-3.1785246E-2,-1.1800987E-2,-3.5583194E-2,-9.122394E-3,1.0729919E-2],"categories":[],"categories_nodes":[],"categories_segments":[],"categories_sizes":[],"default_left":[0,0,0,0,0,0,0,0,0,0,0,0,0,0,0,0,0,0,0,0,0,0,0,0,0],"id":40,"left_children":[1,3,5,7,9,11,13,-1,15,17,19,21,23,-1,-1,-1,-1,-1,-1,-1,-1,-1,-1,-1,-1],"loss_changes":[1.1301131E1,9.142632E0,7.845069E0,4.9196253E0,8.072466E0,5.115979E0,5.969238E-1,0E0,2.1471186E0,7.7600183E0,1.0401933E1,2.619093E0,3.4649665E0,0E0,0E0,0E0,0E0,0E0,0E0,0E0,0E0,0E0,0E0,0E0,0E0],"parents":[2147483647,0,0,1,1,2,2,3,3,4,4,5,5,6,6,8,8,9,9,10,10,11,11,12,12],"right_children":[2,4,6,8,10,12,14,-1,16,18,20,22,24,-1,-1,-1,-1,-1,-1,-1,-1,-1,-1,-1,-1],"split_conditions":[3.956008E1,2E0,6E1,2.0524626E0,4.8576336E1,6E0,1.1E2,6.078014E-3,5.3972626E1,9.23583E0,6.6E1,3.7E1,2.3863034E0,-4.8114035E-2,-2.5596483E-2,-3.0563584E-2,-4.8894095E-3,1.5722355E-2,3.2003857E-3,-6.741756E-4,-3.1785246E-2,-1.1800987E-2,-3.5583194E-2,-9.122394E-3,1.0729919E-2],"split_indices":[0,12,6,5,1,11,6,0,1,0,6,12,8,0,0,0,0,0,0,0,0,0,0,0,0],"split_type":[0,0,0,0,0,0,0,0,0,0,0,0,0,0,0,0,0,0,0,0,0,0,0,0,0],"sum_hessian":[1.2342173E3,1.0374181E3,1.9679921E2,6.3586864E1,9.7383124E2,1.7553716E2,2.1262056E1,1.7627785E1,4.595908E1,7.335852E2,2.4024602E2,8.935868E1,8.617848E1,1.1069442E1,1.01926155E1,3.4868385E1,1.1090695E1,1.5679659E2,5.7678864E2,2.1043854E2,2.980748E1,7.613909E1,1.3219589E1,4.077631E1,4.5402172E1],"tree_param":{"num_deleted":"0","num_feature":"18","num_nodes":"25","size_leaf_vector":"1"}},{"base_weights":[5.980072E-3,1.0617379E-1,-1.5477844E-1,-2.9422376E-1,1.3992292E-1,-1.2168223E-1,-6.5206265E-1,-1.7554054E-1,-3.6804773E-2,8.952486E-2,4.270674E-1,-7.416072E-2,-3.6844772E-1,-3.8132396E-2,-2.274824E-2,-1.3909302E-2,5.725799E-3,1.704533E-2,2.8032192E-3,2.7080117E-2,-1.5503836E-2,1.3263345E-3,-8.348664E-3,-2.410435E-2,1.47107635E-2],"categories":[],"categories_nodes":[],"categories_segments":[],"categories_sizes":[],"default_left":[0,0,0,0,0,0,0,0,0,0,0,0,0,0,0,0,0,0,0,0,0,0,0,0,0],"id":41,"left_children":[1,3,5,7,9,11,13,15,-1,17,19,21,23,-1,-1,-1,-1,-1,-1,-1,-1,-1,-1,-1,-1],"loss_changes":[1.9964245E1,1.0358923E1,7.753413E0,3.0004272E0,1.0162193E1,5.2197657E0,2.953148E-1,1.4715384E0,0E0,5.035141E0,9.030998E0,3.5223489E0,5.5639277E0,0E0,0E0,0E0,0E0,0E0,0E0,0E0,0E0,0E0,0E0,0E0,0E0],"parents":[2147483647,0,0,1,1,2,2,3,3,4,4,5,5,6,6,7,7,9,9,10,10,11,11,12,12],"right_children":[2,4,6,8,10,12,14,16,-1,18,20,22,24,-1,-1,-1,-1,-1,-1,-1,-1,-1,-1,-1,-1],"split_conditions":[2.794371E1,2E0,1.5061856E1,1.2051189E1,1E0,4.917169E1,8.6E1,1.4E1,-3.6804773E-2,1E0,4E0,1.8635728E0,2E0,-3.8132396E-2,-2.274824E-2,-1.3909302E-2,5.725799E-3,1.704533E-2,2.8032192E-3,2.7080117E-2,-1.5503836E-2,1.3263345E-3,-8.348664E-3,-2.410435E-2,1.47107635E-2],"split_indices":[0,12,8,0,3,0,6,6,0,15,10,8,13,0,0,0,0,0,0,0,0,0,0,0,0],"split_type":[0,0,0,0,0,0,0,0,0,0,0,0,0,0,0,0,0,0,0,0,0,0,0,0,0],"sum_hessian":[1.2374565E3,7.6253906E2,4.7491757E2,5.867729E1,7.0386176E2,4.464493E2,2.8468252E1,4.73553E1,1.1321993E1,5.9988495E2,1.03976814E2,3.7544714E2,7.1002174E1,1.6398302E1,1.2069951E1,3.5007675E1,1.2347626E1,6.9389244E1,5.3049567E2,9.022347E1,1.3753342E1,1.8042636E2,1.9502078E2,6.0841106E1,1.0161068E1],"tree_param":{"num_deleted":"0","num_feature":"18","num_nodes":"25","size_leaf_vector":"1"}},{"base_weights":[-1.3331884E-3,6.7495435E-2,-1.8222688E-1,4.3608066E-2,5.4770533E-2,-1.3853075E-1,-5.895835E-1,1.3239479E-1,-1.06591076E-1,-2.3166467E-1,-2.6678817E-2,-1.3304317E-2,-3.9559256E-2,7.1308104E-4,1.0265955E-2,8.762179E-4,-2.4697918E-2,-3.1271923E-2,-7.7791438E-3,1.7451711E-2,-5.352293E-3],"categories":[],"categories_nodes":[],"categories_segments":[],"categories_sizes":[],"default_left":[0,0,0,0,0,0,0,0,0,0,0,0,0,0,0,0,0,0,0,0,0],"id":42,"left_children":[1,3,5,-1,7,9,11,13,15,17,19,-1,-1,-1,-1,-1,-1,-1,-1,-1,-1],"loss_changes":[1.5364005E1,9.105049E0,5.9722776E0,0E0,1.1049681E1,3.2072144E0,1.918273E0,5.125622E0,1.3793788E1,4.941456E0,4.303345E0,0E0,0E0,0E0,0E0,0E0,0E0,0E0,0E0,0E0,0E0],"parents":[2147483647,0,0,1,1,2,2,4,4,5,5,6,6,7,7,8,8,9,9,10,10],"right_children":[2,4,6,-1,8,10,12,14,16,18,20,-1,-1,-1,-1,-1,-1,-1,-1,-1,-1],"split_conditions":[3.2984295E1,3.6851838E0,1.1607998E1,4.3608066E-2,3E0,6E0,4.4553337E1,2.2022715E1,1.4037562E1,8E0,7.4130356E-1,-1.3304317E-2,-3.9559256E-2,7.1308104E-4,1.0265955E-2,8.762179E-4,-2.4697918E-2,-3.1271923E-2,-7.7791438E-3,1.7451711E-2,-5.352293E-3],"split_indices":[0,0,8,0,10,11,7,7,0,12,8,0,0,0,0,0,0,0,0,0,0],"split_type":[0,0,0,0,0,0,0,0,0,0,0,0,0,0,0,0,0,0,0,0,0],"sum_hessian":[1.2320029E3,8.9289166E2,3.3911133E2,1.2848836E1,8.800428E2,3.0746988E2,3.1641464E1,5.9432E2,2.8572278E2,1.6718854E2,1.4028134E2,1.30388E1,1.8602665E1,2.2730103E2,3.67019E2,2.171129E2,6.860987E1,2.5902952E1,1.4128558E2,2.4130255E1,1.16151085E2],"tree_param":{"num_deleted":"0","num_feature":"18","num_nodes":"21","size_leaf_vector":"1"}},{"base_weights":[-1.10667655E-2,5.2355006E-2,-1.9743398E-1,4.3881487E-2,4.0598765E-2,1.84893E-1,-2.6192394E-1,-3.4285197E-1,6.717722E-2,-2.53933E-1,4.434389E-2,8.047123E-2,-3.0421734E-1,-9.154343E-3,-3.9668173E-2,1.5940255E-2,7.341485E-4,1.985466E-3,-2.382533E-2,-9.130961E-3,2.3996292E-2,-3.469909E-2,-1.3479886E-2],"categories":[],"categories_nodes":[],"categories_segments":[],"categories_sizes":[],"default_left":[0,0,0,0,0,0,0,0,0,0,0,0,0,0,0,0,0,0,0,0,0,0,0],"id":43,"left_children":[1,3,5,-1,7,9,11,13,15,17,-1,19,21,-1,-1,-1,-1,-1,-1,-1,-1,-1,-1],"loss_changes":[1.4559693E1,8.882478E0,7.7595806E0,0E0,9.270105E0,1.4310907E1,3.9057045E0,4.099727E0,1.1214417E1,1.9086592E0,0E0,3.267488E0,3.0346546E0,0E0,0E0,0E0,0E0,0E0,0E0,0E0,0E0,0E0,0E0],"parents":[2147483647,0,0,1,1,2,2,4,4,5,5,6,6,7,7,8,8,9,9,11,11,12,12],"right_children":[2,4,6,-1,8,10,12,14,16,18,-1,20,22,-1,-1,-1,-1,-1,-1,-1,-1,-1,-1],"split_conditions":[3.3970577E1,3.6851838E0,7.4130356E-1,4.3881487E-2,2E0,5.328494E-1,3.6698296E0,1.2051189E1,5E0,4E0,4.434389E-2,3.6055512E0,6.9850955E0,-9.154343E-3,-3.9668173E-2,1.5940255E-2,7.341485E-4,1.985466E-3,-2.382533E-2,-9.130961E-3,2.3996292E-2,-3.469909E-2,-1.3479886E-2],"split_indices":[0,0,8,0,12,8,1,0,12,5,0,8,1,0,0,0,0,0,0,0,0,0,0],"split_type":[0,0,0,0,0,0,0,0,0,0,0,0,0,0,0,0,0,0,0,0,0,0,0],"sum_hessian":[1.2299373E3,9.181909E2,3.1174628E2,1.1861689E1,9.063292E2,4.472549E1,2.6702078E2,5.797773E1,8.483515E2,2.7914064E1,1.6811428E1,2.925752E1,2.3776326E2,4.383788E1,1.4139853E1,1.4555756E2,7.0279395E2,1.2389773E1,1.5524292E1,1.796691E1,1.1290611E1,1.7842125E1,2.1992114E2],"tree_param":{"num_deleted":"0","num_feature":"18","num_nodes":"23","size_leaf_vector":"1"}},{"base_weights":[7.496221E-3,9.941136E-2,-8.4472634E-2,1.1710223E-1,-4.3964125E-2,2.757733E-1,-1.1606195E-1,4.0596906E-2,1.0211844E-1,4.3915316E-1,-7.76388E-3,-5.659104E-2,-2.4016052E-1,5.9534847E-3,-2.8426439E-2,1.0693978E-2,4.5415338E-2,-4.2370325E-3,4.4778023E-2,-9.122203E-3,-2.6771212E-2],"categories":[],"categories_nodes":[],"categories_segments":[],"categories_sizes":[],"default_left":[0,0,0,0,0,0,0,0,0,0,0,0,0,0,0,0,0,0,0,0,0],"id":44,"left_children":[1,3,5,7,-1,9,11,-1,13,15,-1,17,19,-1,-1,-1,-1,-1,-1,-1,-1],"loss_changes":[1.0442923E1,1.0799936E1,7.059618E0,6.244403E0,0E0,3.5952148E0,4.1818094E0,0E0,6.843799E0,3.671597E0,0E0,1.041118E1,3.0355158E0,0E0,0E0,0E0,0E0,0E0,0E0,0E0,0E0],"parents":[2147483647,0,0,1,1,2,2,3,3,5,5,6,6,8,8,9,9,11,11,12,12],"right_children":[2,4,6,8,-1,10,12,-1,14,16,-1,18,20,-1,-1,-1,-1,-1,-1,-1,-1],"split_conditions":[2.202396E1,1E0,3.6698296E0,3.6851838E0,-4.3964125E-2,5.0396976E1,3.8600517E1,4.0596906E-2,7.848416E1,4.20119E1,-7.76388E-3,3.8027134E1,8.555882E0,5.9534847E-3,-2.8426439E-2,1.0693978E-2,4.5415338E-2,-4.2370325E-3,4.4778023E-2,-9.122203E-3,-2.6771212E-2],"split_indices":[0,2,1,0,0,0,0,0,1,0,0,0,8,0,0,0,0,0,0,0,0],"split_type":[0,0,0,0,0,0,0,0,0,0,0,0,0,0,0,0,0,0,0,0,0],"sum_hessian":[1.2333688E3,6.1682404E2,6.165447E2,6.06737E2,1.008703E1,4.9081966E1,5.674627E2,1.168503E1,5.9505194E2,3.557811E1,1.3503858E1,3.846064E2,1.8285631E2,5.8118445E2,1.3867542E1,2.502009E1,1.0558019E1,3.7444717E2,1.0159234E1,1.5431049E2,2.8545822E1],"tree_param":{"num_deleted":"0","num_feature":"18","num_nodes":"21","size_leaf_vector":"1"}},{"base_weights":[-3.3429065E-3,9.0645336E-2,-9.912042E-2,-2.3420922E-1,1.2451312E-1,-8.322065E-2,-4.4863183E-2,2.0104876E-2,-3.7672448E-1,2.2396669E-1,2.400696E-3,-4.8367527E-1,-6.6130646E-2,-2.6293725E-2,7.2534047E-3,9.690008E-3,3.3104572E-2,4.7544795E-3,-1.8660268E-2,-1.3903985E-2,-3.159008E-2,-2.5211142E-3,-2.594677E-2],"categories":[],"categories_nodes":[],"categories_segments":[],"categories_sizes":[],"default_left":[0,0,0,0,0,0,0,0,0,0,0,0,0,0,0,0,0,0,0,0,0,0,0],"id":45,"left_children":[1,3,5,7,9,11,-1,-1,13,15,17,19,21,-1,-1,-1,-1,-1,-1,-1,-1,-1,-1],"loss_changes":[1.1046973E1,6.843766E0,7.6383E0,5.485951E0,6.8194094E0,4.0538554E0,0E0,0E0,3.8568234E0,3.962082E0,8.84631E0,5.636544E-1,4.0547357E0,0E0,0E0,0E0,0E0,0E0,0E0,0E0,0E0,0E0,0E0],"parents":[2147483647,0,0,1,1,2,2,3,3,4,4,5,5,8,8,9,9,10,10,11,11,12,12],"right_children":[2,4,6,8,10,12,-1,-1,14,16,18,20,22,-1,-1,-1,-1,-1,-1,-1,-1,-1,-1],"split_conditions":[2.202396E1,2E0,2.5147202E1,5.3851647E0,3E0,2.640609E-1,-4.4863183E-2,2.0104876E-2,5.3972626E1,3E0,1.3837717E1,3.0528675E1,5.878991E1,-2.6293725E-2,7.2534047E-3,9.690008E-3,3.3104572E-2,4.7544795E-3,-1.8660268E-2,-1.3903985E-2,-3.159008E-2,-2.5211142E-3,-2.594677E-2],"split_indices":[0,12,8,0,10,8,0,0,1,13,0,0,0,0,0,0,0,0,0,0,0,0,0],"split_type":[0,0,0,0,0,0,0,0,0,0,0,0,0,0,0,0,0,0,0,0,0,0,0],"sum_hessian":[1.2251761E3,6.183911E2,6.0678503E2,5.7825207E1,5.605659E2,5.960161E2,1.0768938E1,1.024803E1,4.7577175E1,3.084869E2,2.52079E2,2.3277351E1,5.727388E2,3.6994724E1,1.0582453E1,2.8996414E2,1.8522774E1,2.0278441E2,4.929459E1,1.0952658E1,1.2324693E1,5.5461E2,1.8128761E1],"tree_param":{"num_deleted":"0","num_feature":"18","num_nodes":"23","size_leaf_vector":"1"}},{"base_weights":[4.8338974E-4,1.173396E-1,-9.22586E-2,-2.4939377E-2,1.3821617E-1,-4.1825537E-2,-2.8718054E-1,3.277796E-1,5.536698E-2,-7.3249596E-3,-5.040199E-1,-1.46703E-1,-5.2406436E-1,2.4752643E-2,-4.674574E-3,9.0189185E-3,-3.7144783E-3,1.5008978E-2,-2.7709731E-3,-6.937181E-3,-3.4824595E-2,-2.2689875E-2,5.524653E-3,-1.1717474E-2,-3.0528385E-2],"categories":[],"categories_nodes":[],"categories_segments":[],"categories_sizes":[],"default_left":[0,0,0,0,0,0,0,0,0,0,0,0,0,0,0,0,0,0,0,0,0,0,0,0,0],"id":46,"left_children":[1,3,5,-1,7,9,11,13,15,17,19,21,23,-1,-1,-1,-1,-1,-1,-1,-1,-1,-1,-1,-1],"loss_changes":[1.3308089E1,7.057764E0,6.718216E0,0E0,8.247798E0,8.687992E0,4.60036E0,1.1311701E1,5.969277E0,7.5329137E0,2.564149E0,7.1286926E0,1.1584673E0,0E0,0E0,0E0,0E0,0E0,0E0,0E0,0E0,0E0,0E0,0E0,0E0],"parents":[2147483647,0,0,1,1,2,2,4,4,5,5,6,6,7,7,8,8,9,9,10,10,11,11,12,12],"right_children":[2,4,6,-1,8,10,12,14,16,18,20,22,24,-1,-1,-1,-1,-1,-1,-1,-1,-1,-1,-1,-1],"split_conditions":[1.8720018E1,2.640609E-1,4.2495613E1,-2.4939377E-2,8.2181225E0,3E0,4.4553337E1,1.6246096E0,3E0,1.159847E1,8.491105E0,3.1016125E1,1.096851E1,2.4752643E-2,-4.674574E-3,9.0189185E-3,-3.7144783E-3,1.5008978E-2,-2.7709731E-3,-6.937181E-3,-3.4824595E-2,-2.2689875E-2,5.524653E-3,-1.1717474E-2,-3.0528385E-2],"split_indices":[0,8,0,0,5,10,7,9,10,1,1,7,1,0,0,0,0,0,0,0,0,0,0,0,0],"split_type":[0,0,0,0,0,0,0,0,0,0,0,0,0,0,0,0,0,0,0,0,0,0,0,0,0],"sum_hessian":[1.2259703E3,5.42344E2,6.836263E2,1.7024023E1,5.2531995E2,5.4407086E2,1.3955542E2,1.588671E2,3.6645288E2,5.0722482E2,3.6846035E1,8.862065E1,5.093478E1,1.1358929E2,4.527781E1,1.8636934E2,1.8008354E2,6.789288E1,4.3933194E2,1.3308949E1,2.3537085E1,4.0043697E1,4.857695E1,1.2564201E1,3.837058E1],"tree_param":{"num_deleted":"0","num_feature":"18","num_nodes":"25","size_leaf_vector":"1"}},{"base_weights":[-1.2397221E-3,4.1019734E-2,-2.1088862E-1,4.2511847E-2,3.0087134E-2,2.7135006E-1,-2.7200913E-1,7.962103E-2,-1.1170423E-1,-1.8927263E-3,3.1111142E-2,-4.3337876E-1,-1.02034084E-1,2.2161047E-3,1.0836341E-2,-1.0822949E-2,6.602179E-3,-1.5074489E-2,-3.3789176E-2,-1.3265987E-2,1.1535289E-2],"categories":[],"categories_nodes":[],"categories_segments":[],"categories_sizes":[],"default_left":[0,0,0,0,0,0,0,0,0,0,0,0,0,0,0,0,0,0,0,0,0],"id":47,"left_children":[1,3,5,-1,7,9,11,13,15,-1,-1,17,19,-1,-1,-1,-1,-1,-1,-1,-1],"loss_changes":[1.0918964E1,9.048736E0,6.1676807E0,0E0,7.1242113E0,2.600997E0,5.00247E0,3.6268187E0,6.736305E0,0E0,0E0,2.8039646E0,5.000763E0,0E0,0E0,0E0,0E0,0E0,0E0,0E0,0E0],"parents":[2147483647,0,0,1,1,2,2,4,4,5,5,6,6,7,7,8,8,11,11,12,12],"right_children":[2,4,6,-1,8,10,12,14,16,-1,-1,18,20,-1,-1,-1,-1,-1,-1,-1,-1],"split_conditions":[3.8600517E1,3.6851838E0,2.7785542E0,4.2511847E-2,4.806546E1,1.2782118E0,6E0,5.2046307E1,5.2115164E0,-1.8927263E-3,3.1111142E-2,4.428318E1,3.4E1,2.2161047E-3,1.0836341E-2,-1.0822949E-2,6.602179E-3,-1.5074489E-2,-3.3789176E-2,-1.3265987E-2,1.1535289E-2],"split_indices":[0,0,1,0,1,1,11,7,8,0,0,7,5,0,0,0,0,0,0,0,0],"split_type":[0,0,0,0,0,0,0,0,0,0,0,0,0,0,0,0,0,0,0,0,0],"sum_hessian":[1.2304613E3,1.0247119E3,2.057494E2,1.2636059E1,1.01207587E3,2.2757103E1,1.8299231E2,7.503755E2,2.6170038E2,1.2571051E1,1.0186051E1,9.307747E1,8.991483E1,5.977925E2,1.5258301E2,1.8311539E2,7.8584984E1,6.1733105E1,3.1344364E1,6.045187E1,2.9462967E1],"tree_param":{"num_deleted":"0","num_feature":"18","num_nodes":"21","size_leaf_vector":"1"}},{"base_weights":[2.13311E-3,3.449265E-2,-2.5254068E-1,1.1520938E-1,-1.0135073E-1,-3.3678475E-1,-4.9547624E-2,1.3381658E-2,2.142612E-1,2.5496636E-2,-2.1714498E-1,5.299345E-3,-3.894695E-1,-2.824327E-1,2.0777646E-2,3.892889E-3,-1.2830014E-2,8.700506E-3,4.1966386E-2,-1.6715346E-3,4.061153E-2,-5.4711606E-3,-2.6551176E-2,-1.4635646E-3,-2.273704E-2,-3.2775115E-2,4.3131682E-4],"categories":[],"categories_nodes":[],"categories_segments":[],"categories_sizes":[],"default_left":[0,0,0,0,0,0,0,0,0,0,0,0,0,0,0,0,0,0,0,0,0,0,0,0,0,0,0],"id":48,"left_children":[1,3,5,7,9,11,13,15,17,19,21,-1,23,25,-1,-1,-1,-1,-1,-1,-1,-1,-1,-1,-1,-1,-1],"loss_changes":[1.0114427E1,1.1951159E1,2.349496E0,6.891103E0,5.974596E0,2.3182974E0,4.639934E0,5.9053454E0,8.569435E0,9.059554E0,7.1286573E0,0E0,2.0425959E0,3.0914207E0,0E0,0E0,0E0,0E0,0E0,0E0,0E0,0E0,0E0,0E0,0E0,0E0,0E0],"parents":[2147483647,0,0,1,1,2,2,3,3,4,4,5,5,6,6,7,7,8,8,9,9,10,10,12,12,13,13],"right_children":[2,4,6,8,10,12,14,16,18,20,22,-1,24,26,-1,-1,-1,-1,-1,-1,-1,-1,-1,-1,-1,-1,-1],"split_conditions":[4.2495613E1,3.9805573E1,3E0,1.4E1,1.7989796E1,7.2767705E-1,4.852939E0,4.230598E0,5.3E1,3E0,5.752881E1,5.299345E-3,3.1492457E0,1.4366988E1,2.0777646E-2,3.892889E-3,-1.2830014E-2,8.700506E-3,4.1966386E-2,-1.6715346E-3,4.061153E-2,-5.4711606E-3,-2.6551176E-2,-1.4635646E-3,-2.273704E-2,-3.2775115E-2,4.3131682E-4],"split_indices":[0,1,14,6,0,8,8,8,12,13,1,0,1,5,0,0,0,0,0,0,0,0,0,0,0,0,0],"split_type":[0,0,0,0,0,0,0,0,0,0,0,0,0,0,0,0,0,0,0,0,0,0,0,0,0,0,0],"sum_hessian":[1.225254E3,1.0878885E3,1.373655E2,6.825038E2,4.0538477E2,9.661164E1,4.0753857E1,3.3709595E2,3.4540787E2,1.9383122E2,2.1155354E2,1.0165698E1,8.6445946E1,2.7417912E1,1.3335944E1,2.7268573E2,6.441021E1,3.2571204E2,1.9695808E1,1.8121548E2,1.2615751E1,1.585042E2,5.304935E1,1.3483877E1,7.296207E1,1.14673395E1,1.5950573E1],"tree_param":{"num_deleted":"0","num_feature":"18","num_nodes":"27","size_leaf_vector":"1"}},{"base_weights":[1.0010913E-2,1.9390518E-2,-3.029191E-2,2.8506476E-2,-2.8327687E-2,1.6034832E-2,5.125547E-1,1.2128355E-3,-2.9465763E-2,4.5317184E-2,-8.622771E-3],"categories":[],"categories_nodes":[],"categories_segments":[],"categories_sizes":[],"default_left":[0,0,0,0,0,0,0,0,0,0,0],"id":49,"left_children":[1,3,-1,5,-1,7,9,-1,-1,-1,-1],"loss_changes":[7.070721E0,6.4508185E0,0E0,7.1585555E0,0E0,5.779679E0,8.191351E0,0E0,0E0,0E0,0E0],"parents":[2147483647,0,0,1,1,3,3,5,5,6,6],"right_children":[2,4,-1,6,-1,8,10,-1,-1,-1,-1],"split_conditions":[3.226604E1,6.9E1,-3.029191E-2,5.6E1,-2.8327687E-2,8.0254036E1,2.4665552E1,1.2128355E-3,-2.9465763E-2,4.5317184E-2,-8.622771E-3],"split_indices":[8,12,0,12,0,1,5,0,0,0,0],"split_type":[0,0,0,0,0,0,0,0,0,0,0],"sum_hessian":[1.2210323E3,1.2036686E3,1.7363794E1,1.1861659E3,1.7502693E1,1.1573788E3,2.8787077E1,1.142817E3,1.4561837E1,1.8073898E1,1.0713179E1],"tree_param":{"num_deleted":"0","num_feature":"18","num_nodes":"11","size_leaf_vector":"1"}},{"base_weights":[-3.4541566E-2,2.424337E-3,-1.6589199E-1,-2.80073E-1,2.2188304E-2,-5.367105E-1,-1.2602605E-1,-8.580646E-2,-5.041079E-1,-7.6924316E-3,2.4599683E-1,-6.3710506E-3,-3.952359E-2,2.201241E-2,-1.5352723E-1,-1.4125443E-2,1.5082789E-2,-1.4771858E-2,-3.2366443E-2,2.3461625E-3,-6.654741E-3,2.0831185E-3,3.5019726E-2,-1.0699927E-3,-1.2088978E-2],"categories":[],"categories_nodes":[],"categories_segments":[],"categories_sizes":[],"default_left":[0,0,0,0,0,0,0,0,0,0,0,0,0,0,0,0,0,0,0,0,0,0,0,0,0],"id":50,"left_children":[1,3,5,7,9,11,13,15,17,19,21,-1,-1,-1,23,-1,-1,-1,-1,-1,-1,-1,-1,-1,-1],"loss_changes":[5.9314237E0,5.3339067E0,3.8984137E0,2.6754775E0,5.972265E0,2.5722656E0,3.860418E0,2.726941E0,6.6964674E-1,5.4071374E0,9.7370205E0,0E0,0E0,0E0,2.711843E0,0E0,0E0,0E0,0E0,0E0,0E0,0E0,0E0,0E0,0E0],"parents":[2147483647,0,0,1,1,2,2,3,3,4,4,5,5,6,6,7,7,8,8,9,9,10,10,14,14],"right_children":[2,4,6,8,10,12,14,16,18,20,22,-1,-1,-1,24,-1,-1,-1,-1,-1,-1,-1,-1,-1,-1],"split_conditions":[2.9760191E1,2E0,3.1E1,1.1836752E1,1E0,3.3522076E1,3.3522076E1,1E0,9.352966E0,3.9522713E1,3E0,-6.3710506E-3,-3.952359E-2,2.201241E-2,3.1429565E1,-1.4125443E-2,1.5082789E-2,-1.4771858E-2,-3.2366443E-2,2.3461625E-3,-6.654741E-3,2.0831185E-3,3.5019726E-2,-1.0699927E-3,-1.2088978E-2],"split_indices":[5,12,5,9,3,7,7,13,8,1,12,0,0,0,1,0,0,0,0,0,0,0,0,0,0],"split_type":[0,0,0,0,0,0,0,0,0,0,0,0,0,0,0,0,0,0,0,0,0,0,0,0,0],"sum_hessian":[1.220509E3,9.532248E2,2.6728415E2,6.1467335E1,8.917575E2,2.4736006E1,2.4254816E2,3.366154E1,2.7805794E1,7.875739E2,1.0418357E2,1.00418E1,1.4694205E1,1.05386915E1,2.3200946E2,2.2506548E1,1.1154993E1,1.2563613E1,1.5242181E1,5.490678E2,2.3850609E2,7.261955E1,3.156402E1,9.340709E1,1.3860239E2],"tree_param":{"num_deleted":"0","num_feature":"18","num_nodes":"25","size_leaf_vector":"1"}},{"base_weights":[3.0566348E-2,1.340083E-1,-5.5420898E-2,4.6284595E-1,9.585504E-2,2.8305745E-1,-8.156736E-2,7.9343265E-1,2.5124187E-2,1.3420577E-1,-2.2812454E-1,1.4078456E-3,4.8890345E-2,-5.714069E-2,-5.199134E-1,1.3005475E-2,5.322661E-2,1.5177004E-2,-1.6296092E-2,1.2565613E-2,1.9239476E-3,-5.2456553E-3,-3.3883493E-2,-8.325828E-3,1.5487594E-2,-1.1368835E-3,-1.8517321E-2,-3.2821488E-2,-1.0308831E-2],"categories":[],"categories_nodes":[],"categories_segments":[],"categories_sizes":[],"default_left":[0,0,0,0,0,0,0,0,0,0,0,0,0,0,0,0,0,0,0,0,0,0,0,0,0,0,0,0,0],"id":51,"left_children":[1,3,5,7,9,11,13,15,17,19,21,23,-1,25,27,-1,-1,-1,-1,-1,-1,-1,-1,-1,-1,-1,-1,-1,-1],"loss_changes":[1.083961E1,6.894928E0,5.9147882E0,8.263013E0,6.2039995E0,9.383556E0,6.5956283E0,4.4333897E0,2.6070464E0,4.9777374E0,2.862319E0,1.8704624E0,0E0,6.319106E0,1.2582273E0,0E0,0E0,0E0,0E0,0E0,0E0,0E0,0E0,0E0,0E0,0E0,0E0,0E0,0E0],"parents":[2147483647,0,0,1,1,2,2,3,3,4,4,5,5,6,6,7,7,8,8,9,9,10,10,11,11,13,13,14,14],"right_children":[2,4,6,8,10,12,14,16,18,20,22,24,-1,26,28,-1,-1,-1,-1,-1,-1,-1,-1,-1,-1,-1,-1,-1,-1],"split_conditions":[1.8945189E1,1E0,2.7785542E0,1.32E2,6.5556046E1,2.0454085E0,3E0,1.8E1,2.2538359E1,1.3363102E1,6.5188284E0,1E0,4.8890345E-2,4.917169E1,2.5709091E1,1.3005475E-2,5.322661E-2,1.5177004E-2,-1.6296092E-2,1.2565613E-2,1.9239476E-3,-5.2456553E-3,-3.3883493E-2,-8.325828E-3,1.5487594E-2,-1.1368835E-3,-1.8517321E-2,-3.2821488E-2,-1.0308831E-2],"split_indices":[0,15,1,6,1,1,10,6,5,5,9,13,0,0,5,0,0,0,0,0,0,0,0,0,0,0,0,0,0],"split_type":[0,0,0,0,0,0,0,0,0,0,0,0,0,0,0,0,0,0,0,0,0,0,0,0,0,0,0,0,0],"sum_hessian":[1.2168259E3,5.52098E2,6.647279E2,5.624022E1,4.958578E2,4.696162E1,6.177663E2,3.1578278E1,2.4661943E1,4.4389767E2,5.1960136E1,3.4128174E1,1.2833447E1,5.8622925E2,3.1537054E1,1.1302597E1,2.027568E1,1.3829246E1,1.0832699E1,1.9892244E2,2.4497522E2,4.1750523E1,1.0209614E1,2.2392931E1,1.1735244E1,5.291763E2,5.705297E1,2.1213934E1,1.032312E1],"tree_param":{"num_deleted":"0","num_feature":"18","num_nodes":"29","size_leaf_vector":"1"}},{"base_weights":[1.4221485E-2,4.071046E-2,5.222051E-3,1.2920906E-2,-3.5754077E-2,3.101085E-2,-2.7884382E-1,1.2559557E-2,4.4773938E-4,-8.149098E-3,-2.7593687E-2],"categories":[],"categories_nodes":[],"categories_segments":[],"categories_sizes":[],"default_left":[0,0,0,0,0,0,0,0,0,0,0],"id":52,"left_children":[1,-1,3,5,-1,7,9,-1,-1,-1,-1],"loss_changes":[8.856901E0,0E0,6.7643766E0,6.375122E0,0E0,5.517942E0,2.1409316E0,0E0,0E0,0E0,0E0],"parents":[2147483647,0,0,2,2,3,3,5,5,6,6],"right_children":[2,-1,4,6,-1,8,10,-1,-1,-1,-1],"split_conditions":[3.6851838E0,4.071046E-2,7.4E1,4.917169E1,-3.5754077E-2,3.6698296E0,2.1665491E1,1.2559557E-2,4.4773938E-4,-8.149098E-3,-2.7593687E-2],"split_indices":[0,0,12,0,0,1,1,0,0,0,0],"split_type":[0,0,0,0,0,0,0,0,0,0,0],"sum_hessian":[1.2298123E3,1.2685497E1,1.2171267E3,1.2052269E3,1.1899823E1,1.1357048E3,6.952205E1,1.0246208E2,1.0332428E3,4.993063E1,1.9591423E1],"tree_param":{"num_deleted":"0","num_feature":"18","num_nodes":"11","size_leaf_vector":"1"}},{"base_weights":[-4.1594345E-2,-2.4303904E-2,-3.8065007E-1,2.4163667E-2,-1.2844339E-1,-2.5140616E-1,-4.545855E-2,9.755344E-2,-1.1277506E-1,-9.381219E-2,-3.5475474E-2,-1.5389588E-2,-5.520611E-1,9.631733E-4,